tree
version=v4
num_class=1
num_tree_per_iteration=1
label_index=0
max_feature_idx=43
objective=regression
feature_names=NO2_ugm3 AOD AOD_corrected AOD_BLH_ratio T2M_C D2M_C SP_hPa BLH WindSpeed WindDirection RH DayOfYear Month Season IsWeekend Latitude Longitude Elevation_m Dist_Coast_km NO2_log AOD_log BLH_log f_RH PM25_lag1 PM10_lag1 PM25_roll3 PM10_roll3 PM25_roll7 PM10_roll7 AOD_roll3 NO2_roll3 PM25_lag2 PM10_lag2 PM25_lag3 PM10_lag3 PM25_roll14 PM10_roll14 AOD_roll7 NO2_roll7 PM25_ewm7 PM10_ewm7 WindSpeed_roll3 T2M_roll3 Station_enc
feature_infos=[0:188.2073855542541] [0.013000000000000001:1.643] [0.005471142812164034:1.4057846751472551] [4.373831512617013e-06:0.0051678791673223506] [16.16876000000002:42.585840000000019] [-9.9898399999999583:27.927639999999997] [967.41875000000005:1023.0344] [70.183716000000004:4566.2885999999999] [0.19338687022231266:13.64206845937173] [0.014630557607491955:359.83268863204188] [5.782174109629481:89.560601656326455] [1:365] [1:12] -1:1:4:2 [0:1] [23.095644:24.488983000000001] [52.754778000000002:55.765666600000003] [0:290] [1.673108841894088:154.11319660547366] [0:5.2428436915549224] [0.012916225266546328:0.97191463562215219] [4.2652640843951293:8.4266750036561415] [1.0581234110241589:6.7035682787271371] [0:154.3125] [0:483.30434782608694] [0:96.947222222222237] [0:326.86533816425117] [0:82.704089026915099] [0:280.27691511387167] [0.043000000000000059:0.89416666666666655] [0.75900873772463262:105.88166513133524] [0:154.3125] [0:483.30434782608694] [0:154.3125] [0:483.30434782608694] [3.833333333333333:71.633360451524069] [11.636904761904761:249.46763648251064] [0.063214285714285709:0.76864285714285707] [0.95845479163351588:55.475160920926449] [1.0314843103611668:86.794435293751462] [5.8171598971379828:266.27610316023765] [0.91200193456080159:9.7907619466934648] [18.329100000000022:41.78131666666669] -1:4:15:10:13:11:18:16:9:12:14:7:3:2:6:8:19:0:17:1:5
tree_sizes=4087 4447 4184 4348 4188 4266 4527 4450 4445 4182 4005 4095 4430 4438 4621 4306 4302 4208 4338 4456 4634 4730 4807 4480 4435 4529 4643 4196 4282 4365 4471 4545 4570 4554 4395 4551 4642 4401 4375 4289 4477 4625 4443 4368 4448 4637 4555 4631 4727 4568 4826 4456 4390 4649 4639 4789 4388 4531 4633 4902 4731 4717 4478 4624 4480 4651 4666 4752 4659 4906 4736 4826 4486 4554 4653 4627 4527 4551 4478 4478 4622 4565 4409 4324 4638 4579 4636 4921 4920 4912 4387 4480 4642 4819 4550 4796 4642 4642 4397 5149 5067 4966 4500 4482 4501 4567 4744 4646 4741 4742 4818 4898 4754 4740 4673 4740 4748 4573 4653 4303 4729 4486 4904 4740 4821 4662 4850 4811 4748 4694 4489 4659 4591 4710 4688 4509 4764 4481 4754 4659 4681 4769 4636 4931 4751 4841 4843 4604 4830 4656 4598 4666 4501 4785 4503 4572 4913 4763 4843 4565 4506 4344 5103 4852 4902 4410 4674 4603 4757 4985 5114 4735 4667 4507 4582 4308 4748 4598 4574 4521 4595 4918 4665 4506 4434 4599 3977 4769 4705 4413 4504 4584 4511 4673 4926 4824 4762 4673 4675 4585 5005 4332 4691 4423 4825 5012 4681 4738 4513 4842 4858 4753 4926 4744 4492 4857 4752 4862 4798 4598 4435 4518 4276 4769 4513 4598 4768 4756 4779 4523 4492 4588 4928 4750 5004 4668 4633 4670 4837 4842 4358 4623 4691 4592 4422 4832 4747 4584 4588 4693 4533 4711 4678 4681

Tree=0
num_leaves=49
num_cat=1
split_feature=23 23 39 39 23 35 27 23 39 3 23 35 1 1 0 3 5 23 29 2 37 23 23 3 23 37 0 41 3 6 23 2 37 5 30 9 23 29 34 5 3 1 37 25 23 15 3 13
split_gain=231240 46191.4 35112.9 11250.6 9094.33 6501.33 6423.61 4033.57 2741.59 2732.81 2640.99 2634.84 2042.77 1977.23 1411.79 1373.43 1364.64 1291.21 1154.91 984.209 1374.65 948.22 871.317 1096.21 915.903 795.609 711.703 696.032 632.016 665.088 628.187 872.113 611.191 568.523 555.703 554.363 532.539 525.656 406.128 427.256 377.213 376.389 319.24 276.909 270.025 207.107 149.331 101.123
threshold=33.425724637681164 18.020833333333339 44.273542855929442 24.138893751871326 50.893115942028992 15.818517080745343 35.725672877846797 27.020833333333339 28.342762685323891 0.00055447945838679551 37.446557971014499 29.428700828157357 0.13525000000000004 0.31825000000000009 6.028875344372957 0.00023605970053354889 11.151390000000022 12.770833333333334 0.22800000000000006 0.066566976151397381 0.18525000000000005 23.638586956521742 30.468297101449277 0.00019241102119339784 32.531702898550726 0.32757142857142868 5.2856400618743553 4.0134469637818198 0.00012047641807132381 1013.0790500000002 23.425724637681164 0.11854200129762707 0.13739285714285718 13.280300000000013 4.4818491766666275 299.98684730588127 10.489130434782611 0.26666666666666666 55.085144927536241 16.783350000000045 0.00034662320382954618 0.22725000000000004 0.17950000000000005 20.886171497584538 41.062500000000007 24.242535000000004 9.8086510920395817e-05 0
decision_type=2 2 2 2 2 2 2 2 2 2 2 2 2 2 2 2 2 2 2 2 2 2 2 2 2 2 2 2 2 2 2 2 2 2 2 2 2 2 2 2 2 2 2 2 2 2 2 1
left_child=1 5 6 15 25 36 8 19 -2 -6 -8 27 -10 26 16 30 44 -7 -17 -5 21 -21 23 -13 -24 -4 -12 -9 -22 37 32 47 -3 45 -15 -18 -1 -30 -35 -40 -39 -34 -29 -20 -14 46 -19 -32
right_child=2 3 4 7 9 17 10 11 12 -11 13 22 14 34 -16 18 35 33 43 20 28 -23 24 -25 -26 -27 -28 42 29 -31 31 -33 41 38 -36 -37 -38 40 39 -41 -42 -43 -44 -45 -46 -47 -48 -49
leaf_value=28.728897300415401 29.005516873851047 28.931318796303245 29.149026147928264 28.908304702825518 29.319869559587733 28.820235569478342 29.098381919941236 29.020029113726554 29.02898672921205 29.464557197751645 29.12480347570235 28.987712713596679 29.103661424126109 29.190118013620729 29.174932980111496 29.006713434597891 29.089445434998364 28.826472198366815 28.902336567151718 28.977437367688154 28.915858321718659 29.054920124374132 29.105202260343813 29.069548773671954 29.029372767524514 29.240012007524427 29.199261800322361 28.994969709745256 29.014103073049139 28.932873115259905 28.921914355736934 28.974832828556593 28.852436142379098 28.862622022947221 29.283337254761712 29.024745926309791 28.797187403756389 28.945068294112449 28.9508247548235 28.888742049983748 28.996567929402456 28.908935008204192 28.947976093809189 28.948959400003794 29.164100716830561 28.889946615349917 28.869140258033749 28.8813783152528
leaf_weight=97 69 47 55 47 131 153 83 72 62 51 87 65 46 48 66 47 61 81 55 62 53 56 86 58 50 52 51 46 66 70 49 46 107 50 51 46 91 68 47 50 46 48 72 62 47 59 88 47
leaf_count=97 69 47 55 47 131 153 83 72 62 51 87 65 46 48 66 47 61 81 55 62 53 56 86 58 50 52 51 46 66 70 49 46 107 50 51 46 91 68 47 50 46 48 72 62 47 59 88 47
internal_value=29.0025 28.921 29.1758 28.9668 29.3047 28.8302 29.1232 28.9958 29.0852 29.3651 29.1695 29.0255 29.1018 29.1934 29.1184 28.9145 29.0982 28.8563 28.9487 28.9674 28.9744 29.0145 29.0541 29.0268 29.0781 29.1969 29.1548 28.9863 28.9589 28.9686 28.8987 28.9234 28.8822 28.8719 29.2429 29.0626 28.7594 28.9832 28.8969 28.9171 28.9654 28.8685 28.9658 28.9257 29.137 28.8569 28.8468 28.8999
internal_weight=3147 2141 1006 1425 289 716 717 917 397 182 320 449 328 237 266 508 200 528 164 468 421 118 259 123 136 107 138 190 303 250 344 142 202 375 99 107 188 180 147 97 114 155 118 117 93 228 169 96
internal_count=3147 2141 1006 1425 289 716 717 917 397 182 320 449 328 237 266 508 200 528 164 468 421 118 259 123 136 107 138 190 303 250 344 142 202 375 99 107 188 180 147 97 114 155 118 117 93 228 169 96
cat_boundaries=0 1
cat_threshold=2
is_linear=0
shrinkage=1


Tree=1
num_leaves=51
num_cat=2
split_feature=23 23 39 39 23 39 27 23 5 39 23 43 1 1 11 3 19 5 23 1 29 5 23 1 4 37 7 37 31 19 31 30 9 38 23 2 29 3 29 2 23 33 15 39 23 25 39 23 13 6
split_gain=225053 44962.1 34166.4 9832.53 8845.28 6616.76 6252.11 3895.46 2720.47 2668.73 2571.67 2145.95 1988.54 1925.88 1592.64 1426.86 1373.49 1328.85 1313.34 1241.52 1003.76 984.308 957.871 938.31 859.153 833.159 782.008 774.577 715.108 693.531 632.695 540.756 539.507 529.713 522.607 849.032 519.104 484.024 358.428 695.757 262.841 257.926 249.746 239.411 222.761 211.46 200.981 126.272 98.4483 10.3543
threshold=33.425724637681164 18.425724637681164 44.273542855929442 24.138893751871326 50.893115942028992 13.97860395080343 35.725672877846797 27.020833333333339 16.31900000000002 28.342762685323891 37.446557971014499 0 0.13525000000000004 0.31825000000000009 281.50000000000006 0.00023605970053354889 1.9500267135177107 11.151390000000022 12.770833333333334 0.24775000000000003 0.23666666666666664 15.631615000000012 22.212862318840582 0.16425000000000003 26.746405000000042 0.18696428571428575 942.81463000000019 0.32757142857142868 27.596014492753628 1.8382676594438012 26.511904761904766 4.4818491766666275 299.98684730588127 4.1455548926400088 23.425724637681164 0.11854200129762707 0.14066666666666688 0.00044343781512248777 0.26666666666666666 0.10506482574387353 41.062500000000007 18.298007246376816 24.242535000000004 19.91582805141925 10.702898550724639 21.019021739130459 30.129147081514265 16.937500000000004 1 1000.0556500000001
decision_type=2 2 2 2 2 2 2 2 2 2 2 1 2 2 2 2 2 2 2 2 2 2 2 2 2 2 2 2 2 2 2 2 2 2 2 2 2 2 2 2 2 2 2 2 2 2 2 2 1 2
left_child=1 5 6 15 27 44 9 22 19 -2 -8 14 -11 29 26 34 17 40 -7 -6 -17 24 38 41 -13 -24 -9 -4 -26 -12 -27 -15 -19 -16 36 48 -3 42 39 -5 -14 -20 49 -38 -1 -22 -32 -43 -36 -25
right_child=2 3 4 7 8 18 10 11 -10 12 13 21 16 31 33 20 -18 32 23 -21 45 -23 25 37 28 30 -28 -29 -30 -31 46 -33 -34 -35 35 -37 43 -39 -40 -41 -42 47 -44 -45 -46 -47 -48 -49 -50 -51
leaf_value=-0.26220049734633383 0.0026767883143575502 -0.074635865762308171 0.14426656106499575 -0.077648383776610264 0.2272061673577476 -0.18017828415515708 0.09428410482057431 0.049269495801258514 0.43897002492368697 0.025831516554496357 0.12034603009694968 -0.066051697018686947 0.099518130010805145 0.18482181081331503 -0.018430556005680918 0.0059202351109789034 0.16981293459334273 0.085478761649299892 -0.18227188664478364 0.34848209126263052 -0.093939103583734321 0.039026136094982192 0.016632106439686035 -0.11321394233040855 0.032864972861805855 -0.0064415861018540816 0.12722128962700119 0.23404185177144432 -0.035719776859319347 0.19383759212273188 -0.075728411123430373 0.27679151399696755 0.021650926871029857 0.0428789905974956 -0.079811832896521481 -0.027599135393172641 -0.16352832920963445 -0.065467653203366019 -0.087410290498741314 -0.0054737452400496593 0.15915261144095902 -0.15093994762306753 -0.092777154257150177 -0.11218291509711564 -0.20328058667684101 -0.050028433563778417 -0.036965575872247983 -0.10508176583548501 -0.11981075239101778 -0.14803552520926919
leaf_weight=105 69 52 55 53 47 146 83 50 66 62 87 60 46 48 46 46 66 61 66 69 47 62 85 60 56 89 57 52 57 51 53 51 46 61 49 46 46 50 64 49 47 70 75 86 79 56 64 47 47 62
leaf_count=105 69 52 55 53 47 146 83 50 66 62 87 60 46 48 46 46 66 61 66 69 47 62 85 60 56 89 57 52 57 51 53 51 46 61 49 46 46 50 64 49 47 70 75 86 79 56 64 47 47 62
internal_value=-0.000300302 -0.0807315 0.17069 -0.033458 0.297773 -0.166309 0.11876 -0.00659192 0.357411 0.0812691 0.164453 0.0223849 0.0976775 0.187999 0.0526301 -0.0844489 0.114091 0.0941554 -0.142178 0.304165 -0.0478496 -0.00728058 -0.035038 -0.128477 -0.0245649 -0.019625 0.0924245 0.191496 -0.00173589 0.149962 -0.0346102 0.236878 0.0589789 0.016655 -0.100767 -0.0783143 -0.11703 -0.108688 -0.0614771 -0.043785 0.132461 -0.153674 -0.118861 -0.132319 -0.239435 -0.0715262 -0.0555425 -0.134663 -0.101511 -0.133081
internal_weight=3147 2141 1006 1381 289 760 717 906 182 397 320 449 328 237 214 475 266 200 576 116 149 235 457 430 173 291 107 107 113 138 206 99 107 107 326 142 184 247 166 102 93 183 197 132 184 103 117 117 96 122
internal_count=3147 2141 1006 1381 289 760 717 906 182 397 320 449 328 237 214 475 266 200 576 116 149 235 457 430 173 291 107 107 113 138 206 99 107 107 326 142 184 247 166 102 93 183 197 132 184 103 117 117 96 122
cat_boundaries=0 1 2
cat_threshold=254660 2
is_linear=0
shrinkage=0.0138767


Tree=2
num_leaves=48
num_cat=0
split_feature=23 23 39 39 23 35 27 23 5 39 35 23 1 1 0 3 5 23 1 29 2 37 23 23 3 23 37 4 31 41 3 6 5 30 23 29 35 11 2 25 34 5 18 37 23 15 3
split_gain=219047 43749.8 33254.7 10660.3 8607.35 6177.88 6085.19 3818.56 2646.9 2597.81 2523.09 2504.17 1935.75 1875.85 1336.22 1303.03 1293.99 1211.92 1206.63 1019.07 953.115 1313.49 908.186 842.769 1061.22 886.212 754.099 681.599 678.362 677.333 616.847 646.088 545.579 526.211 505.657 505.572 501.273 484.422 481.699 422.192 395.333 421.211 378.154 307.271 255.847 200.655 146.713
threshold=33.425724637681164 18.020833333333339 44.273542855929442 24.138893751871326 50.893115942028992 15.818517080745343 35.725672877846797 27.020833333333339 16.31900000000002 28.342762685323891 29.428700828157357 37.446557971014499 0.13525000000000004 0.31825000000000009 6.028875344372957 0.00017083497844225622 11.151390000000022 12.770833333333334 0.24775000000000003 0.22974999999999976 0.066566976151397381 0.18525000000000005 23.638586956521742 30.468297101449277 0.00019241102119339784 32.531702898550726 0.32757142857142868 29.136625000000013 36.425724637681164 4.0134469637818198 0.00012047641807132381 1013.0790500000002 13.280300000000013 4.4818491766666275 10.489130434782611 0.26666666666666666 19.245535714285719 279.50000000000006 0.14797558990230172 20.886171497584538 55.085144927536241 16.783350000000045 36.899525201465558 0.17950000000000005 41.062500000000007 24.242535000000004 9.8086510920395817e-05
decision_type=2 2 2 2 2 2 2 2 2 2 2 2 2 2 2 2 2 2 2 2 2 2 2 2 2 2 2 2 2 2 2 2 2 2 2 2 2 2 2 2 2 2 2 2 2 2 2
left_child=1 5 6 15 26 34 9 20 18 -2 29 -8 -11 28 16 27 44 -7 -6 -17 -5 22 -22 24 -12 -25 -4 36 -13 -9 -23 35 45 -15 -1 -32 -3 -29 -18 -21 -34 -42 -37 -31 -14 46 -19
right_child=2 3 4 7 8 17 11 10 -10 12 23 13 14 33 -16 19 38 32 -20 39 21 30 -24 25 -26 -27 -28 37 -30 43 31 -33 40 -35 -36 42 -38 -39 -40 -41 41 -43 -44 -45 -46 -47 -48
leaf_value=-0.26670147555477369 0.0026407151713422278 -0.16436550018657275 0.142336660851657 -0.092587294609506252 0.22418527068834779 -0.17749832948108341 0.093007337303776597 0.017003805871785408 0.43306236457687419 0.025484551799846406 -0.01521179464514134 0.1941864364697482 0.098196150868459453 0.18236230216531438 0.16752759107966736 -0.020725069009514614 0.029964032711802598 -0.17192382358445868 0.34378605637612863 -0.10719625370098525 -0.024634721522153298 -0.085211146208289359 0.051196337835247602 0.10033457820181987 0.065300530143397109 0.025767467768525707 0.23091748669349862 -0.046497810639674925 0.12028566513027866 -0.0078634438492148247 0.01154542507495865 -0.068337597269386097 -0.13668693201929108 0.27309920639323654 -0.2001830045095282 -0.010733381639480462 -0.10295269568610471 -0.10242231457029277 0.090194626613642762 -0.05627575867199261 -0.049779597813652883 -0.11120422929106991 -0.061338738251219146 -0.05397906982310078 0.15703653589144159 -0.10974324833281568 -0.13008609897192544
leaf_weight=97 69 54 55 47 47 153 83 72 66 62 65 47 46 48 66 83 59 81 69 70 62 53 56 86 58 50 52 54 91 46 66 70 50 51 91 58 88 86 48 73 47 50 56 72 47 59 88
leaf_count=97 69 54 55 47 47 153 83 72 66 62 65 47 46 48 66 83 59 81 69 70 62 53 56 86 58 50 52 54 91 46 66 70 50 51 91 58 88 86 48 73 47 50 56 72 47 59 88
internal_value=-0.00029157 -0.0796422 0.168402 -0.0350765 0.293777 -0.167982 0.117169 -0.0067725 0.352609 0.080182 0.0220851 0.162248 0.0963708 0.185483 0.112565 -0.0859322 0.0929008 -0.142573 0.300084 -0.0601338 -0.0344378 -0.0275241 0.0115986 0.050102 0.0231883 0.0737237 0.188938 -0.106017 0.147945 -0.0162247 -0.0427411 -0.0331099 -0.127429 0.233722 -0.237023 -0.0187845 -0.128329 -0.0818474 0.0581886 -0.0823783 -0.102976 -0.083108 -0.0362525 -0.0364581 0.130701 -0.142129 -0.151972
internal_weight=3147 2141 1006 1425 289 716 717 917 182 397 449 320 328 237 266 508 200 528 116 226 468 421 118 259 123 136 107 282 138 190 303 250 375 99 188 180 142 140 107 143 147 97 114 118 93 228 169
internal_count=3147 2141 1006 1425 289 716 717 917 182 397 449 320 328 237 266 508 200 528 116 226 468 421 118 259 123 136 107 282 138 190 303 250 375 99 188 180 142 140 107 143 147 97 114 118 93 228 169
is_linear=0
shrinkage=0.0138767


Tree=3
num_leaves=50
num_cat=0
split_feature=23 23 23 39 38 1 27 23 19 23 23 30 39 6 38 1 1 11 11 23 8 3 1 41 19 32 4 29 11 37 5 3 27 23 19 37 23 1 6 8 1 27 4 18 7 6 33 11 39
split_gain=226339 45988 37958.5 9282.22 8044.45 6323.46 5104.17 4125.9 3482.68 2842.46 2753.12 1945.33 1920.04 1727.31 2537.66 1505.01 1313.26 1919.94 1260.62 1227.26 1209.83 1150.14 1121.49 1016.69 887.133 1080.74 946.305 886.496 849.613 828.257 806.139 791.897 636.973 593.059 589.292 537.405 481.397 469.269 420.049 550.056 326.606 320.997 268.202 237.242 187.819 156.11 130.397 124.675 14.3583
threshold=34.229166666666679 21.802083333333339 51.895833333333336 14.766992105083625 3.2864637247762976 0.33075000000000004 24.413819875776401 26.687500000000004 2.2488503787629468 16.383152173913047 62.977355072463773 9.7713240742451024 31.890073013166788 1012.2268750000002 3.179447577920437 0.16975000000000004 0.15725000000000003 291.50000000000006 279.50000000000006 38.020833333333336 3.432777749374218 0.00022966089052450819 0.20175000000000004 4.8209291944554922 2.198146516399889 57.562500000000007 27.371535000000026 0.25775000000000003 281.50000000000006 0.15975000000000003 13.840725000000051 9.7248096256768386e-05 20.846661490683235 12.770833333333334 1.652588134308038 0.29839285714285724 10.702898550724639 0.21525000000000002 1011.8109250000001 4.4805002231806386 0.17375000000000004 25.331004140786757 28.820950000000014 101.05243777274497 1357.1768000000002 1007.907775 25.148550724637683 74.500000000000014 20.614934119110075
decision_type=2 2 2 2 2 2 2 2 2 2 2 2 2 2 2 2 2 2 2 2 2 2 2 2 2 2 2 2 2 2 2 2 2 2 2 2 2 2 2 2 2 2 2 2 2 2 2 2 2
left_child=1 3 5 36 -4 8 21 31 11 22 -6 12 -2 14 -7 20 42 30 -16 -14 -9 29 46 -22 25 -17 -27 -23 -28 32 44 -8 -3 -24 40 -35 -1 47 39 -33 -21 48 -11 -44 -18 -38 -5 -31 -19
right_child=2 6 4 9 10 13 7 15 -10 16 -12 -13 19 -15 18 24 17 41 -20 34 23 27 33 -25 -26 26 28 -29 -30 37 -32 38 -34 35 -36 -37 45 -39 -40 -41 -42 -43 43 -45 -46 -47 -48 -49 -50
leaf_value=-0.24281029195072193 0.035136919123335157 -0.070540404337000581 0.16384978855274318 -0.17665937918538466 0.31624542155241964 0.12741132939601735 -0.075523603960131955 -0.052555211455876397 0.176341929404225 -0.14480105234714377 0.44702495846383505 -0.0022819015012380253 0.065997211399532393 0.11275827160726967 0.28937858981268866 0.096266547351799472 -0.076354290998089755 -0.13256179676617166 0.17806378788509519 0.083217304505258299 0.062940603176683069 0.030522565786223824 -0.15557198795169178 -0.015583799835027048 0.09755415922282977 -0.013682913432823103 0.093964791561924513 -0.050781046083160995 0.016808022799768046 -0.083506445632741108 0.009589467856559104 -0.042987076936408027 -0.00040281639206087949 -0.064660083593398712 0.1782636017807355 -0.12759724718055737 -0.15472599156499001 -0.050601199457625076 -0.046038426762188944 0.014836071553420496 0.13904304197779618 -0.073149785242797888 -0.078776361446150647 -0.12612881202772441 -0.035979912361702025 -0.21410722007919833 -0.12948301072648086 -0.12555344726376644 -0.099635400193470225
leaf_weight=113 87 50 50 163 119 57 62 52 91 83 76 48 82 53 71 50 58 69 48 56 65 46 55 59 67 75 46 54 67 51 46 46 48 65 49 55 60 48 72 91 54 53 59 58 46 50 46 52 50
leaf_count=113 87 50 50 163 119 57 62 52 91 83 76 48 82 53 71 50 58 69 48 56 65 46 55 59 67 75 46 54 67 51 46 46 48 65 49 55 60 48 72 91 54 53 59 58 46 50 46 52 50
internal_value=0.00235527 -0.0738013 0.182602 -0.135947 0.330725 0.12964 -0.00993878 0.0104283 0.0995707 -0.115716 0.371351 0.0801291 0.0921336 0.189522 0.211062 0.0347766 -0.093876 -0.0755773 0.248274 0.112231 0.00238519 -0.0536336 -0.144743 0.0259192 0.0533214 0.0401342 0.0243176 -0.0135028 0.0493483 -0.0695013 -0.0384961 -0.0327177 -0.0369178 -0.115755 0.13492 -0.0951816 -0.21633 -0.089858 -0.0193999 -0.00491461 0.112684 -0.10707 -0.122261 -0.104035 -0.059555 -0.185161 -0.167645 -0.106789 -0.120666
internal_weight=3171 2230 941 1129 245 696 1101 752 467 906 195 376 328 229 176 481 522 322 119 241 176 349 384 124 305 238 188 100 113 249 150 271 98 175 159 120 223 151 209 137 110 172 200 117 104 110 209 103 119
internal_count=3171 2230 941 1129 245 696 1101 752 467 906 195 376 328 229 176 481 522 322 119 241 176 349 384 124 305 238 188 100 113 249 150 271 98 175 159 120 223 151 209 137 110 172 200 117 104 110 209 103 119
is_linear=0
shrinkage=0.0138767


Tree=4
num_leaves=48
num_cat=1
split_feature=23 23 23 39 38 1 35 23 19 23 23 43 23 35 35 11 1 11 31 3 1 24 26 1 35 9 5 37 7 9 35 6 23 37 37 23 23 1 5 35 35 31 4 27 18 6 27
split_gain=220273 44753.3 36931 9032.36 7823.74 6155.6 4981.03 3842.7 3387.77 2764.8 2681.94 2413.48 2088.16 1907.64 1702.78 1280.34 1277.76 1868.72 1231.75 1253.13 1089.64 1063.49 1184.36 1017.16 851.363 954.746 784.761 772.435 762.153 739.965 716.451 609.937 577.333 552.077 523.202 466.591 361.203 354.518 343.897 333.732 330.921 288.931 260.638 249.74 230.911 152.197 74.3396
threshold=34.229166666666679 21.802083333333339 51.895833333333336 14.766992105083625 3.2864637247762976 0.33075000000000004 27.898861283643893 26.687500000000004 2.2488503787629468 16.383152173913047 62.977355072463773 0 39.318840579710148 18.165307971014496 32.304865424430652 86.500000000000014 0.15725000000000003 291.50000000000006 31.553442028985511 0.00023605970053354889 0.20175000000000004 76.812500000000014 133.02415458937205 0.24275000000000002 32.81482919254659 295.400664134951 13.840725000000051 0.1748214285714286 1535.2625 299.78172616913633 35.143115942028992 998.51932500000009 12.770833333333334 0.20871428571428577 0.29839285714285724 10.702898550724639 26.543560606060613 0.19375000000000003 12.957665000000022 30.931372509478106 24.430421842650109 19.53170289855073 28.820950000000014 31.185606060606066 101.05243777274497 1007.907775 23.727096273291931
decision_type=2 2 2 2 2 2 2 2 2 2 2 1 2 2 2 2 2 2 2 2 2 2 2 2 2 2 2 2 2 2 2 2 2 2 2 2 2 2 2 2 2 2 2 2 2 2 2
left_child=1 3 5 35 -4 8 13 37 11 20 -6 29 39 -3 -7 23 42 26 19 31 46 -16 -23 27 -20 -26 41 -15 33 -2 -14 -9 -22 38 -34 -1 -30 -8 -17 -13 -19 -18 -11 -39 -44 -37 -5
right_child=2 6 4 9 10 14 7 18 -10 16 -12 12 30 15 21 28 17 40 24 -21 32 22 -24 -25 25 -27 -28 -29 36 -31 -32 -33 34 -35 -36 45 -38 43 -40 -41 -42 -43 44 -45 -46 -47 -48
leaf_value=-0.23950101472637436 0.051115982002979711 -0.11715754866668671 0.16166578130650858 -0.17383484267182273 0.3119314131194208 0.11423663733207816 -0.052534804821493725 0.078017336535723625 0.17394887926140948 -0.14284019998241537 0.44098490640623428 0.028411104354622609 0.099993656388407445 0.012011034548385084 0.14298860907328972 -0.038739574140001433 -0.030685033111399182 -0.12242916966484774 -0.025340661784277848 0.11842179842173385 -0.15349085215942182 0.27446066273606134 0.17029324641300866 0.037063418106332541 0.0013352988072863339 0.076037096602724535 0.0094620840012201758 -0.055486446940008066 -0.11026255139868371 -0.021619244184503592 0.16889509221085897 0.0160717508674545 -0.063790290408174091 -0.060792255797569229 -0.12589033650766007 -0.15264994763570064 -0.052512657296962618 -0.03842792916655232 0.011533097864688958 0.077071579129550316 -0.077088213681042905 -0.079185367920973623 -0.07771996786503553 0.0033132897748979259 -0.12443840210721337 -0.21125331276917367 -0.13093473693225371
leaf_weight=113 53 54 50 161 119 57 84 52 91 83 76 46 68 55 49 46 46 104 57 64 55 70 53 71 67 63 46 76 46 51 78 74 65 76 55 60 50 46 56 80 68 58 59 64 58 50 48
leaf_count=113 53 54 50 161 119 57 84 52 91 83 76 46 68 55 49 46 46 104 57 64 55 70 53 71 67 63 46 76 46 51 78 74 65 76 55 60 50 46 56 80 68 58 59 64 58 50 48
internal_value=0.00232316 -0.072806 0.180138 -0.134112 0.326242 0.127897 -0.0098065 0.0185998 0.0982303 -0.114155 0.366309 0.079055 0.0993471 -0.0403672 0.186979 -0.0311863 -0.0926148 -0.0745646 0.0443445 0.0690693 -0.142783 0.209444 0.233122 -0.00458001 0.0187366 0.0381694 -0.0379812 -0.0273868 -0.050615 0.0143503 0.138647 0.0424911 -0.114205 -0.0329739 -0.0939059 -0.213406 -0.0819315 -0.0313615 -0.0114393 0.0600605 -0.105634 -0.058759 -0.120614 -0.014511 -0.102641 -0.182686 -0.16536
internal_weight=3171 2230 941 1129 245 696 1101 571 467 906 195 376 272 530 229 476 522 322 377 190 384 172 123 202 187 130 150 131 274 104 146 126 175 178 120 223 96 194 102 126 172 104 200 110 117 110 209
internal_count=3171 2230 941 1129 245 696 1101 571 467 906 195 376 272 530 229 476 522 322 377 190 384 172 123 202 187 130 150 131 274 104 146 126 175 178 120 223 96 194 102 126 172 104 200 110 117 110 209
cat_boundaries=0 1
cat_threshold=531080
is_linear=0
shrinkage=0.0138767


Tree=5
num_leaves=49
num_cat=0
split_feature=23 23 23 39 38 1 35 23 23 23 23 35 6 38 28 24 11 1 11 11 31 3 1 1 1 21 35 9 21 37 5 10 6 23 29 1 37 5 23 1 35 23 31 4 18 39 6 33
split_gain=214362 43550.4 35932.5 8789.81 7609.08 5993.03 4848.58 3740.09 2689.93 2659.59 2612.59 1859.03 1674.67 2462.35 1545.83 1547.81 1279.92 1243.77 1817.94 1232.91 1198.95 1219.55 1058.71 1028.6 1025.68 858.283 828.673 929.249 789.548 789.015 763.944 664.891 593.801 562.025 543.326 545.712 509.373 476.474 452.233 344.896 321.732 316.773 281.174 253.287 224.748 221.563 148.38 129.701
threshold=34.229166666666679 21.802083333333339 51.895833333333336 14.766992105083625 3.2864637247762976 0.33075000000000004 27.898861283643893 26.687500000000004 16.383152173913047 39.318840579710148 62.977355072463773 19.029853660831925 1012.2268750000002 3.179447577920437 98.881211180124254 145.95652173913047 86.500000000000014 0.15725000000000003 291.50000000000006 279.50000000000006 31.553442028985511 0.00023605970053354889 0.20175000000000004 0.24275000000000002 0.12475000000000001 6.8727163973974505 32.81482919254659 295.400664134951 7.3371077644387048 0.1748214285714286 13.840725000000051 34.42443542441378 998.51932500000009 12.770833333333334 0.21725000000000008 0.16275000000000003 0.29839285714285724 12.851950000000018 10.702898550724639 0.19375000000000003 24.430421842650109 27.446557971014496 19.53170289855073 28.820950000000014 101.05243777274497 31.755847672464416 1007.907775 25.148550724637683
decision_type=2 2 2 2 2 2 2 2 2 2 2 2 2 2 2 2 2 2 2 2 2 2 2 2 2 2 2 2 2 2 2 2 2 2 2 2 2 2 2 2 2 2 2 2 2 2 2 2
left_child=1 3 5 38 -4 9 11 39 22 24 -6 -3 13 -7 31 -16 23 43 30 -15 21 32 47 29 -2 -26 -22 -28 34 -13 42 -11 -9 -24 35 -18 -35 -27 -1 -8 -20 -30 -19 -10 -45 -41 -40 -5
right_child=2 6 4 8 10 12 7 20 17 14 -12 16 -14 19 15 -17 28 18 40 -21 26 -23 33 -25 25 37 27 -29 41 -31 -32 -33 -34 36 -36 -37 -38 -39 46 45 -42 -43 -44 44 -46 -47 -48 -49
leaf_value=-0.23623684414281182 0.0079308495919441866 -0.10607274040881744 0.15951088032309746 -0.17195716973901012 0.30767625814683364 0.12341280510657737 -0.051823188839864136 0.076975835907579573 -0.14090590038123241 0.12659707195908659 0.43502646723053884 0.014942890077077746 0.10905726886113927 0.28277280606263122 0.21215988876422087 0.099849762970657896 -0.038637977969284927 -0.030277419258635248 -0.12076314890755313 0.17318092822626424 -0.025001244113532679 0.11682957500155265 -0.15143755715914062 0.040428301688849713 0.12765299451325568 0.080333695192434496 0.0013173206588232447 0.075015255055189883 -0.10653800374403127 -0.054312662163059522 0.0093363914721704619 0.061902963089150519 0.015854748968967016 -0.062932196299600854 -0.059722916744271264 0.024881911054552092 -0.12420626291118991 0.023383222224841987 -0.15060175829994876 -0.030938556122575133 -0.076049836527738252 -0.05139673271685373 -0.078124104890124377 -0.076677740234737113 -0.12277064594632632 0.008287083647825013 -0.20843744072103818 -0.12570157417984359
leaf_weight=113 54 69 50 163 119 57 84 52 83 65 76 53 53 71 64 47 55 46 104 48 57 64 55 68 47 67 67 63 48 74 46 71 74 65 71 46 55 52 60 63 68 46 58 59 58 47 50 46
leaf_count=113 54 69 50 163 119 57 84 52 83 65 76 53 53 71 64 47 55 46 104 48 57 64 55 68 47 67 67 63 48 74 46 71 74 65 71 46 55 52 60 63 68 46 58 59 58 47 50 46
internal_value=0.00229181 -0.0718226 0.177705 -0.132299 0.321821 0.126175 -0.0096755 0.0183506 -0.112612 0.0969024 0.361335 -0.0398272 0.184472 0.205653 0.128197 0.167297 -0.0294818 -0.0913649 -0.0735564 0.242269 0.0437492 0.0681427 -0.14085 -0.00239735 0.0608987 0.0778115 0.0184844 0.0376566 -0.0491601 -0.0256194 -0.037473 0.0942584 0.0419226 -0.112676 -0.0308625 -0.00977199 -0.0926473 0.0562808 -0.210521 -0.030939 -0.104201 -0.0812474 -0.0579733 -0.118989 -0.101265 -0.0143183 -0.180244 -0.163107
internal_weight=3171 2230 941 1129 245 696 1101 571 906 467 195 530 229 176 247 111 461 522 322 119 377 190 384 195 220 166 187 130 266 127 150 136 126 175 172 101 120 119 223 194 172 94 104 200 117 110 110 209
internal_count=3171 2230 941 1129 245 696 1101 571 906 467 195 530 229 176 247 111 461 522 322 119 377 190 384 195 220 166 187 130 266 127 150 136 126 175 172 101 120 119 223 194 172 94 104 200 117 110 110 209
is_linear=0
shrinkage=0.0138767


Tree=6
num_leaves=52
num_cat=4
split_feature=23 39 23 23 39 39 39 23 23 23 3 8 1 43 0 43 29 3 6 3 33 31 23 31 23 43 28 38 35 39 1 11 13 38 23 29 24 39 36 35 23 1 3 29 41 35 11 23 41 41 41
split_gain=207687 42942.3 33590.3 12001.5 7086.87 6445.78 5649.97 4251.69 3400.32 2742.99 2028.74 1511.27 1489.91 1462.37 1443.08 1410.7 1143.61 1119.28 1116.83 1040.39 950.385 907.159 903.285 894.451 860.056 856.444 659.794 644.331 622.25 605.132 524.916 703.755 473.793 443.901 432.226 413.204 408.084 404.007 355.595 332.809 324.282 276.504 231.148 223.629 204.403 189.35 184.249 164.722 122.736 26.5903 120.583
threshold=32.212862318840585 42.933483843438502 18.425724637681164 61.633971291866033 25.974915921981282 29.79183063361209 14.766992105083625 39.127717391304351 40.085144927536241 27.020833333333339 0.00023848568507813379 5.7286252895480088 0.15425000000000003 0 9.9181929950703935 1 0.19141666666666698 0.00050228081844133231 1006.9762500000001 0.00017083497844225622 29.936594202898554 30.437500000000004 13.187500000000002 22.510869565217394 21.802083333333339 2 117.84342650103521 6.6701232179190466 31.443346508563902 24.138893751871326 0.16425000000000003 288.50000000000006 3 2.5791586514938669 10.702898550724639 0.16108333333333338 91.596014492753639 27.641277997618342 84.426348108413336 21.160702522115567 22.638586956521742 0.18075000000000002 8.5421353224916175e-05 0.24499999999999991 4.1571826288053257 21.820193393562963 326.50000000000006 35.479166666666679 4.9533510417390731 5.3377586655192948 4.1219837593418172
decision_type=2 2 2 2 2 2 2 2 2 2 2 2 2 1 2 1 2 2 2 2 2 2 2 2 2 1 2 2 2 2 2 2 1 2 2 2 2 2 2 2 2 2 2 2 2 2 2 2 2 2 2
left_child=2 5 6 8 15 23 34 14 -3 17 -10 -12 35 18 20 19 -14 25 -11 -4 -7 28 48 -2 41 33 36 29 -15 39 49 38 -22 -6 -1 -9 -18 -25 -32 46 -27 42 -17 -42 -23 -43 -26 -34 -8 50 -24
right_child=1 3 4 -5 9 7 22 12 10 13 11 -13 16 21 -16 24 26 -19 -20 -21 32 44 30 37 27 40 -28 -29 -30 -31 31 -33 47 -35 -36 -37 -38 -39 -40 -41 43 45 -44 -45 -46 -47 -48 -49 -50 -51 -52
leaf_value=-0.24577688925321944 -0.032543906365773832 0.11253489487109429 -0.059314694648519357 0.41589429864619393 -0.034429474000611991 0.10752218224088789 -0.17706164541539468 0.1290347607592775 0.18805598971152482 0.11658969360793515 0.33536502350493047 0.21648557915970171 0.23367502013660627 -0.001198809518843655 0.13760880468516748 -0.091122921174601287 0.15341020406141101 0.02757123528583039 0.025264641773762284 0.020585964901914906 0.015476376227589491 -0.0082725498869793915 -0.14167713380543298 0.066143611472056316 -0.052993547404580121 -0.090272129090405134 0.19663541200845785 -0.025388832825609175 0.059525105777411429 -0.033143659663905062 -0.050909949792920475 -0.12635092655446742 0.039873762245245185 0.019473709175948359 -0.18679903988817764 0.064923240002505253 0.094488764790340213 0.0087435039582577437 -0.10266872001234464 -0.11326437764156065 -0.03063999917259428 -0.10653521767736024 -0.14350465779717031 -0.072132616974762295 -0.048081058169035483 -0.063614723992401145 -0.09335304234241705 0.077342354224392951 -0.13189659019257952 -0.16170998368557471 -0.099800095384375662
leaf_weight=96 53 46 67 94 66 61 91 47 82 46 74 55 49 77 59 48 68 47 59 56 72 46 76 46 66 67 50 62 54 52 65 120 49 50 107 46 58 48 52 72 63 49 58 47 55 59 46 61 61 47 52
leaf_count=96 53 46 67 94 66 61 91 47 82 46 74 55 49 77 59 48 68 47 59 56 72 46 76 46 66 67 50 62 54 52 65 120 49 50 107 46 58 48 52 72 63 49 58 47 55 59 46 61 61 47 52
internal_value=0.00133828 0.153695 -0.0806628 0.280485 -0.0379082 0.0950764 -0.153498 0.114609 0.228047 -0.00662347 0.251895 0.288879 0.150114 0.0213664 0.0764551 -0.0711306 0.169968 -0.0343332 0.0610553 -0.021466 0.0605715 0.000392995 -0.129979 0.01224 -0.080933 -0.0443919 0.149732 -0.0663367 0.0243517 -0.0767752 -0.117808 -0.10202 0.043802 -0.0103679 -0.21688 0.0994292 0.128251 0.0376644 -0.0753023 -0.0885948 -0.0622502 -0.104173 -0.121983 -0.049381 -0.0304933 -0.0847279 -0.0709671 0.0617037 -0.160947 -0.137748 -0.126522
internal_weight=3197 1118 2079 351 1312 767 767 620 257 677 211 129 318 337 302 635 225 340 105 123 243 232 564 147 512 293 176 298 131 236 412 237 182 116 203 93 126 94 117 184 177 214 106 110 101 108 112 110 152 175 128
internal_count=3197 1118 2079 351 1312 767 767 620 257 677 211 129 318 337 302 635 225 340 105 123 243 232 564 147 512 293 176 298 131 236 412 237 182 116 203 93 126 94 117 184 177 214 106 110 101 108 112 110 152 175 128
cat_boundaries=0 1 2 3 4
cat_threshold=201408 299048 33508 16
is_linear=0
shrinkage=0.0138767


Tree=7
num_leaves=51
num_cat=0
split_feature=23 39 23 23 27 39 39 23 23 23 16 20 0 0 3 3 34 4 23 29 35 23 5 35 23 28 4 20 11 40 20 15 30 36 37 41 26 23 41 37 29 7 38 41 3 41 9 29 23 4
split_gain=202131 41783.6 32684.9 11674 6919.29 6274.25 5495.38 4139.32 3307.92 3161.93 1976.5 1449.87 1404.62 1318.55 1314.32 1301.06 1349.98 1286.79 1182.67 1113.76 910.637 879.482 790.275 763.198 664.604 642.706 592.791 555.247 607.875 915.037 550.126 528.395 548.845 527.338 518.313 442.114 428.719 420.693 408.413 403.661 402.252 314.168 237.825 201.063 198.64 88.2254 233.135 56.0887 45.7996 38.086
threshold=32.212862318840585 42.933483843438502 18.425724637681164 61.633971291866033 25.202653867871263 29.79183063361209 14.766992105083625 39.127717391304351 40.085144927536241 27.020833333333339 54.369289715000008 0.14345075894916043 9.9181929950703935 5.7529002173097075 0.00054199797105461682 0.00022809959033806947 103.5108695652174 28.457425000000004 21.802083333333339 0.19141666666666698 31.601449275362324 12.770833333333334 14.890770000000034 23.685364906832302 20.574275362318843 117.84342650103521 32.292260000000034 0.15207707982575239 288.50000000000006 83.470523336355754 0.18502620761676575 24.334350000000004 2.8505984970313691 80.692870082815745 0.23935714285714291 4.6030635408136131 85.104166666666714 10.702898550724639 5.1094522638642514 0.2945357142857144 0.16108333333333338 1112.6678500000003 2.004655693281042 4.9533510417390731 8.5421353224916175e-05 5.3377586655192948 295.91108508247879 0.29141666666666671 15.543560606060607 30.156515000000045
decision_type=2 2 2 2 2 2 2 2 2 2 2 2 2 2 2 2 2 2 2 2 2 2 2 2 2 2 2 2 2 2 2 2 2 2 2 2 2 2 2 2 2 2 2 2 2 2 2 2 2 2
left_child=2 5 6 8 18 17 37 12 -3 14 -10 40 22 -12 24 20 -17 -2 30 -13 36 43 33 38 -6 26 -21 45 29 -29 44 32 42 -7 -25 -22 -11 -1 41 -35 -9 -20 -26 -8 -4 46 -23 -32 -30 -43
right_child=1 3 4 -5 9 7 21 11 10 15 13 19 -14 -15 -16 16 -18 -19 23 25 35 27 -24 34 31 -27 -28 28 48 -31 47 -33 -34 39 -36 -37 -38 -39 -40 -41 -42 49 -44 -45 -46 -47 -48 -49 -50 -51
leaf_value=-0.24243773764752558 -0.02097787751877709 0.11104000652837696 -0.089469306279366848 0.41024642641798564 -0.080311084859438914 0.036226989543231981 -0.18048225583490948 0.12731913037801229 0.16626377265115039 -0.00024416774507142019 0.22416847090718245 0.23056279298497756 0.13576346661113464 0.32571126914198928 0.033500029509254216 0.095140940212269279 0.0024788527496273586 0.061814007593906921 -0.050302791415984462 0.093402315890737136 0.056319620583723924 -0.14535323012728393 0.021135538295573172 -0.0082012596629565601 -0.020023985285620941 0.1940143917368983 0.16081221620046507 -0.044317184781114127 -0.14402418945387588 -0.12200029159463381 -0.055291884427671648 -0.062429061090295293 0.010378893211985634 0.067909661525315079 -0.06177348846977207 -0.00076063594512825827 -0.05584571847258412 -0.1842556927365922 -0.040287455400877775 0.12469964069667569 0.064060812990918661 -0.10727018885319041 -0.058871847176751091 -0.12728605905210844 -0.13805850651130316 -0.16400355590368343 -0.097655239017023665 -0.084734285994068043 -0.10795641635737742 -0.077077197605517608
leaf_weight=96 89 46 46 94 76 50 80 47 56 55 82 49 59 73 46 73 51 58 46 68 55 71 74 81 71 50 58 74 49 51 46 85 69 72 60 48 50 107 60 47 46 73 56 52 70 49 61 49 77 46
leaf_count=96 89 46 46 94 76 50 80 47 56 55 82 49 59 73 46 73 51 58 46 68 55 71 74 81 71 50 58 74 49 51 46 85 69 72 60 48 50 107 60 47 46 73 56 52 70 49 61 49 77 46
internal_value=0.00132268 0.151628 -0.0795741 0.276695 -0.0373997 0.0938053 -0.151421 0.113076 0.224977 -0.00910624 0.248498 0.148109 0.0754299 0.275636 -0.0351514 0.0225254 0.0577048 0.0120782 -0.0732776 0.167695 0.00118576 -0.128225 0.0597592 -0.0575867 -0.0441431 0.147725 0.126527 -0.117242 -0.101699 -0.0774848 -0.0996696 -0.0338432 -0.0209189 0.0762045 -0.0315695 0.0302077 -0.0273005 -0.213931 -0.0734503 0.0920882 0.0981078 -0.0848559 -0.0378313 -0.16181 -0.120696 -0.137405 -0.125157 -0.0719671 -0.124081 -0.0971185
internal_weight=3197 1118 2079 351 1312 767 767 620 257 735 211 318 302 155 403 332 124 147 577 225 208 564 243 366 357 176 126 432 251 125 211 281 196 169 141 103 105 203 225 119 93 165 127 132 116 181 132 95 126 119
internal_count=3197 1118 2079 351 1312 767 767 620 257 735 211 318 302 155 403 332 124 147 577 225 208 564 243 366 357 176 126 432 251 125 211 281 196 169 141 103 105 203 225 119 93 165 127 132 116 181 132 95 126 119
is_linear=0
shrinkage=0.0138767


Tree=8
num_leaves=51
num_cat=0
split_feature=39 39 39 25 0 39 33 39 33 0 1 0 3 41 6 39 31 3 1 37 11 35 4 0 41 27 6 25 27 3 11 35 4 1 30 5 34 2 4 37 39 39 18 39 3 18 37 15 3 25
split_gain=180491 39579.3 28372.6 7981.65 7595.47 4685.79 4557.17 3643.71 2496.75 2324.58 2271.73 1722.63 1692.47 1443.14 1424.03 1310.66 1153.89 1122.45 1047.75 1348.82 1033.95 1655.61 1536.39 1654.34 1076.85 1001.13 983.245 953.979 871.15 757.599 694.087 677.439 637.257 586.523 569.627 550.069 553.537 544.322 435.402 488.209 431.01 354.904 324.52 291.903 336.217 243.679 104.824 96.3104 86.4224 50.9947
threshold=32.287668193542551 42.933483843438502 22.470953077798697 13.612318840579709 1.8358668629763579 29.070339042133245 28.701992753623191 55.446804079269036 28.255434782608699 9.9181929950703935 0.19475000000000003 9.9181929950703935 0.00023605970053354889 5.747454089322523 1014.4343750000002 25.974915921981282 34.979166666666679 0.0002530820491037694 0.16025000000000003 0.21339285714285719 56.500000000000007 41.122664925654071 35.470000000000034 2.632225202306159 4.6511493168043812 28.131563468949057 1009.0237500000002 40.112373737373737 25.811982401656319 0.00020351734624862592 74.500000000000014 18.032608695652176 30.156515000000045 0.24275000000000002 3.72448349084716 9.5090650000000512 87.395833333333357 0.12954765303896124 27.12335000000002 0.12232142857142859 13.97860395080343 19.61925184880538 88.40864325988538 23.219148316759771 9.049381350061289e-05 101.05243777274497 0.18785714285714283 24.191343800000002 0.00010823333526021535 19.280495169082133
decision_type=2 2 2 2 2 2 2 2 2 2 2 2 2 2 2 2 2 2 2 2 2 2 2 2 2 2 2 2 2 2 2 2 2 2 2 2 2 2 2 2 2 2 2 2 2 2 2 2 2 2
left_child=2 6 3 40 -3 11 10 17 12 14 -2 13 -7 15 20 28 -12 -6 38 34 24 22 23 -22 -8 30 -19 -25 29 43 -17 -21 -11 -33 45 -10 -37 -15 49 -40 46 -35 -32 -4 -45 -20 -1 -41 -27 -5
right_child=1 4 5 18 7 8 9 -9 35 32 16 -13 -14 37 -16 25 -18 26 19 31 21 -23 -24 27 -26 48 -28 -29 -30 -31 42 33 -34 41 -36 36 -38 -39 39 47 -42 -43 -44 44 -46 -47 -48 -49 -50 -51
leaf_value=-0.17587122438332178 0.068335878782313286 0.089512897303276426 -0.094012883964834731 -0.16797859477543645 0.19927086667861973 0.020409336442037615 0.14893570988603105 0.3663723961196339 -0.053629490660406016 0.15803023352905848 0.2350094629280656 0.015204207118162538 0.11808132918810849 -0.12414885950153799 -0.018057038175262091 0.038111931406907031 0.1285604079550316 0.3263600722932829 -0.098454215935688386 -0.15265532886606112 -0.016859795552675222 -0.025749233564182336 0.10801187687135436 0.033407798793599015 0.059143620275968228 -0.071355199424002091 0.23157933606441355 0.11037814258762046 -0.10168038182759345 -0.012567827522718492 -0.043509700045258462 -0.13330084996986738 0.083629783842507743 -0.10507968330456093 -0.018612310463162408 0.029569737152144639 -0.025611360884228909 -0.059566064412903713 -0.070428155971432038 -0.14502421006293706 -0.16300974387704004 -0.057687989935305342 0.0029765736227593377 -0.077681710231557732 -0.028228573381072364 -0.054420587176997944 -0.23580672990331572 -0.104722341528835 -0.040172289785025968 -0.12440335923887982
leaf_weight=46 46 47 50 69 88 88 46 86 54 57 55 78 55 66 47 57 46 67 56 67 67 48 91 74 66 46 85 55 82 78 56 66 51 63 47 59 80 51 51 62 75 80 57 50 62 62 105 61 46 50
leaf_count=46 46 47 50 69 88 88 46 86 54 57 55 78 55 66 47 57 46 67 56 67 67 48 91 74 66 46 85 55 82 78 56 66 51 63 47 59 80 51 51 62 75 80 57 50 62 62 105 61 46 50
internal_value=0.00130588 0.142948 -0.0753482 -0.130571 0.259427 -0.0276483 0.0843894 0.283205 0.0155969 0.0670573 0.153455 -0.046295 0.0591271 -0.0531649 0.0538928 -0.0439643 0.190072 0.250541 -0.107812 -0.0932324 0.0615098 0.0487638 0.0613262 0.038747 0.0980549 -0.0206728 0.277162 0.0674529 -0.0626593 -0.0485706 -0.000558021 -0.112163 0.125128 -0.0978154 -0.0605666 -0.0169301 -0.00208742 -0.0975247 -0.128949 -0.111513 -0.202843 -0.0797706 -0.0204112 -0.0655205 -0.051322 -0.0766587 -0.220164 -0.127098 -0.0569995 -0.152104
internal_weight=3197 1122 2075 960 373 1115 749 326 336 602 147 779 143 701 494 584 101 240 734 441 447 335 287 196 112 262 152 129 322 240 170 276 108 209 165 193 139 117 293 174 226 143 113 162 112 118 151 123 92 119
internal_count=3197 1122 2075 960 373 1115 749 326 336 602 147 779 143 701 494 584 101 240 734 441 447 335 287 196 112 262 152 129 322 240 170 276 108 209 165 193 139 117 293 174 226 143 113 162 112 118 151 123 92 119
is_linear=0
shrinkage=0.0138767


Tree=9
num_leaves=48
num_cat=2
split_feature=23 23 23 35 0 35 39 23 23 39 23 31 0 1 2 43 11 37 1 1 43 23 11 41 29 5 6 8 5 23 23 9 6 42 38 18 4 6 4 29 3 41 4 1 27 35 23
split_gain=187693 35074.5 28061.2 8005.02 7527.77 5873.69 4508.33 3429.55 2445.14 2146.64 1618.44 1557.14 1481.97 1450 1340.56 1256.62 1144.46 974.949 938.683 886.413 893.416 844.681 831.008 820.651 817.191 817.136 1189.77 758.126 636.133 628.206 557.481 531.135 524.227 470.615 848.077 539.678 463.748 606.691 404.227 355.266 306.331 245.89 187.629 174.511 150.172 113.814 107.782
threshold=33.425724637681164 18.298007246376816 49.616847826086961 31.710080227743273 2.2516740299116513 34.859342650103528 12.998869914039719 25.659420289855074 58.854166666666671 28.925988170098197 26.687500000000004 33.276268115942038 9.3535268671178233 0.16175000000000003 0.1349419802765767 0 85.500000000000014 0.17279285714285719 0.19775000000000004 0.16875000000000004 1 10.97916666666667 289.50000000000006 5.1759599640323648 0.22974999999999976 12.570460000000027 1009.175325 4.2343228449059138 13.345850000000015 29.638586956521742 14.574275362318842 321.71568020547107 1008.782775 34.600285000000028 3.9378955914429299 17.905896076637021 29.02966000000001 999.15125000000012 30.713375000000017 0.21575000000000003 0.00021482500792391964 5.2865650904168495 30.842155000000023 0.33925000000000011 21.069616977225675 23.400815217391308 21.687500000000004
decision_type=2 2 2 2 2 2 2 2 2 2 2 2 2 2 2 1 2 2 2 2 1 2 2 2 2 2 2 2 2 2 2 2 2 2 2 2 2 2 2 2 2 2 2 2 2 2 2
left_child=1 6 5 7 -4 9 -1 15 -6 -2 25 -7 14 30 -13 27 32 -18 31 36 42 -15 28 43 -20 -5 -27 -3 40 -22 -8 38 -11 34 -12 -36 37 -9 45 -24 -23 46 -21 -16 -32 -17 -26
right_child=2 3 4 10 8 11 13 19 -10 16 33 12 -14 21 23 18 17 -19 24 20 29 22 39 -25 41 26 -28 -29 -30 -31 44 -33 -34 -35 35 -37 -38 -39 -40 -41 -42 -43 -44 -45 -46 -47 -48
leaf_value=-0.22054644370364848 0.012140815149670728 -0.06263843051089317 0.13866529024457772 -0.037255286628508223 0.266342370142306 0.21733740370858318 -0.18271405177187058 -0.091895833036740426 0.37743518418861838 0.15328010643215689 -0.0095718890109439212 0.075019848058421462 0.2029248096450528 -0.16147909570778549 0.13164165785495366 -0.13724138282638701 0.10981347803782465 0.034264468028346394 -0.022543721917672017 -0.043870442979475642 -0.0026414759092739364 -0.065726128521002347 -0.090329207450291479 0.089498635907694676 -0.10747050125026641 0.060437005517520639 -0.03181800377136141 0.01074019401796077 -0.03401076385334318 0.062417684357714671 -0.15068486157135355 -0.054745618439685208 0.083802173882531236 0.081710262976836812 0.028938913319084016 0.092441100717305907 -0.013866104571925622 -0.025349613573082231 -0.07749633403646515 -0.14295323639007315 -0.12059783757509214 -0.051089878401190156 -0.0069548891425251259 0.18868351289643534 -0.108368752750499 -0.097249914499872372 -0.070800975350701359
leaf_weight=133 88 46 64 89 127 64 111 53 93 63 54 90 57 56 47 89 54 87 77 64 59 49 58 46 54 58 47 61 53 53 76 48 46 58 62 46 75 55 68 88 50 56 46 62 66 51 54
leaf_count=133 88 46 64 89 127 64 111 53 93 63 54 90 57 56 47 89 54 87 77 64 59 49 58 46 54 58 47 61 53 53 76 48 46 58 62 46 75 55 68 88 50 56 46 62 66 51 54
internal_value=0.00315165 -0.0692264 0.161423 -0.0288449 0.277611 0.113879 -0.146582 -0.0498983 0.316368 0.071475 0.0224553 0.152417 0.137279 -0.129684 0.120439 -0.070803 0.0920848 0.0643711 -0.0797119 -0.0185178 0.000168907 -0.110058 -0.09935 0.145475 -0.0606697 -0.00675099 0.0193075 -0.0195798 -0.0747072 0.0263862 -0.156031 -0.100095 0.126066 0.048042 0.0351056 0.0572219 -0.0409467 -0.0591274 -0.109915 -0.123602 -0.0953434 -0.0780598 -0.0264943 0.166992 -0.132854 -0.124301 -0.0908144
internal_weight=3151 2163 988 1423 284 704 740 1009 220 338 414 366 302 607 245 604 250 141 497 405 222 354 298 155 241 194 105 107 152 112 253 256 109 220 162 108 183 108 208 146 99 164 110 109 142 140 108
internal_count=3151 2163 988 1423 284 704 740 1009 220 338 414 366 302 607 245 604 250 141 497 405 222 354 298 155 241 194 105 107 152 112 253 256 109 220 162 108 183 108 208 146 99 164 110 109 142 140 108
cat_boundaries=0 1 2
cat_threshold=36968 278833
is_linear=0
shrinkage=0.0138767


Tree=10
num_leaves=46
num_cat=0
split_feature=23 23 23 39 19 39 23 1 23 23 23 23 29 11 1 1 19 10 17 5 6 11 7 3 39 3 9 26 8 25 37 37 31 23 5 39 2 39 5 23 6 27 6 36 3
split_gain=182657 34129.6 27296.3 7559.29 7321.89 5226.79 4391.53 2505.28 2380.51 2105.03 1947.64 1508.49 1480.94 1463.33 1205.86 1139.72 1025.91 1156.35 1010.04 895.309 1693.08 884.147 879.9 874.727 847.919 841.899 726.667 713.792 662.713 646.268 622.754 613.78 561.09 552.735 732.85 550.279 543.88 448.438 429.631 396.068 394.483 296.061 312.362 234.446 203.476
threshold=33.425724637681164 18.298007246376816 49.616847826086961 27.292580982339 1.1791699462779184 28.925988170098197 10.702898550724639 0.36725000000000002 58.854166666666671 26.687500000000004 21.802083333333339 39.127717391304351 0.16716666666666685 83.500000000000014 0.16175000000000003 0.21875000000000003 1.8778723412489076 33.833841827543516 140.50000000000003 14.708035000000026 1009.175325 274.50000000000006 979.9731250000001 0.00017977706076464546 21.263683486170766 0.00010629794482090033 322.60609363702196 88.166666666666671 5.2410637526900468 29.790760869565208 0.16728571428571423 0.32889285714285721 36.425724637681164 16.085144927536234 13.280300000000013 14.766992105083625 0.079998871176632944 24.812835694442764 9.2322000000000362 16.553442028985511 985.79562500000009 20.418995859213251 1001.1259250000002 65.694687558818018 9.4861436624698526e-05
decision_type=2 2 2 2 2 2 2 2 2 2 2 2 2 2 2 2 2 2 2 2 2 2 2 2 2 2 2 2 2 2 2 2 2 2 2 2 2 2 2 2 2 2 2 2 2
left_child=1 6 5 10 -4 -2 35 11 -6 19 26 23 -13 -9 39 24 17 -14 22 29 -21 -17 28 44 -12 -24 36 -27 -11 -5 40 33 -25 34 -16 -1 -3 -23 -32 -8 -26 -38 -43 -33 -7
right_child=2 3 4 9 8 7 14 13 -10 18 15 12 16 -15 31 21 -18 -19 -20 20 -22 37 25 32 30 27 -28 -29 -30 -31 38 43 -34 -35 -36 -37 41 -39 -40 -41 -42 42 -44 -45 -46
leaf_value=-0.23447463452831246 0.011976182101080932 -0.13190600900301402 0.13680088661523726 -0.011246215530090975 0.26270522029929161 0.026901013183604786 -0.16421586944278366 0.22948634060698342 0.37231076404088176 0.047562940504082142 -0.10141250856631745 0.19499325802307829 0.12605652078610474 0.13454814648295879 -0.13557425706482196 0.019950155985153463 0.14736845596569181 0.033050735469753852 -0.012752596252005933 0.064308022989735036 -0.044562246924679555 -0.057165873876866037 0.01649428046898755 0.1386782950253091 -0.048207622335303048 0.12243270044616297 -0.033084142498643755 0.047596084720087889 -0.016733714073147797 -0.068831980593192107 -0.097607736331140504 -0.16215264800122978 0.06958885074688706 -0.061458656202727051 -0.072098863302060223 -0.16306388416402529 -0.10382987446785939 -0.0035663562190835427 -0.043312784957244596 -0.11445537070203833 0.0049738863260896729 -0.039545787571478398 -0.087222517148747944 -0.10508615513050019 0.06776191400250503
leaf_weight=99 88 60 64 69 127 47 170 63 93 57 64 59 51 91 92 84 88 54 81 52 54 80 50 57 46 52 48 53 63 83 47 54 50 80 71 60 73 48 82 68 60 58 59 46 56
leaf_count=99 88 60 64 69 127 47 170 63 93 57 64 59 51 91 92 84 88 54 81 52 54 80 50 57 46 52 48 53 63 83 47 54 50 80 71 60 73 48 82 68 60 58 59 46 56
internal_value=0.00310961 -0.0682908 0.159244 -0.028457 0.273837 0.112351 -0.144597 0.126601 0.31206 0.00824734 -0.0562666 0.109456 0.132734 0.175906 -0.12603 -0.0395526 0.11184 0.0797924 0.0300501 -0.0218301 0.00903691 -0.0147271 0.0426647 0.0805 -0.0569285 0.0643109 -0.0844547 0.0863115 0.0140794 -0.0432006 -0.044033 -0.10783 0.108327 -0.0941207 -0.109177 -0.20996 -0.0939611 -0.037453 -0.0643271 -0.151106 -0.0185664 -0.0806875 -0.064692 -0.138561 0.0500233
internal_weight=3151 2163 988 1423 284 704 740 616 220 614 809 462 252 154 581 511 193 105 356 258 106 212 275 210 299 155 298 105 120 152 235 343 107 243 163 159 250 128 129 238 106 190 117 100 103
internal_count=3151 2163 988 1423 284 704 740 616 220 614 809 462 252 154 581 511 193 105 356 258 106 212 275 210 299 155 298 105 120 152 235 343 107 243 163 159 250 128 129 238 106 190 117 100 103
is_linear=0
shrinkage=0.0138767


Tree=11
num_leaves=47
num_cat=0
split_feature=23 23 23 39 19 39 39 1 23 23 6 23 19 1 31 1 16 7 5 23 5 6 11 39 23 11 11 9 25 8 5 37 23 2 39 5 6 29 23 10 3 27 6 3 10 27
split_gain=177749 33209.3 26553.5 7358.41 7121.65 5087.25 4300.58 2442.78 2317.59 2048.86 1937.96 1895.62 1778.86 1375.61 1142.09 1109.46 1039.42 1023.64 906.204 1178.68 871.314 1648.15 860.393 825.156 797.63 810.827 710.596 707.136 628.856 615.133 612.817 606.104 536.061 529.428 436.363 418.456 384.066 340.339 327.275 317.252 300.802 287.987 304.02 278.033 230.644 150.808
threshold=33.425724637681164 18.298007246376816 49.616847826086961 27.292580982339 1.1791699462779184 28.925988170098197 12.998869914039719 0.28075000000000011 58.854166666666671 26.687500000000004 1011.0547250000001 21.802083333333339 2.2488503787629468 0.16175000000000003 37.29800724637682 0.21875000000000003 54.612334000000011 979.9731250000001 16.417015000000024 42.340579710144937 14.708035000000026 1009.175325 274.50000000000006 21.263683486170766 10.97916666666667 289.50000000000006 297.50000000000006 322.60609363702196 29.790760869565208 5.2410637526900468 13.345850000000015 0.16728571428571423 14.574275362318842 0.079998871176632944 24.812835694442764 9.2322000000000362 985.79562500000009 0.21575000000000003 41.701992753623195 26.709419631127599 0.00021482500792391964 20.418995859213251 1001.1259250000002 9.049381350061289e-05 31.967320323416647 21.069616977225675
decision_type=2 2 2 2 2 2 2 2 2 2 2 2 2 2 2 2 2 2 2 2 2 2 2 2 2 2 2 2 2 2 2 2 2 2 2 2 2 2 2 2 2 2 2 2 2 2
left_child=1 6 5 11 -4 -2 -1 12 -6 20 14 27 18 32 -9 23 17 29 19 43 28 -22 -17 -13 -15 30 -19 33 -5 -11 40 36 -8 -3 -24 -33 -25 -27 -16 -18 -26 -35 -43 -7 -45 -34
right_child=2 3 4 9 8 7 13 10 -10 16 -12 15 -14 24 38 22 39 26 -20 -21 21 -23 34 31 25 37 -28 -29 -30 -31 -32 35 45 41 -36 -37 -38 -39 -40 -41 -42 42 -44 44 -46 -47
leaf_value=-0.2148665992122617 0.011813780926824282 -0.13013615332277961 0.13496154953714121 -0.011094663453585348 0.25911774152295264 0.041376861776418014 -0.17790454011681361 0.23883255545764315 0.36725591640422783 0.046925870099349454 0.098190651760740655 -0.10004898146473215 0.15539300008360923 -0.15699884965697625 0.11422448535691455 0.019679920203793794 0.019553691084128268 0.10057471193499209 0.034409041078358633 0.14096838908926665 0.063449536244416224 -0.043966521137795013 -0.056392450613058795 -0.04756724287231362 -0.063389377691217608 -0.088013917239930253 0.034887386138239072 -0.032643875432000945 -0.067899878837597266 -0.015266325462237143 -0.032440202319269057 -0.096309957473508165 -0.14673081485959269 -0.10242847454722151 -0.0035188970915240943 -0.042726427404152015 0.0049071495862984121 -0.13946495691546776 0.17881961532871876 -0.02831650767096635 -0.11750540107868086 -0.039015784670089107 -0.08605286003380451 0.10862530838689229 0.060606077470919846 -0.10502499272440424
leaf_weight=133 88 60 64 69 127 48 111 61 93 57 77 64 91 56 46 84 46 71 61 76 52 54 80 46 49 58 62 48 83 62 53 47 76 73 48 82 60 88 57 58 50 58 59 47 52 66
leaf_count=133 88 60 64 69 127 48 111 61 93 57 77 64 91 56 46 84 46 71 61 76 52 54 80 46 49 58 62 48 83 62 53 47 76 73 48 82 60 88 57 58 50 58 59 47 52 66
internal_value=0.00306789 -0.0673669 0.15709 -0.0280738 0.270114 0.11084 -0.142637 0.124898 0.307812 0.00813952 0.159946 -0.0555114 0.101621 -0.126137 0.187358 -0.0390221 0.0296494 0.0447817 0.0833934 0.0963489 -0.0215339 0.00891649 -0.0145281 -0.0561657 -0.107024 -0.0966175 0.0709623 -0.0833206 -0.0426161 0.0147996 -0.0723267 -0.0434442 -0.151797 -0.0926985 -0.0369467 -0.0634653 -0.0183199 -0.120541 0.152784 -0.00715819 -0.09257 -0.0796022 -0.0638249 0.0716447 0.085164 -0.129132
internal_weight=3151 2163 988 1423 284 704 740 616 220 614 241 809 375 607 164 511 356 252 284 223 258 106 212 299 354 298 133 298 152 119 152 235 253 250 128 129 106 146 103 104 99 190 117 147 99 142
internal_count=3151 2163 988 1423 284 704 740 616 220 614 241 809 375 607 164 511 356 252 284 223 258 106 212 299 354 298 133 298 152 119 152 235 253 250 128 129 106 146 103 104 99 190 117 147 99 142
is_linear=0
shrinkage=0.0138767


Tree=12
num_leaves=51
num_cat=0
split_feature=23 23 23 39 25 39 35 23 9 0 0 1 23 4 11 27 23 34 11 2 3 8 4 35 7 31 35 41 8 35 11 0 4 8 9 35 42 23 0 2 25 40 35 35 23 37 2 15 4 7
split_gain=161372 37482.6 22618.6 7443.35 6775.37 5155.06 5143.07 3439.41 2628.09 1983.9 1972.82 1761.3 1441.53 1389.86 1440.64 961.212 951.227 950.07 976.864 936.417 914.489 913.277 900.856 881.144 792.069 694.446 1030.96 634.259 526.527 492.528 482.213 480.708 465.224 419.32 412.361 400.876 544.671 372.921 369.89 367.346 411.139 361.963 331.055 314.249 230.843 226.137 286.182 195.34 124.13 7.38789
threshold=34.042572463768117 18.681159420289859 50.229166666666679 23.219148316759771 47.336050724637694 14.260822563461319 34.081198240165641 26.848484848484851 270.50045067847304 6.7783521967203084 8.8320088602933549 0.31825000000000009 62.977355072463773 26.439990000000027 85.500000000000014 25.973084886128365 13.187500000000002 96.979166666666671 279.50000000000006 0.12120063023092556 0.00041180972300099698 3.6593523887856727 27.760675000000024 32.978302042160742 1469.4693500000003 35.229166666666679 45.505693581780541 5.2279201077522393 4.746434414615285 18.165307971014496 292.50000000000006 2.2862483850054804 31.004540000000024 3.9878864594341774 312.26123987531395 35.013965201465211 32.218421666666693 22.212862318840582 5.7529002173097075 0.08748649985866104 28.097222222222246 129.10366864386592 19.786555383022776 25.095173395445137 11.489130434782611 0.16439285714285717 0.14710514480563253 24.191343800000002 26.604550000000021 988.89652000000012
decision_type=2 2 2 2 2 2 2 2 2 2 2 2 2 2 2 2 2 2 2 2 2 2 2 2 2 2 2 2 2 2 2 2 2 2 2 2 2 2 2 2 2 2 2 2 2 2 2 2 2 2
left_child=1 5 6 20 -4 44 9 21 -6 13 15 25 -10 -2 -15 28 33 18 -17 38 29 37 39 -19 -20 -8 32 -12 -9 -3 41 -16 -27 -7 43 36 -24 -5 -18 -23 -41 -13 -31 48 -1 -44 -47 -39 -21 -35
right_child=2 3 4 7 8 16 11 10 12 -11 27 30 -14 14 31 17 19 23 24 34 -22 22 35 -25 -26 26 -28 -29 -30 42 -32 -33 -34 49 -36 -37 -38 47 -40 40 -42 -43 45 -45 -46 46 -48 -49 -50 -51
leaf_value=-0.22224592174833949 -0.012642477275222734 -0.11552291128258839 0.15339382181865227 -0.090418671193648603 0.20683625216954066 -0.18363340416860066 0.15330426691151328 0.00064700524615097653 0.28542610072497837 0.12855301885591552 0.11482853132006242 0.22800381658377786 0.41476745640443835 0.11014910967080505 -0.0034348264097274397 0.076148819570375739 -0.14041199166853691 -0.048560075558422358 0.052731754992512696 -0.08613483339669778 -0.015936224311576017 -0.07305664993491208 0.019977670832633118 0.025512896378553664 -0.018730989382460039 0.096379428350300916 0.1513521149526256 0.040281007891229292 -0.061414337988817992 -0.043178063621287607 0.12965653434526178 0.055863191401342993 0.037852549262830673 -0.10647004806062295 -0.052443131123032193 0.038820788361269537 -0.035567888567465303 -0.020023113370935521 -0.091765193268114817 -0.0056070841312966619 -0.057763740405604364 0.15381351689658915 -0.057191644281183986 -0.066735701892059726 -0.16901997141059971 -0.10916775529211538 -0.065086538677390157 -0.06100904663014136 -0.1280319187945767 -0.14240639212554396
leaf_weight=122 61 70 86 48 48 65 68 58 70 69 46 57 53 73 47 80 183 57 52 46 48 46 66 63 65 63 46 47 46 68 48 57 51 49 57 46 66 47 57 73 47 48 72 54 71 83 64 47 68 55
leaf_count=122 61 70 86 48 48 65 68 58 70 69 46 57 53 73 47 80 183 57 52 46 48 46 66 63 65 63 46 47 46 68 48 57 51 49 57 46 66 47 57 73 47 48 72 54 71 83 64 47 68 55
internal_value=-0.00296419 -0.0673133 0.148837 -0.0236115 0.259657 -0.141314 0.106789 -0.00323998 0.310635 0.0638544 0.0217412 0.140852 0.347067 0.0441509 0.063654 0.00879882 -0.12143 0.0207949 0.0393995 -0.10996 -0.0736374 -0.0296443 -0.017229 -0.00988259 0.0133774 0.114302 0.0959833 0.078856 -0.0274444 -0.0812552 0.178367 0.029501 0.0713442 -0.151281 -0.0878691 0.00446811 -0.00790159 -0.0590344 -0.129742 -0.0402753 -0.0266773 0.197705 -0.07213 -0.0991002 -0.20466 -0.0806273 -0.0911485 -0.0414001 -0.112964 -0.12788
internal_weight=3177 2232 945 1405 257 827 688 1000 171 307 514 381 123 238 177 421 634 317 197 465 405 486 344 120 117 228 160 93 104 357 153 104 114 169 225 178 132 142 240 166 120 105 287 168 193 219 147 94 114 104
internal_count=3177 2232 945 1405 257 827 688 1000 171 307 514 381 123 238 177 421 634 317 197 465 405 486 344 120 117 228 160 93 104 357 153 104 114 169 225 178 132 142 240 166 120 105 287 168 193 219 147 94 114 104
is_linear=0
shrinkage=0.0138767


Tree=13
num_leaves=51
num_cat=2
split_feature=23 23 23 39 30 39 35 25 23 0 0 20 4 11 23 43 23 2 3 8 6 5 33 39 11 24 35 8 43 4 23 31 35 11 0 8 9 35 23 40 35 35 23 37 2 15 42 5 4 38
split_gain=157063 36473.1 22014.5 7243.57 6632.45 5014.36 5007.31 4370.22 3348.17 1930.78 1920.94 1714.93 1352.7 1401.9 1242.33 934.593 926.856 909.762 889.873 889.171 1009.7 789.306 689.428 845.409 678.411 627.074 752.326 615.131 582.391 691.605 580.876 515.024 479.351 469.195 467.93 407.755 401.358 366.673 363.036 351.984 322.127 305.803 223.813 220.031 278.352 190.171 178.882 169.48 120.57 21.8302
threshold=34.042572463768117 18.681159420289859 50.229166666666679 23.219148316759771 2.7544721767948315 14.260822563461319 34.081198240165641 47.046195652173914 26.848484848484851 6.7783521967203084 8.8320088602933549 0.27630508144575999 26.439990000000027 85.500000000000014 62.977355072463773 0 13.187500000000002 0.12120063023092556 0.00041180972300099698 3.6593523887856727 1014.546825 15.231225000000025 36.936594202898554 42.933483843438502 275.50000000000006 108.29438405797103 26.981936994165256 4.1379043599064884 1 28.542135000000034 30.468297101449277 35.437500000000007 18.165307971014496 292.50000000000006 2.2862483850054804 3.9878864594341774 312.26123987531395 31.775815217391308 22.212862318840582 129.10366864386592 19.786555383022776 25.095173395445137 11.489130434782611 0.16439285714285717 0.14710514480563253 24.191343800000002 29.873765000000034 13.064845000000021 26.604550000000021 2.1985972941194372
decision_type=2 2 2 2 2 2 2 2 2 2 2 2 2 2 2 1 2 2 2 2 2 2 2 2 2 2 2 2 1 2 2 2 2 2 2 2 2 2 2 2 2 2 2 2 2 2 2 2 2 2
left_child=1 5 6 18 -4 42 9 -6 19 12 15 22 -2 -14 -9 24 35 21 32 38 28 49 31 -24 -10 26 -17 -28 29 -21 -12 -8 -3 39 -15 -7 41 46 -5 -13 -34 48 -1 -42 -45 -40 -30 -37 -19 -18
right_child=2 3 4 8 7 16 11 14 10 -11 30 33 13 34 -16 25 17 36 -20 20 -22 -23 23 -25 -26 -27 27 -29 37 -31 -32 -33 40 -35 -36 47 -38 -39 45 -41 43 -43 -44 44 -46 -47 -48 -49 -50 -51
leaf_value=-0.21921292845714258 -0.01247275339502303 -0.11396551558632703 0.1166323531634799 -0.089215427243466636 0.16816455814339124 -0.18116320603852076 0.17817752345376786 0.27822822789340079 -0.064697750241768784 0.12682067493524904 0.039999613805453506 0.22494988165191235 0.10866241747765533 -0.0033891569757442319 0.38781347491010321 -0.0067545531738082984 -0.12002558735030086 -0.084990636114013557 -0.015724153681529896 -0.018033937148374785 -0.066745736987063278 -0.082058458076991886 0.049319529689798143 0.12272024244792742 0.0010686009778680455 -0.010613249728071358 0.021678506694248499 0.077488372831287247 -0.020524322400414446 0.048723956916625968 0.11155463019853734 0.10431326672508318 -0.0425964555798568 0.12793113536970691 0.055114947902673773 -0.14655141492285392 -0.051740695670422422 0.0024076229572455366 -0.019756889409494605 0.151766647195271 -0.056420017839364116 -0.065843552402712474 -0.16674045206435539 -0.10768943617048723 -0.064211427373924795 -0.060197878942096342 -0.058827093865336216 -0.09732676318897919 -0.12630733125531191 -0.15396064243280308
leaf_weight=122 61 70 56 48 49 65 46 85 46 69 46 57 73 47 67 60 60 46 48 53 62 65 62 67 81 79 76 79 52 64 47 53 68 48 57 56 57 66 47 48 72 54 71 83 64 47 47 48 68 115
leaf_count=122 61 70 56 48 49 65 46 85 46 69 46 57 73 47 67 60 60 46 48 53 62 65 62 67 81 79 76 79 52 64 47 53 68 48 57 56 57 66 47 48 72 54 71 83 64 47 47 48 68 115
internal_value=-0.0029196 -0.0664036 0.146841 -0.0232943 0.256171 -0.139401 0.105358 0.293466 -0.00319798 0.062994 0.0214496 0.138968 0.043556 0.0627966 0.331068 0.00867849 -0.11979 -0.108469 -0.0726442 -0.0292497 -0.0169993 -0.127969 0.112771 0.0887809 -0.0217072 0.0218643 0.0348007 0.0507757 -0.0056527 0.0172318 0.0778085 0.141574 -0.0801589 0.175986 0.0291055 -0.149254 -0.0866919 -0.0216388 -0.0582494 0.195063 -0.0711564 -0.0977724 -0.201877 -0.0795385 -0.0899171 -0.0408499 -0.0395514 -0.126173 -0.111449 -0.143862
internal_weight=3177 2232 945 1405 257 827 688 201 1000 307 514 381 238 177 152 421 634 465 405 486 344 240 228 129 127 294 215 155 282 117 93 99 357 153 104 169 225 165 142 105 287 168 193 219 147 94 99 104 114 175
internal_count=3177 2232 945 1405 257 827 688 201 1000 307 514 381 238 177 152 421 634 465 405 486 344 240 228 129 127 294 215 155 282 117 93 99 357 153 104 169 225 165 142 105 287 168 193 219 147 94 99 104 114 175
cat_boundaries=0 1 2
cat_threshold=788497 262828
is_linear=0
shrinkage=0.0138767


Tree=14
num_leaves=53
num_cat=1
split_feature=23 23 23 27 30 35 35 25 23 19 1 35 3 19 4 11 23 23 2 34 43 35 23 42 3 34 1 33 27 16 31 11 19 1 4 10 35 40 23 27 23 1 19 31 2 31 37 34 41 35 37 6
split_gain=152867 35498 21423.1 6800.48 6453.94 4875.34 4451.25 4250.87 3371.08 1879.08 1669.6 1655.28 1591.41 1318.46 1316.53 1364.2 1210.14 1019.82 939.435 907.483 834.663 780.168 759.252 722.908 691.071 688.005 854.64 671.571 1147.1 532.763 501.564 456.528 455.491 454.207 450.451 401.953 398.337 342.28 315.124 266.875 257.809 246.051 214.355 212.76 552.26 188.031 170.309 143.574 67.9432 45.3291 23.3405 11.4763
threshold=34.042572463768117 18.425724637681164 50.229166666666679 26.492382229571671 2.7544721767948315 34.081198240165641 17.37765269151139 47.046195652173914 26.848484848484851 2.0513445106722457 0.31825000000000009 18.165307971014496 0.00039491895901338738 2.2856431162040676 26.439990000000027 85.500000000000014 62.977355072463773 24.812500000000004 0.11733966230100264 96.979166666666671 0 32.978302042160742 12.574275362318842 34.751123333333361 8.090669067084578e-05 56.340579710144937 0.17225000000000004 36.936594202898554 46.349120082815737 54.509448700000007 35.437500000000007 292.50000000000006 1.1897465987977613 0.20475000000000004 28.126170000000034 33.577468005159226 31.601449275362324 129.10366864386592 13.187500000000002 24.550077639751557 24.148550724637683 0.15425000000000003 1.9009485638635584 18.936594202898554 0.1775118733759852 19.638586956521742 0.16728571428571423 65.298007246376827 4.3857086341375586 24.503758469791084 0.2243928571428572 1003.7544250000002
decision_type=2 2 2 2 2 2 2 2 2 2 2 2 2 2 2 2 2 2 2 2 1 2 2 2 2 2 2 2 2 2 2 2 2 2 2 2 2 2 2 2 2 2 2 2 2 2 2 2 2 2 2 2
left_child=1 6 5 11 -4 9 22 -6 23 14 27 -3 17 19 -2 -16 -9 29 35 25 41 -21 50 24 -5 -10 -27 30 -29 45 -7 37 -17 46 40 47 -36 -12 -20 48 -26 -19 -37 44 -40 -13 -31 -8 -22 -45 -1 -24
right_child=2 3 4 8 7 10 18 16 13 -11 31 12 -14 -15 15 32 -18 20 38 21 39 -23 51 -25 34 26 -28 28 -30 33 -32 -33 -34 -35 36 42 -38 -39 43 -41 -42 -43 -44 49 -46 -47 -48 -49 -50 -51 -52 -53
leaf_value=-0.17685127739544626 -0.012305308971930159 -0.11262200104563723 0.11507112309051923 -0.082987011451115006 0.16592483896122959 0.17581065412151395 -0.17962151430503431 0.27445839825065704 -0.0041080701412481921 0.12511167907357448 0.22193685239969987 -0.068214891421684951 0.0070929868240109124 0.084889392823078294 0.10719579320172462 -0.0033440949516608562 0.38259191506413714 -0.022587393020948341 -0.12393389696519883 -0.047079528693224702 -0.053995682786892742 0.02384624762301224 -0.12584499015717976 0.019206882933279861 -0.058248848416039271 0.013407398822991228 0.08433859600164044 0.051352966232972912 0.1372195058124612 -0.05306543888876715 0.10291972875793527 0.1262286945224371 0.054376726003068393 -0.021058644301770676 -0.029633447337235899 -0.13214886699749387 0.02245760934359798 0.14974701740392457 -0.029805017469969924 -0.028463017223517954 -0.017130085497822679 0.01992363630799094 -0.089174701714036519 -0.1161872913482359 -0.095670765607239847 -0.10902629512046015 -0.090896044457066602 -0.12731083499296 -0.08505809394138171 -0.081665938304967517 -0.22462335547152346 -0.1673065151819112
leaf_weight=67 61 82 56 46 49 46 59 85 50 69 57 53 91 77 73 47 67 48 66 54 47 62 52 56 76 56 80 77 52 69 53 48 57 55 55 87 54 48 46 47 51 53 62 47 58 78 50 52 46 48 96 56
leaf_count=67 61 82 56 46 49 46 59 85 50 69 57 53 91 77 73 47 67 48 66 54 47 62 52 56 76 56 80 77 52 69 53 48 57 55 55 87 54 48 46 47 51 53 62 47 58 78 50 52 46 48 96 56
internal_value=-0.00287757 -0.065508 0.144869 -0.024232 0.252721 0.103947 -0.139715 0.289511 0.00601114 0.0621452 0.137111 -0.0543246 -0.0464796 0.034341 0.042969 0.0619507 0.326598 -0.0554047 -0.115246 0.0209609 -0.0336113 -0.00940084 -0.185888 -0.0257656 -0.0347767 0.0398013 0.0557779 0.111262 0.0875865 -0.0722794 0.139689 0.173637 0.0287153 -0.0551357 -0.0247378 -0.134833 -0.00387321 0.192457 -0.095133 -0.0535052 -0.0422852 -0.000282886 -0.115734 -0.0844043 -0.0676952 -0.0938352 -0.070247 -0.157888 -0.0708835 -0.100859 -0.207442 -0.150079
internal_weight=3177 2232 945 1436 257 688 796 201 717 307 381 719 637 379 238 177 152 546 525 302 241 116 271 338 282 186 136 228 129 305 99 153 104 174 236 260 109 105 265 140 127 101 149 199 104 131 119 111 93 95 163 108
internal_count=3177 2232 945 1436 257 688 796 201 717 307 381 719 637 379 238 177 152 546 525 302 241 116 271 338 282 186 136 228 129 305 99 153 104 174 236 260 109 105 265 140 127 101 149 199 104 131 119 111 93 95 163 108
cat_boundaries=0 1
cat_threshold=819746
is_linear=0
shrinkage=0.0138767


Tree=15
num_leaves=49
num_cat=1
split_feature=23 23 23 25 35 27 1 0 0 23 23 23 29 27 32 43 40 1 31 42 26 23 38 23 27 5 35 1 5 12 34 3 37 37 30 31 3 6 38 22 5 23 29 9 9 6 24 23
split_gain=153541 32848.6 25978.8 8111.6 6959.95 4770.73 4142.74 2874.48 2482.9 2005.47 1967.47 1873.95 1730.63 1451.48 1201.76 1159.81 1074.61 1013.22 970.807 934.195 933.661 865.079 855.392 813.187 792.039 664.495 574.06 537.88 533.514 530.728 518.946 516.994 509.841 475.494 474.051 451.052 397.079 451.086 587.154 375.296 340.478 319.451 265.841 243.751 191.539 182.89 149.972 232.011
threshold=34.229166666666679 21.687500000000004 49.616847826086961 47.336050724637694 17.37765269151139 26.766433747412012 0.3987500000000001 5.4878278659805888 4.0514398943844681 27.020833333333339 13.187500000000002 62.977355072463773 0.32608333333333345 42.927083333333336 91.145833333333357 0 65.719577756796255 0.18075000000000002 40.531702898550726 32.148785000000025 74.161231884058012 23.53170289855073 8.9341567206995709 9.7708333333333339 32.181677018633543 10.550315000000014 30.931372509478106 0.20625000000000004 13.488915000000022 11.500000000000002 51.104166666666679 0.00025741942794318718 0.25317857142857153 0.21103571428571435 2.969946325521104 18.681159420289859 0.00045616259027422894 1009.5503000000001 2.7232137513958214 1.4202435375700888 13.064845000000021 25.340579710144933 0.15033333333333343 281.43273188555924 303.06288673643229 979.83965000000001 50.653409090909101 18.681159420289859
decision_type=2 2 2 2 2 2 2 2 2 2 2 2 2 2 2 1 2 2 2 2 2 2 2 2 2 2 2 2 2 2 2 2 2 2 2 2 2 2 2 2 2 2 2 2 2 2 2 2
left_child=1 4 6 -4 23 15 7 14 -5 19 40 -10 -8 22 20 31 -11 28 24 21 26 -7 -9 -1 39 -16 -2 -23 46 36 -17 35 -26 42 -35 -3 37 38 43 -18 -6 -37 -32 -19 -30 -25 -12 -48
right_child=2 5 3 8 10 9 12 13 11 16 17 -13 -14 -15 25 30 18 29 -20 -21 -22 27 -24 45 32 -27 -28 -29 44 -31 33 -33 -34 34 -36 41 -38 -39 -40 -41 -42 -43 -44 -45 -46 -47 47 -49
leaf_value=-0.21347752783083099 0.022999864758663169 -0.11647117624582184 0.15218467888184192 0.21957579379239667 -0.15931778575950892 -0.042946511105858509 0.24360555386947783 0.13341505154254002 0.29161145676325007 0.083424781474862639 -0.093282042805784948 0.43276086849261208 0.12912282309247183 0.19625481334358655 0.11955258897402242 -0.048490051154301765 0.039540640695194557 -0.096248128887341411 -0.024741835572071245 -0.060337157556492299 -0.00045162491826580495 -0.0060635248954864912 0.059458264109843152 -0.11725941719834117 0.032336754089134293 0.060788299136206619 0.086896399820437814 0.060046387239348631 -0.092779811887356123 -0.10143151767923454 -0.0084237502124153117 -0.026978468271230061 0.088763630577629329 -0.059218980885548056 -0.0010898576698549561 -0.089258688047015616 -0.027530707244825273 -0.10696567866345646 -0.015887933240617901 -0.0092933869659399433 -0.10560806206926077 -0.041197350854362769 0.037670438331958295 -0.053728701594718757 -0.049142600411763881 -0.16487351720347498 -0.1449836099136973 -0.097843391832411211
leaf_weight=92 47 47 87 48 96 50 46 79 70 72 74 53 79 48 76 87 49 52 61 65 76 46 57 47 68 88 69 46 51 77 47 50 61 48 59 51 65 46 51 73 57 68 46 76 46 154 82 58
leaf_count=92 47 47 87 48 96 50 46 79 70 72 74 53 79 48 76 87 49 52 61 65 76 46 57 47 68 88 69 46 51 77 47 50 61 48 59 51 65 46 51 73 57 68 46 76 46 154 82 58
internal_value=-0.00124828 -0.0638347 0.148955 0.266809 -0.116448 -0.0096596 0.102548 0.0852861 0.322619 0.017051 -0.0955074 0.358552 0.174522 0.12981 0.0616566 -0.0409883 0.0357537 -0.0848481 0.0242737 -0.0176461 0.0374497 0.00246496 0.103776 -0.174757 0.0362968 0.0891724 0.0618722 0.0275623 -0.103647 -0.0684246 -0.0199139 -0.0646527 0.060005 -0.00809388 -0.0278063 -0.0793689 -0.0590033 -0.0677566 -0.0565722 0.0106361 -0.140983 -0.0629739 0.0146785 -0.0722623 -0.0735509 -0.155047 -0.116453 -0.127163
internal_weight=3141 2218 923 258 1124 1094 665 540 171 591 831 123 125 184 356 503 384 678 312 207 192 142 136 293 251 164 116 92 311 367 287 216 129 200 107 166 290 225 179 122 153 119 93 128 97 201 214 140
internal_count=3141 2218 923 258 1124 1094 665 540 171 591 831 123 125 184 356 503 384 678 312 207 192 142 136 293 251 164 116 92 311 367 287 216 129 200 107 166 290 225 179 122 153 119 93 128 97 201 214 140
cat_boundaries=0 1
cat_threshold=672899
is_linear=0
shrinkage=0.0138767


Tree=16
num_leaves=49
num_cat=1
split_feature=23 23 23 25 35 39 1 0 0 11 23 23 23 27 39 35 3 3 2 1 31 5 5 38 23 43 11 35 23 5 23 31 10 9 1 28 31 4 31 5 35 9 9 30 30 9 33 4
split_gain=149437 31965.5 25286.2 7898.28 6769.51 4895.04 4032.95 2798.31 2415.39 1992.71 1913.99 1904.1 1825.89 1413.78 1363.61 1303.08 1272.46 1193.78 1016.61 985.972 982.827 975.967 902.274 832.176 791.516 661.729 661.089 574.436 560.174 518.792 453.498 450.961 440.773 585.053 418.675 374.664 371.49 369.58 339.678 330.821 304.824 266.223 224.589 192.42 233.586 186.413 183.859 107.984
threshold=34.229166666666679 21.687500000000004 49.616847826086961 47.336050724637694 17.37765269151139 24.138893751871326 0.3987500000000001 5.4878278659805888 4.0514398943844681 76.500000000000014 13.187500000000002 27.020833333333339 62.977355072463773 42.927083333333336 31.890073013166788 29.428700828157357 0.00026545978551748624 0.00017415218439717983 0.098884726007649151 0.18075000000000002 36.425724637681164 14.636140000000013 14.525905000000025 8.9341567206995709 9.7708333333333339 0 293.50000000000006 32.596143892339548 23.53170289855073 13.488915000000022 31.403985507246379 23.638586956521742 26.425828121293019 298.48228672809097 0.26025000000000004 68.315899680030128 18.127717391304351 28.630300000000009 29.936594202898554 13.064845000000021 25.095173395445137 264.69673121881715 301.30335064827165 3.1061469601250571 2.0350490714406453 303.06288673643229 17.064393939393941 29.332660000000008
decision_type=2 2 2 2 2 2 2 2 2 2 2 2 2 2 2 2 2 2 2 2 2 2 2 2 2 1 2 2 2 2 2 2 2 2 2 2 2 2 2 2 2 2 2 2 2 2 2 2
left_child=1 4 6 -4 24 17 7 14 -5 -8 39 25 -10 23 18 31 30 43 -2 29 -16 -19 41 -9 -1 27 35 -7 -27 37 38 -13 -33 -34 -30 -21 -37 -12 -17 -6 47 -22 -39 44 -3 -31 -26 -28
right_child=2 5 3 8 10 11 9 13 12 -11 19 15 -14 -15 20 16 -18 21 -20 26 22 -23 -24 -25 46 28 40 -29 34 45 -32 32 33 -35 -36 36 -38 42 -40 -41 -42 -43 -44 -45 -46 -47 -48 -49
leaf_value=-0.21057983507824918 -0.025415645120814467 -0.064594687343304424 0.15012154607233533 0.21665379291925621 -0.15715327525768771 -0.01803576139646525 0.24079843566607587 0.13161058979812998 0.28768016141231739 0.12122095854365195 -0.13623537144748155 0.034376076327653653 0.42697954204053318 0.19364315810321917 0.11725643011283812 0.030892333793181476 0.086622100700051982 0.023846539841854721 0.058760578560100585 -0.018222519507083604 0.053699627646465443 -0.058111052263253277 0.011089606236328958 0.058661865483594394 -0.1633114751646261 -0.075538079849947593 -0.11351145566428444 0.043362031573423526 -0.039779958773753787 -0.091542160754921192 0.047940428269866733 0.022207908825379236 0.0086843249980903051 -0.054422847604449064 0.011172983935938928 -0.09203357094529678 -0.041847085646563406 -0.11179476420537525 -0.014978743280244738 -0.10419352374530522 -0.057471418843708814 0.10132052002751664 -0.065557071155426722 -0.052483954425756901 -0.10691120462121172 -0.048489800706222649 -0.11724351069187702 -0.076039850158399674
leaf_weight=92 51 62 87 48 96 69 50 79 70 75 101 48 53 48 84 56 89 50 56 58 52 59 55 57 150 50 72 48 82 51 86 46 48 65 48 48 83 65 65 57 59 58 48 52 71 46 51 47
leaf_count=92 51 62 87 48 96 69 50 79 70 75 101 48 53 48 84 56 89 50 56 58 52 59 55 57 150 50 72 48 82 51 86 46 48 65 48 48 83 65 65 57 59 58 48 52 71 46 51 47
internal_value=-0.00122819 -0.0629726 0.146954 0.263227 -0.114874 -0.00953069 0.10117 0.0841385 0.318298 0.172184 -0.0942216 0.00828721 0.353742 0.128068 0.0608242 0.0247023 0.0432784 -0.0577418 0.0189002 -0.0837079 0.0785309 -0.0207544 0.0576069 0.102376 -0.17238 -0.0194864 -0.0675064 0.00687452 -0.0349715 -0.102253 0.0239668 -0.00201654 -0.0133119 -0.0279246 -0.0210723 -0.0484869 -0.0613855 -0.114881 0.00639801 -0.139075 -0.0869085 0.0802207 -0.0936894 -0.0790582 -0.0884794 -0.0725713 -0.152935 -0.100267
internal_weight=3141 2218 923 258 1124 1094 665 540 171 125 831 800 123 184 356 503 296 294 107 678 249 109 165 136 293 297 367 117 180 311 207 207 159 113 130 189 131 214 121 153 178 110 113 185 133 97 201 119
internal_count=3141 2218 923 258 1124 1094 665 540 171 125 831 800 123 184 356 503 296 294 107 678 249 109 165 136 293 297 367 117 180 311 207 207 159 113 130 189 131 214 121 153 178 110 113 185 133 97 201 119
cat_boundaries=0 1
cat_threshold=201300
is_linear=0
shrinkage=0.0138767


Tree=17
num_leaves=48
num_cat=1
split_feature=23 23 23 31 35 39 1 23 0 11 23 23 27 39 35 3 3 4 16 1 31 5 5 38 23 43 11 34 11 35 23 5 23 26 1 28 31 4 5 35 9 9 30 30 9 33 4
split_gain=145444 31106.3 24611.8 6649.14 6584.4 4764.23 3925.79 3271.93 2723.94 1940.77 1862 1853.05 1377.05 1327.09 1267.89 1238.11 1161.91 1101.93 1068.35 959.344 956.02 950.018 878.271 809.59 770.41 644.155 643.407 581.998 818.238 559.194 545.45 504.411 441.252 430.218 407.463 364.673 361.821 359.112 321.438 296.65 259.074 218.429 187.164 227.251 181.423 178.027 104.884
threshold=34.229166666666679 21.687500000000004 49.616847826086961 43.020833333333336 17.37765269151139 24.138893751871326 0.3987500000000001 62.977355072463773 5.4878278659805888 76.500000000000014 13.187500000000002 27.020833333333339 42.927083333333336 31.890073013166788 29.428700828157357 0.00026545978551748624 0.00017415218439717983 30.512080000000029 54.583517100000009 0.18075000000000002 36.425724637681164 14.636140000000013 14.525905000000025 8.9341567206995709 9.7708333333333339 0 293.50000000000006 92.479166666666671 307.50000000000006 32.596143892339548 23.53170289855073 13.488915000000022 31.403985507246379 87.249396135265712 0.26025000000000004 68.315899680030128 18.127717391304351 28.630300000000009 13.064845000000021 25.095173395445137 264.69673121881715 301.30335064827165 3.1061469601250571 2.0350490714406453 303.06288673643229 17.064393939393941 29.332660000000008
decision_type=2 2 2 2 2 2 2 2 2 2 2 2 2 2 2 2 2 2 2 2 2 2 2 2 2 1 2 2 2 2 2 2 2 2 2 2 2 2 2 2 2 2 2 2 2 2 2
left_child=1 4 6 -4 24 16 8 17 13 -8 38 25 23 18 27 32 42 -5 -2 31 -15 -18 40 -10 -1 29 35 28 -13 -7 -27 37 33 -16 -32 -21 -37 -12 -6 46 -22 -39 43 -3 -33 -26 -28
right_child=2 5 3 7 10 11 9 -9 12 -11 19 14 -14 20 15 -17 21 -19 -20 26 22 -23 -24 -25 45 30 39 -29 -30 -31 34 44 -34 -35 -36 36 -38 41 -40 -41 -42 -43 -44 -45 -46 -47 -48
leaf_value=-0.20772147225312637 -0.031049729098064062 -0.063727057304923521 0.14963039640251549 0.18796810720376572 -0.15501817097148873 -0.017792716877509406 0.23758874890858375 0.39540804462562201 0.1298305328710857 0.1195836349529889 -0.13438254036872799 0.045702071497402498 0.19106625710398026 0.11566812135051922 0.02795241829050665 0.085447176845940581 0.023528681694516017 0.29650419084907736 0.055940402025379178 -0.017978296920898924 0.052982759051547271 -0.05733178077426751 0.010941256611097495 0.057876136428984898 -0.1610758530314875 -0.074531205641968287 -0.11197996388442524 -0.034670196145929845 -0.020816976663269395 0.042784991477915042 -0.039241428927383422 -0.090321019806075611 0.047290686171160168 -0.024272926663956234 0.011024300282216079 -0.090808836697971476 -0.041280405196893959 -0.11029092435531362 -0.10279793322676187 -0.056700725246034353 0.099962595655495631 -0.064684672125204512 -0.051783315303171255 -0.10546932719937689 -0.047845673969613506 -0.11567952158652393 -0.075028833049935656
leaf_weight=92 46 62 81 49 96 69 50 62 79 75 101 73 48 84 71 89 50 66 61 58 52 59 55 57 150 50 72 68 66 48 82 51 86 50 48 48 83 65 57 59 58 48 52 71 46 51 47
leaf_count=92 46 62 81 49 96 69 50 62 79 75 101 73 48 84 71 89 50 66 61 58 52 59 55 57 150 50 72 68 66 48 82 51 86 50 48 48 83 65 57 59 58 48 52 71 46 51 47
internal_value=-0.00120787 -0.0621218 0.144981 0.259693 -0.113321 -0.00940299 0.0998118 0.307758 0.0830081 0.169876 -0.0929526 0.0081752 0.12635 0.0600055 0.0243688 0.0426924 -0.0569656 0.254381 0.0186464 -0.0825824 0.0774736 -0.020475 0.0568361 0.100995 -0.170036 -0.0192235 -0.0666008 -0.00198673 0.014262 0.00678453 -0.0345016 -0.100876 0.0236429 0.00631272 -0.0207858 -0.047837 -0.0605625 -0.113329 -0.137194 -0.0857419 0.0791471 -0.0924334 -0.0779955 -0.087288 -0.0716048 -0.150852 -0.0989202
internal_weight=3141 2218 923 258 1124 1094 665 177 540 125 831 800 184 356 503 296 294 115 107 678 249 109 165 136 293 297 367 207 139 117 180 311 207 121 130 189 131 214 153 178 110 113 185 133 97 201 119
internal_count=3141 2218 923 258 1124 1094 665 177 540 125 831 800 184 356 503 296 294 115 107 678 249 109 165 136 293 297 367 207 139 117 180 311 207 121 130 189 131 214 153 178 110 113 185 133 97 201 119
cat_boundaries=0 1
cat_threshold=201300
is_linear=0
shrinkage=0.0138767


Tree=18
num_leaves=50
num_cat=0
split_feature=23 23 23 39 27 39 35 1 23 36 0 18 23 0 3 4 11 32 6 11 34 14 35 3 27 35 23 24 0 7 27 36 32 36 32 39 9 23 11 40 4 7 9 11 7 34 9 37 26
split_gain=141280 25669.7 23370.7 7421.68 7268.1 4189.2 3286.97 3282.76 2592.06 1668.38 1511.19 1483.72 1711.68 1470.05 1232.78 1128.6 1076.22 1033.22 980.167 915.57 1382.22 1152.3 1459 845.271 768.93 690.364 685.989 630.476 690.519 611.623 746.455 608.898 518.24 469.9 686.533 466.823 466.58 305.147 485.674 300.23 299.549 275.363 238.636 179.235 174.227 146.642 126.765 119.767 118.579
threshold=30.468297101449277 46.446557971014499 18.020833333333339 29.496617421143142 44.539855072463773 23.219148316759771 18.320393374741204 0.5445000000000001 37.833333333333336 109.02513628969378 6.8619044619297274 20.579558826946734 55.479166666666679 8.6828071693645068 5.4281152416651129e-05 26.439990000000027 308.50000000000006 79.850543478260889 1014.4343750000002 295.50000000000006 107.53359683794467 1.0000000180025095e-35 29.428700828157357 0.00041180972300099698 38.585015527950311 33.683812111801245 13.187500000000002 69.787137681159436 5.4878278659805888 1685.3799000000001 26.766433747412012 74.707233436853031 93.729166666666671 87.798783643892349 115.2554347826087 11.268234087915603 329.51427622669854 21.802083333333339 302.50000000000006 86.483264629655679 28.083740000000038 1423.7413500000002 293.27647222509262 69.500000000000014 1038.2632500000002 60.042572463768117 306.07162071167352 0.2031071428571429 64.5763888888889
decision_type=2 2 2 2 2 2 2 2 2 2 2 2 2 2 2 2 2 2 2 2 2 2 2 2 2 2 2 2 2 2 2 2 2 2 2 2 2 2 2 2 2 2 2 2 2 2 2 2 2
left_child=2 3 6 15 10 23 35 8 13 27 17 12 -6 25 -7 -2 -17 -3 19 20 21 22 -16 36 -11 32 44 -10 -29 30 -21 41 -5 -27 -35 -1 37 40 -39 -33 -4 42 -28 -22 -8 -42 -20 -40 -31
right_child=1 4 5 7 11 14 26 -9 9 24 -12 -13 -14 -15 18 16 -18 -19 46 29 43 -23 -24 -25 -26 33 31 28 -30 48 -32 39 -34 34 -36 -37 -38 38 47 -41 45 -43 -44 -45 -46 -47 -48 -49 -50
leaf_value=-0.21477845199683809 -0.050148699289926539 0.054383031671643496 -0.1252906239512199 0.040445566044933337 0.21553600576626075 -0.071415430675491415 -0.10767584618236781 0.20526499130539627 0.12700323058242 0.11057047989721595 0.20494616062115659 0.20318613017040246 0.34520417868543829 0.106199373941579 0.0063427017309387107 0.055501377231703716 -0.02264395294409836 0.14357723216494081 -0.070758680827359935 -0.042331376222090357 -0.043759521846822483 -0.020167139976606078 0.092863418479755724 -0.024579197535064434 0.19180307680805037 0.021183571454836236 -0.12168909398935425 0.044163858165356819 0.11038433361736201 -0.069887774947522532 0.022181243997986398 -0.054468436307500631 -0.021913029838125139 0.11249144319012601 0.039069190970399154 -0.16194086799453905 -0.037606146864134112 -0.041653391879311372 -0.070114040645603032 -0.098516468066701821 -0.10054966138791196 -0.14406066295313497 -0.071749548863793977 -0.010173740644804372 -0.15551980506299676 -0.059819998575321574 -0.035141523702492614 -0.11068916633061819 -0.035802081078999681
leaf_weight=75 64 47 69 52 47 75 46 46 56 55 48 68 79 87 73 72 61 63 46 62 62 60 76 62 61 48 57 88 49 46 73 67 47 48 55 197 47 70 48 75 48 75 47 62 101 49 46 46 49
leaf_count=75 64 47 69 52 47 75 46 46 56 55 48 68 79 87 73 72 61 63 46 62 62 60 76 62 61 48 57 88 49 46 73 67 47 48 55 197 47 70 48 75 48 75 47 62 101 49 46 46 49
internal_value=-0.00318439 0.111971 -0.0780855 0.0719638 0.212005 -0.0393377 -0.139016 0.0933005 0.0847 0.11379 0.139138 0.269263 0.301081 0.0574947 -0.0188713 -0.00316599 0.0198481 0.107177 -0.0126478 -0.00569503 0.00899807 0.0306695 0.0511479 -0.0731204 0.155895 0.0398116 -0.115667 0.0870992 0.0691411 -0.0268669 -0.00762446 -0.102662 0.0109801 0.0583022 0.0748317 -0.178016 -0.0809223 -0.0868157 -0.071261 -0.0788178 -0.101114 -0.120459 -0.100963 -0.0274196 -0.142249 -0.0816588 -0.0541244 -0.0919296 -0.0534539
internal_weight=3150 1241 1909 889 352 1169 740 692 646 309 158 194 126 337 730 197 133 110 655 563 333 209 149 439 116 250 468 193 137 230 135 321 99 151 103 272 377 330 164 142 166 179 104 124 147 97 92 94 95
internal_count=3150 1241 1909 889 352 1169 740 692 646 309 158 194 126 337 730 197 133 110 655 563 333 209 149 439 116 250 468 193 137 230 135 321 99 151 103 272 377 330 164 142 166 179 104 124 147 97 92 94 95
is_linear=0
shrinkage=0.0138767


Tree=19
num_leaves=51
num_cat=2
split_feature=23 23 23 39 27 39 1 35 23 36 0 3 0 43 4 12 32 5 42 27 3 4 42 13 32 23 30 37 3 23 36 22 34 39 32 34 41 21 5 24 40 21 42 23 41 21 17 24 30 15
split_gain=137506 24983.8 22737 7224.35 7071.92 4083.35 3196.74 3195.47 2523.21 1623.89 1471.59 1453.94 1430.03 1321.39 1098.39 1022.02 1005.41 854.458 846.615 748.246 728.918 854.935 692.504 806.001 667.442 667.228 665.683 634.886 632.961 612.357 592.782 583.387 472.996 455.459 433.979 449.003 486.306 378.253 371.415 358.438 292.115 267.631 214.177 204.133 190.7 168.906 125.728 66.7914 64.7476 59.6033
threshold=30.468297101449277 46.446557971014499 18.020833333333339 29.496617421143142 44.539855072463773 24.138893751871326 0.5445000000000001 18.320393374741204 37.833333333333336 109.02513628969378 6.8619044619297274 0.00035806313916201675 8.6828071693645068 0 26.439990000000027 10.500000000000002 79.850543478260889 17.360625000000031 24.407410000000038 38.585015527950311 6.8073163883834248e-05 27.371535000000026 35.927495000000036 1 110.10416666666667 13.187500000000002 4.2960868397324612 0.28425000000000006 0.00026270799083578071 27.170289855072468 74.707233436853031 1.3351943618135309 73.085144927536234 11.268234087915603 101.34057971014494 55.717803030303038 4.1571826288053257 7.7260284780920925 12.315815000000017 135.63068181818184 86.483264629655679 7.2617455447446781 29.194753333333363 21.802083333333339 3.8720139453099214 6.9462673211024066 140.50000000000003 52.000000000000007 2.2740005707180182 24.191343800000002
decision_type=2 2 2 2 2 2 2 2 2 2 2 2 2 1 2 2 2 2 2 2 2 2 2 1 2 2 2 2 2 2 2 2 2 2 2 2 2 2 2 2 2 2 2 2 2 2 2 2 2 2
left_child=2 3 7 14 10 18 8 33 12 26 16 27 22 17 -2 -16 -3 28 -4 -11 -15 29 23 24 -5 45 -10 -6 31 38 41 37 -23 -1 35 43 -37 -7 -22 -13 -32 49 -28 47 -33 -9 -38 -20 -45 -27
right_child=1 4 5 6 11 13 -8 25 9 19 -12 39 -14 20 15 -17 -18 -19 34 -21 21 32 -24 -25 -26 30 42 -29 -30 -31 40 44 -34 -35 -36 36 46 -39 -40 -41 -42 -43 -44 48 -46 -47 -48 -49 -50 -51
leaf_value=-0.21187745344902453 -0.04947443273171568 0.053659961839319939 -0.015812013752044943 0.076604171928483622 0.16558033573769049 -0.0031951309600719334 0.20253829560345751 -0.10624550432072198 0.056205233175747937 0.10909134373733582 0.20221884449112687 0.25235633178886518 0.10475965467060874 -0.04685900407452244 0.055362950079908158 -0.020645898576128269 0.14164773789949556 0.017909472682144927 -0.080740322829950403 0.18922815262464193 -0.060384848818115788 0.060247629905429138 0.084096745017887983 -0.0066037480280221232 0.0093192278442839303 -0.11517760543331275 0.083076497112329825 0.25679668471900519 -0.0045659166409976124 0.025853040744985008 -0.053735068199417715 -0.051970352489568508 0.01148542107298847 -0.15971684341405162 -0.1104065304516211 -0.026144528274402116 -0.089123265565574109 -0.057894197271886078 -0.0051967162499647083 0.3573990494454708 -0.09718581281298358 -0.14211484511291561 0.13276711418018647 -0.049017468625157573 -0.091954556843811971 -0.15340470174502799 -0.053015813231660332 -0.11550967631718675 -0.0780049318384268 -0.080868812639255092
leaf_weight=75 64 47 54 70 47 50 46 46 90 55 48 46 87 46 70 63 63 46 59 61 47 69 51 81 48 51 51 55 57 49 67 50 86 197 61 84 50 46 46 46 75 75 52 46 72 101 53 46 52 53
leaf_count=75 64 47 54 70 47 50 46 46 90 55 48 46 87 46 70 63 63 46 59 61 47 69 51 81 48 51 51 55 57 49 67 50 86 197 61 84 50 46 46 46 75 75 52 46 72 101 53 46 52 53
internal_value=-0.00313792 0.110469 -0.0770317 0.0709996 0.209158 -0.0388127 0.0920507 -0.137131 0.0835637 0.112264 0.137279 0.265638 0.0567221 -0.016108 -0.00312453 0.0195794 0.10574 -0.0356618 -0.0684765 0.153805 0.0032298 0.0113699 0.039281 0.0270454 0.0498759 -0.114108 0.0859319 0.218879 -0.0459826 -0.0131334 -0.101281 -0.0566602 0.0337073 -0.175585 -0.0746781 -0.0685365 -0.0518961 -0.0300862 -0.0338076 0.311552 -0.0777545 -0.118841 0.110284 -0.0831838 -0.0767129 -0.140326 -0.0719594 -0.097912 -0.065701 -0.0996137
internal_weight=3150 1241 1909 889 352 1169 692 740 646 309 158 194 337 664 197 133 110 321 505 116 343 297 250 199 118 468 193 102 275 142 321 218 155 272 451 390 187 96 93 92 142 179 103 203 122 147 103 105 98 104
internal_count=3150 1241 1909 889 352 1169 692 740 646 309 158 194 337 664 197 133 110 321 505 116 343 297 250 199 118 468 193 102 275 142 321 218 155 272 451 390 187 96 93 92 142 179 103 203 122 147 103 105 98 104
cat_boundaries=0 1 2
cat_threshold=854299 2
is_linear=0
shrinkage=0.0138767


Tree=20
num_leaves=53
num_cat=1
split_feature=23 23 23 39 27 39 39 1 23 36 18 23 0 43 0 4 11 32 24 35 8 36 31 3 3 35 3 6 31 27 30 23 5 23 42 36 23 29 3 1 9 41 23 42 41 3 36 4 9 11 0 7
split_gain=133840 24324.7 22129.3 7032.01 6885.64 3452.01 3348.64 3113.05 2458.59 1628.26 1443.31 1662.91 1433.02 1428.62 1400.77 1069.02 1020.55 978.339 947.665 903.109 884.425 877.778 1043.56 1111.21 842.015 775.065 743.555 866.27 694.365 670.444 640.738 614.825 605.071 488.631 471.232 466.858 425.744 419.965 367.107 362.26 524.61 304.816 283.578 272.709 272.429 229.22 204.126 202.592 185.274 157.245 126.791 20.026
threshold=30.468297101449277 46.446557971014499 18.425724637681164 29.496617421143142 44.539855072463773 23.219148316759771 14.766992105083625 0.5445000000000001 39.318840579710148 105.80596532091099 20.579558826946734 55.479166666666679 6.8619044619297274 0 8.6828071693645068 26.439990000000027 308.50000000000006 79.850543478260889 70.701992753623202 21.918001835121405 4.3961703441399536 68.504699557688696 34.979166666666679 0.00020351734624862592 0.00041180972300099698 33.683812111801245 0.00026818892104512167 1012.5581250000001 36.187500000000007 38.585015527950311 4.4818491766666275 22.770833333333339 10.390040000000029 15.914855072463769 35.089406666666697 95.384497929606638 13.361413043478263 0.35500000000000004 0.00030413829480497348 0.22525000000000003 301.6646107014505 4.4678889237440709 10.702898550724639 30.600960000000018 4.2343388015892431 0.00010629794482090033 68.994982825145883 26.844555000000046 294.94411026220996 302.50000000000006 2.186114788890309 1112.6678500000003
decision_type=2 2 2 2 2 2 2 2 2 2 2 2 2 1 2 2 2 2 2 2 2 2 2 2 2 2 2 2 2 2 2 2 2 2 2 2 2 2 2 2 2 2 2 2 2 2 2 2 2 2 2 2
left_child=2 3 6 15 12 24 42 8 14 18 11 -6 17 21 25 -2 -17 -3 -10 33 -16 44 23 41 37 35 31 -28 32 -11 -20 -15 -27 51 43 -5 -21 39 46 40 49 -23 -1 47 -7 -42 -38 -33 -35 -4 -48 -8
right_child=1 4 5 7 10 13 19 -9 9 29 -12 -13 -14 26 20 16 -18 -19 30 36 -22 22 -24 -25 -26 28 27 -29 -30 -31 -32 34 -34 48 -36 -37 38 -39 -40 -41 45 -43 -44 -45 -46 -47 50 -49 -50 -51 -52 -53
leaf_value=-0.20210526512922816 -0.048809231460438064 0.052946505108685434 -0.075259446047625939 0.039185247621507283 0.20942774064923766 -0.05246305182005627 -0.12284666467810375 0.19984782170082704 0.1339342344263604 0.11183230719831123 0.19724243031962532 0.33671667231918084 0.19952782201334893 -0.080045960845788133 0.14443866518874005 0.054034087840070341 -0.022062793094375945 0.13974417260321073 0.018021766453607941 -0.12382702184660739 0.057315189891454343 0.028172237798865483 -0.03438055140780135 0.082110120476711984 -0.017350690320113656 0.05067948107788136 0.02897261971077238 -0.045005174718467537 0.032992425117805001 0.19086097458011417 0.090763430202461831 -0.05167525611285026 0.12421827190157558 -0.12533734698963461 0.0022186124162517314 -0.016295917706421584 -0.12141174138851746 -0.11700801521365227 -0.050036039154835725 -0.04393444970453713 -0.028465238156128975 -0.017398674660279324 -0.15458554991902856 -0.0742472010634639 -0.0069727143507576543 -0.073783813293577208 -0.062221410482754987 -0.010673117283810261 -0.077555064440248803 -0.11481631496744556 -0.098259169207434965 -0.15917881980563944
leaf_weight=107 64 47 57 69 47 49 53 46 46 52 68 79 48 83 52 72 61 63 47 89 46 65 52 61 55 48 61 57 86 59 47 48 46 49 50 48 50 46 55 87 46 47 104 47 52 47 58 46 48 68 55 117
leaf_count=107 64 47 57 69 47 49 53 46 46 52 68 79 48 83 52 72 61 63 47 89 46 65 52 61 55 48 61 57 86 59 47 48 46 49 50 48 50 46 55 87 46 47 104 47 52 47 58 46 48 68 55 117
internal_value=-0.0030898 0.108993 -0.075992 0.0700473 0.206371 -0.0363967 -0.132441 0.0908163 0.0824412 0.116484 0.262102 0.293369 0.135445 -0.0180163 0.060314 -0.00308329 0.0193149 0.104323 0.0828963 -0.114226 0.105577 0.00382783 0.0191707 0.0354914 -0.0686433 0.0447508 -0.0353133 -0.00690654 0.0626976 0.156557 0.0555733 -0.0486775 0.0885705 -0.133802 -0.0343309 0.0165207 -0.0964201 -0.0765281 -0.0841722 -0.0696757 -0.079435 0.00906461 -0.180407 -0.0471497 -0.0296646 -0.0524854 -0.0949144 -0.0322854 -0.103808 -0.0982997 -0.0812174 -0.149463
internal_weight=3150 1241 1909 889 352 1124 785 692 646 251 194 126 158 718 395 197 133 110 140 574 98 326 225 173 406 297 392 118 180 111 94 274 94 267 191 117 307 351 218 305 218 112 211 141 101 93 163 94 97 125 113 170
internal_count=3150 1241 1909 889 352 1124 785 692 646 251 194 126 158 718 395 197 133 110 140 574 98 326 225 173 406 297 392 118 180 111 94 274 94 267 191 117 307 351 218 305 218 112 211 141 101 93 163 94 97 125 113 170
cat_boundaries=0 1
cat_threshold=177892
is_linear=0
shrinkage=0.0138767


Tree=21
num_leaves=54
num_cat=1
split_feature=23 23 39 23 39 3 39 30 39 41 23 23 3 1 5 27 11 31 23 31 8 39 3 9 43 3 3 6 37 4 23 9 10 40 31 9 42 4 23 41 6 3 39 34 40 8 24 37 0 1 41 2 23
split_gain=140638 29630.3 23849.4 5924.8 5657.67 5250.51 4571.91 4326.78 4304.12 2436.02 2208.85 2038.47 1677.11 1670.85 1407.31 1288.02 1424.68 1261.86 1159.95 1124.36 1098.01 1092.62 900.484 884.486 883.548 871.855 864.857 789.685 765.708 700.616 689.696 679.805 605.67 585.186 570.312 566.022 562.039 636.529 488.429 440.091 430.991 530.567 393.716 356.893 311.05 291.363 280.664 272.602 250.662 217.42 178.781 62.0319 36.919
threshold=33.957427536231897 18.553442028985511 44.273542855929442 50.229166666666679 25.761166055336993 0.00055447945838679551 15.02364917595124 4.1117220237220282 32.917982361972925 5.3055227143705208 62.977355072463773 30.468297101449277 0.00010629794482090033 0.17875000000000002 16.417015000000024 20.676889233954451 303.50000000000006 32.085144927536241 44.89204545454546 22.829710144927539 4.0754322805543106 38.60966402130537 0.00023202555939287072 273.10665070714344 0 0.00017757933832309117 0.00012337620910244922 1008.0772000000001 0.17569047619047623 32.209740000000046 14.804924242424244 293.55604454092384 32.681591496878852 63.026441140882319 19.638586956521742 292.91640117247618 31.281813333333364 27.913875000000022 6.9365942028985517 4.8492060728902011 1002.0468750000001 9.8086510920395817e-05 21.926703642918152 79.255434782608702 83.71703349011328 4.8136508221527015 52.979166666666679 0.22603571428571431 4.527766492148662 0.17975000000000002 5.0424542946486213 0.1813987602986539 12.340579710144929
decision_type=2 2 2 2 2 2 2 2 2 2 2 2 2 2 2 2 2 2 2 2 2 2 2 2 1 2 2 2 2 2 2 2 2 2 2 2 2 2 2 2 2 2 2 2 2 2 2 2 2 2 2 2 2
left_child=1 6 5 48 13 8 38 -5 9 22 -9 19 -13 33 17 47 34 -10 26 25 -14 -7 28 42 36 -6 -19 -22 -2 -16 44 -18 -28 35 -17 -3 37 -21 -1 -35 41 -32 -8 46 50 -42 -26 -15 -4 -45 -25 -49 -40
right_child=2 4 3 7 11 21 23 10 14 -11 -12 12 20 15 29 16 31 18 -20 24 27 -23 -24 30 43 -27 32 -29 -30 -31 40 -33 -34 39 -36 -37 -38 -39 52 -41 45 -43 -44 49 -46 -47 -48 51 -50 -51 -52 -53 -54
leaf_value=-0.22393315857175794 0.065573043808180853 -0.084003616413920804 0.12022678474973311 0.16510525958020536 -0.019670539025916495 0.23978297721819034 -0.14923726876018739 0.26801088506868825 0.18655541592401667 -0.059140660927910052 0.40590803556395949 -0.017286619554607668 0.10963647365202572 -0.039559559544682335 0.020421688990523931 0.057568369080874877 -0.079823607678990036 0.031262583207857506 0.14663592626936145 -0.0089708281422768606 0.071019266557785982 0.13164891511872015 0.10177855677291869 -0.113005972288016 -0.034694072570473883 0.058310173740628468 0.13435639264623561 -0.0013458021618486539 -0.0083441786170666866 0.090856862817032674 -0.081852236805817755 -0.014458981431960607 0.065616365322150288 -0.075085656023255232 -0.0053556974323375351 -0.024318309214295335 -0.031350193553735951 0.050634329590580576 -0.17641193763040278 -0.12895927456175826 -0.062370785980849892 -0.01719177309803737 -0.095150350567015846 -0.04568753515981424 -0.14441741377104514 -0.11286007494818472 -0.082311526347356875 -0.095754133593147453 0.18068110194817896 -0.0058360645773732284 -0.070504405713968377 -0.063191026966562702 -0.14026562659030203
leaf_weight=54 52 66 48 46 46 47 115 76 48 48 59 81 54 55 50 47 58 49 89 91 54 46 47 72 47 64 58 60 53 62 51 65 55 83 63 60 84 53 114 61 48 48 55 51 56 67 60 46 55 54 48 46 78
leaf_count=54 52 66 48 46 46 47 115 76 48 48 59 81 54 55 50 47 58 49 89 91 54 46 47 72 47 64 58 60 53 62 51 65 55 83 63 60 84 53 114 61 48 48 55 51 56 67 60 46 55 54 48 46 78
internal_value=-0.000351543 -0.0608368 0.137538 0.244598 -0.0232523 0.0937603 -0.128172 0.293021 0.0784729 0.0253186 0.333468 0.00149498 0.0342771 -0.053584 0.10408 -0.0345225 -0.0139943 0.119927 0.105769 -0.0134155 0.0590569 0.190314 0.052434 -0.105525 -0.0233285 0.0259217 0.0817519 0.0335675 0.0288018 0.0603614 -0.0928698 -0.0460997 0.102682 -0.0799421 0.0220768 -0.0564412 -0.00310334 0.0133587 -0.178419 -0.099411 -0.0746271 -0.0515051 -0.133093 -0.042694 -0.113925 -0.0932647 -0.0624583 -0.0664077 0.155425 -0.0257137 -0.0974915 -0.0812259 -0.163376
internal_weight=3243 2255 988 284 1449 704 806 181 611 200 135 799 249 650 411 380 233 299 251 550 168 93 152 560 440 110 162 114 105 112 390 123 113 270 110 126 228 144 246 144 214 99 170 212 176 115 107 147 103 105 120 92 192
internal_count=3243 2255 988 284 1449 704 806 181 611 200 135 799 249 650 411 380 233 299 251 550 168 93 152 560 440 110 162 114 105 112 390 123 113 270 110 126 228 144 246 144 214 99 170 212 176 115 107 147 103 105 120 92 192
cat_boundaries=0 1
cat_threshold=247589
is_linear=0
shrinkage=0.0138767


Tree=22
num_leaves=55
num_cat=1
split_feature=23 23 39 23 39 3 39 30 39 41 23 1 1 23 5 27 11 0 39 29 3 43 27 42 2 6 23 1 27 11 26 2 29 36 23 2 23 41 33 23 3 6 35 34 29 3 42 0 25 29 38 42 23 2
split_gain=136888 28835.4 23213.1 5765.48 5506.97 5112.79 4448.19 4209.26 4189.03 2371.6 2151.35 2000.57 1625.86 1543.15 1369.69 1254.12 1386.85 1221.28 1063.67 951.612 876.73 787.937 797.027 787.232 770.735 716.131 711.885 685.569 606.705 595.102 583.38 582.429 567.134 525.264 509.388 483.883 476.505 416.472 369.248 331.245 317.222 337.864 401.926 309.908 293.481 257.069 274.496 243.812 241.719 158.513 129.151 93.6671 35.5864 34.6894
