tree
version=v4
num_class=1
num_tree_per_iteration=1
label_index=0
max_feature_idx=26
objective=regression
feature_names=NO2_ugm3 AOD AOD_corrected AOD_BLH_ratio T2M_C D2M_C SP_hPa BLH WindSpeed WindDirection RH DayOfYear Month Season IsWeekend Latitude Longitude Elevation_m Dist_Coast_km Dist_Corniche_km Dist_E11_km Wind_U Wind_V VentilationIndex StabilityIndex UrbanDensity_5km DRP_PM10_lag1
feature_infos=[0:188.2073855542541] [0.013000000000000001:3.9239999999999999] [0.0041046135023892144:2.9170681570735297] [4.373831512617013e-06:0.0064656630724142213] [16.16876000000002:47.712300000000027] [-9.9898399999999583:30.803860000000043] [955.51750000000004:1023.0344] [70.183716000000004:4736.2979999999998] [0.13912466364865983:13.64206845937173] [0.014630557607491955:359.83268863204188] [4.712209418175533:89.560601656326455] [1:365] [1:12] -1:4:2:1:3 [0:1] [23.095644:24.488983000000001] [52.754778000000002:55.765666600000003] [0:290] [1.673108841894088:154.11319660547366] [2.5950181175337921:171.08231683874041] [8.0031204290573026:125.85218011892287] [-12.473679000000001:9.2166289999999993] [-6.5852510000000004:11.011856000000003] [0.0014953134889941785:1.6954625061842974] [1.7941900000000146:49.331050000000005] [0:0.46661621486041133] [0:670.73560835066064]
tree_sizes=6879 7087 7101 7116 7106 7109 7105 7096 7100 7093 7091 7082 7111 7111 7138 7138 7112 7110 7105 7113 7082 7094 7118 7094 7095 7085 7097 7092 7084 7094 7140 7126 7127 7111 7123 7133 7124 7116 7112 7136 7140 7132 7142 7170 7149 7116 7117 7129 7090 7094 7101 7133 7120 7118 7109 7125 7119 7116 7123 7138 7142 7148 7114 7147 7163 7151 7148 7150 7151 7157 7156 7151 7141 7168 7156 7134 7165 7131 7148 7146 7153 7144 7128 7145 7149 7152 7144 7167 7168 7158 7141 7126 7120 7137 7138 7148 7118 7137 7128 7165 7150 7156 7167 7151 7160 7154 7168 7135 7149 7117 7155 7181 7155 7150 7190 7181 7186 7135 7162 7169 7171 7172 7161 7142 7138 7174 7216 7208 7208 7148 7131 7153 7160 7164 7143 7152 7177 7231 7204 7227 7235 7165 7165 7185 7206 7201 7172 7173 7194 7191 7159 7156 7175 7192 7186 7162 7173 7171 7195 7223 7214 7187 7171 7187 7175 7183 7171 7165 7162 7178 7186 7199 7221 7187 7155 7167 7160 7218 7196 7224 7202 7203 7202 7185 7182 7160 7201 7216 7198 7224 7209 7199 7189 7170 7186 7203 7210 7195 7210 7192 7208 7211 7227 7230 7226 7212 7200 7244 7242 7227 7221 7211 7234 7183 7162 7199 7216 7227 7218 7174 7170 7156 7227 7229 7293 7243 7242 7262 7250 7234 7233 7206 7246 7233 7200 7207 7213 7229 7203 7214 7223 7213 7206 7265 7274 7216 7234 7223 7223 7214 7221 7221 7267 7267 7243 7235 7225 7210 7186 7196 7176 7260 7247 7274 7183 7183 7216 7240 7239 7258 7246 7261 7253 7267 7276 7257 7201 7204 7204 7216 7222 7245 7153 7153 7235 7249 7237 7247 7225 7223 7238 7240 7239 7243 7262 7295 7260 7245 7239 7229 7318 7292 7306 6706 6780 6714 7221 6648 6663 7316 7320 7310 7252 7267 7249 7259 7265 7270 7273 7252 7267 7272 7261 7268 7279 7285 7270 7256 7243 7237 7274 7273 7244 7193 7184 7218 7293 7288 7276 7284 7280 7277 6581 6580 6664 7210 7212 7221 5932 5592 5318 6104 6917 6255 7235 7226 7216 6947 7287 6946 7208 7237 7213 7286 7275 7280 7266 7274 7271 7275 7271 7283 7225 7223 7213 4604 2785 4571 7000 6921 7002 7299 7257 7289 3541 3464 3457 4105 4108 4111 7230 7229 7215 7266 7252 7265 7273 7260 7290 7256 7268 7288 7257 7261 7261 7251 7229 6175 7269 7277 7276 7234 7219 7223 7272 7282 7254 7226 7303 7214 4738 4891 4729 7268 7250 7223 7203 7221 7201 3536 3545 3382 7227 7217 7228 6797 6796 7258 7293 7286 7270 4372 4386 4382 7267 7281 7274 6074 6082 6072 4557 4546 5818 7277 7266 7269 7217 7215 5599 6443 6513 6515 7230 7231 7258 5379 7272 7265 3468 3473 3554 5692 5685 5204 7245 7256 7251 2482 2482 2483 7265 7243 5286 5515 5243 6122 7206 7133 7281 7273 7266 7299 7306 7275 7266 7262 7259 7232 3196 3283

Tree=0
num_leaves=84
num_cat=0
split_feature=2 11 1 2 11 11 11 16 16 20 11 11 2 10 16 19 21 11 16 1 20 9 8 20 11 4 4 20 15 26 6 18 18 11 11 11 25 16 15 11 15 15 19 8 17 19 19 15 11 26 11 11 4 19 2 15 11 21 4 1 3 2 16 4 21 9 15 16 21 8 15 7 11 25 0 0 18 22 19 15 2 11 15
split_gain=8.66963e+06 3.22368e+06 2.12751e+06 1.34921e+06 923297 658431 552098 550261 356947 338624 333919 641167 301054 311867 287729 253292 209451 275103 198114 175716 167897 154905 153871 150843 145308 141439 139543 137522 286532 130385 124166 120928 128962 109344 210126 103666 98328.9 105797 446761 96828.8 93113.8 88745.2 88261.2 86832.1 85200.9 79347.5 76202.8 73140.1 70358.3 121924 89412.3 286377 110143 69070.5 65360.7 90215.8 64176 60862.9 60826.1 56362.4 55769.5 54975.2 54931.5 58151.1 54862.7 54640.9 53130.9 51224.2 50978.4 56348.4 50129.7 48213.4 47633 46698.7 45366.6 44908.3 42524.6 41968.9 41221.5 40155.6 40012.7 39004.8 38997.5
threshold=0.4123660210249474 279.50000000000006 0.21175000000000002 0.59434584322003114 120.50000000000001 129.50000000000003 242.50000000000003 54.366477750000008 54.366477750000008 22.633535304420125 145.50000000000003 122.50000000000001 0.89882512403574033 23.679772866741356 54.436050365000007 51.187379123826325 5.9952012000000012 24.500000000000004 53.724508700000008 0.25525000000000003 16.642885108868789 305.01664806631908 9.1338520992815528 22.633535304420125 139.50000000000003 28.719265000000011 38.056910000000023 27.331365755602558 24.303817600000006 110.92605094113112 995.97157500000014 41.849922424932721 88.40864325988538 122.50000000000001 141.50000000000003 131.50000000000003 0.39544039701388062 54.612334000000011 24.334350000000004 299.50000000000006 23.701353700000002 24.303817600000006 126.42653954836904 5.0774649948852337 88.210526315789494 33.958709898969147 168.66531569626582 24.411757650000002 33.500000000000007 96.743308948145526 51.500000000000007 55.500000000000007 27.182370000000024 168.66531569626582 0.32586905175900488 24.481563840000003 107.50000000000001 -3.9321288999999995 39.622460000000054 0.34475000000000006 0.0011771558817682919 0.098764590601987626 54.612334000000011 42.49916500000004 -2.2128829999999993 272.11255019836193 24.303817600000006 54.366477750000008 1.7105636499999999 7.092465922893763 24.473993290000003 2595.8924500000007 257.50000000000006 0.002589588747219615 4.6107458875024667 3.0846770070575542 17.905896076637021 1.5053176999999993 126.42653954836904 23.792940650000002 0.077275159374648669 39.500000000000007 24.334350000000004
decision_type=2 2 2 2 2 2 2 2 2 2 2 2 2 2 2 2 2 2 2 2 2 2 2 2 2 2 2 2 2 2 2 2 2 2 2 2 2 2 2 2 2 2 2 2 2 2 2 2 2 2 2 2 2 2 2 2 2 2 2 2 2 2 2 2 2 2 2 2 2 2 2 2 2 2 2 2 2 2 2 2 2 2 2
left_child=1 2 5 14 16 15 7 22 44 20 11 -5 18 -14 30 25 17 68 53 -9 -3 -13 46 26 35 64 -8 28 -26 42 40 48 -33 -16 -35 -21 37 38 -10 67 -2 -28 -17 -42 74 -20 59 62 49 -19 81 -52 60 -12 55 58 82 -51 -29 -6 -53 -44 -36 -64 -1 -47 -27 -11 69 -4 78 -56 -32 -61 -7 -31 -30 -39 -41 -48 -38 -50 -54
right_child=3 9 4 10 6 8 23 19 36 39 12 21 13 -15 33 29 -18 31 45 24 -22 -23 -24 -25 27 66 41 54 76 75 72 32 -34 34 47 -37 80 77 -40 70 43 -43 61 -45 -46 65 79 -49 50 57 51 52 56 -55 71 -57 -58 -59 -60 73 -62 -63 63 -65 -66 -67 -68 -69 -70 -71 -72 -73 -74 -75 -76 -77 -78 -79 -80 -81 -82 -83 -84
leaf_value=112.03450274550353 112.74071571779287 111.98303620492365 111.87024971088056 113.55358834380874 112.2917023737559 112.50906634125772 112.46414765330036 112.88286996488661 113.90555237280314 111.82987168045491 112.73428806150955 114.9349903513056 115.34833868965238 113.78559400819331 113.01916325642492 111.68159376776119 113.4074430824968 112.38795764041203 114.37671925577082 113.40045025662383 112.42119716308666 116.13454481020301 113.46599730528658 112.42028276115875 114.42601007868062 112.93950884306483 113.70470504938258 112.55674657174394 113.5711827788702 112.11438599928901 112.71665274591429 111.94133235165491 112.46325502096748 114.5653746270381 113.89253180461672 114.35174479838746 112.11498700233379 112.72489811158513 112.59239592231172 111.59763635663251 112.98390902950877 112.91257287011122 111.8442162577533 113.77987085034771 112.00051303088271 114.15094880220605 112.58630110784964 112.92387431926832 112.52788649690284 113.63071537451707 113.80457818706442 112.09480853914984 112.64573842157495 113.49824900927003 113.07433028826775 113.47309423087295 112.30924328129939 112.86506111701948 113.01846689111949 112.96602324630726 112.69531593052105 112.0789173374197 113.0303966569537 113.72803837019185 112.49890468125926 113.49416205173797 112.41464436307632 112.11341594595378 112.4549676686281 112.41748268149117 111.90395542775961 113.73012296054637 112.14774984305191 112.47680653907777 112.10744466485407 112.57043979164749 113.13309926256021 112.41250720901864 111.767003035695 113.11870461702782 112.44219749236699 112.16464377375073 113.00167024459383
leaf_weight=310 65 355 187 47 149 109 87 205 49 201 37 39 40 42 68 283 34 49 44 40 232 31 33 432 42 37 32 69 50 108 83 112 236 31 51 34 86 89 274 345 45 78 356 43 313 31 41 36 78 31 31 100 116 39 35 48 55 36 136 48 33 291 41 36 47 59 189 208 39 36 272 37 33 90 77 51 123 307 695 51 198 121 86
leaf_count=310 65 355 187 47 149 109 87 205 49 201 37 39 40 42 68 283 34 49 44 40 232 31 33 432 42 37 32 69 50 108 83 112 236 31 51 34 86 89 274 345 45 78 356 43 313 31 41 36 78 31 31 100 116 39 35 48 55 36 136 48 33 291 41 36 47 59 189 208 39 36 272 37 33 90 77 51 123 307 695 51 198 121 86
internal_value=112.424 112.299 112.446 113.579 112.674 112.212 112.858 113.014 112.405 111.894 114.126 114.698 113.897 114.548 113.159 112.04 112.426 112.401 113.643 113.204 112.156 115.466 112.636 112.553 113.311 112.253 112.843 113.239 113.488 111.925 112.867 112.49 112.295 113.457 113.609 113.838 112.543 112.621 112.792 111.804 113.104 113.143 111.868 113.373 112.128 113.936 112.564 113.428 112.582 112.868 112.528 112.633 112.54 113.126 113.075 112.979 112.693 113.219 112.863 112.463 112.244 111.95 113.57 113.357 112.096 113.72 112.501 111.974 112.032 111.959 111.751 113.411 112.555 112.647 112.343 112.261 113.26 112.483 111.711 112.881 112.343 112.307 112.797
internal_weight=9663 8722 6414 941 3240 3174 1860 1231 1502 2308 409 117 292 82 532 1672 1380 1346 210 819 587 70 412 629 614 583 197 540 215 1089 269 1084 348 263 195 74 1003 719 323 1721 153 110 930 88 499 134 379 164 736 116 620 421 390 76 325 253 257 67 205 287 133 647 128 77 357 90 226 409 262 223 1312 72 116 138 186 159 173 396 1040 92 284 199 202
internal_count=9663 8722 6414 941 3240 3174 1860 1231 1502 2308 409 117 292 82 532 1672 1380 1346 210 819 587 70 412 629 614 583 197 540 215 1089 269 1084 348 263 195 74 1003 719 323 1721 153 110 930 88 499 134 379 164 736 116 620 421 390 76 325 253 257 67 205 287 133 647 128 77 357 90 226 409 262 223 1312 72 116 138 186 159 173 396 1040 92 284 199 202
is_linear=0
shrinkage=1


Tree=1
num_leaves=84
num_cat=0
split_feature=2 11 1 2 11 11 11 16 16 20 11 11 2 10 16 19 21 11 16 1 20 9 8 20 11 4 4 20 15 26 6 18 18 11 11 11 25 16 15 11 15 15 8 19 17 19 2 15 11 26 11 11 4 19 2 15 11 21 4 3 16 4 21 9 2 15 16 21 8 15 7 11 0 7 18 23 19 2 8 11 15 26 6
split_gain=8.4514e+06 3.14253e+06 2.07395e+06 1.31525e+06 900056 641856 538200 536410 347962 330100 325513 625027 293476 304016 280486 246916 204179 268178 193127 171292 163671 151006 149998 147046 141650 137878 136031 134061 279319 127117 121041 117884 125715 106591 204836 101056 95853.7 103133 435515 94391.4 90769.9 86511.3 84646.4 84436.7 83056.2 77350.2 74556.1 71299 68587.2 118855 87161.6 279168 107371 67331.9 63715.4 87944.9 62560.5 59330.8 59295 54365.7 53548.8 56687.3 53481.7 53265.4 52489.1 51793.5 49934.8 49695.2 54930 48867.8 46999.8 46434 44224.6 43690 41454.2 41157.6 40183.9 39005.5 38612.6 38023 38015.8 45860.4 45744
threshold=0.4123660210249474 279.50000000000006 0.21175000000000002 0.59434584322003114 120.50000000000001 129.50000000000003 242.50000000000003 54.366477750000008 54.366477750000008 22.633535304420125 145.50000000000003 122.50000000000001 0.89882512403574033 23.679772866741356 54.436050365000007 51.187379123826325 5.9952012000000012 24.500000000000004 53.724508700000008 0.25525000000000003 16.642885108868789 305.01664806631908 9.1338520992815528 22.633535304420125 139.50000000000003 28.719265000000011 38.056910000000023 27.331365755602558 24.303817600000006 109.81289098732627 995.97157500000014 41.849922424932721 88.40864325988538 122.50000000000001 141.50000000000003 131.50000000000003 0.39544039701388062 54.612334000000011 24.334350000000004 299.50000000000006 23.701353700000002 24.303817600000006 5.0774649948852337 126.42653954836904 88.210526315789494 33.958709898969147 0.21227491821440356 24.411757650000002 33.500000000000007 96.743308948145526 51.500000000000007 55.500000000000007 27.182370000000024 168.66531569626582 0.32586905175900488 24.481563840000003 107.50000000000001 -3.9321288999999995 39.622460000000054 0.0011771558817682919 54.612334000000011 42.49916500000004 -2.2128829999999993 272.11255019836193 0.098764590601987626 24.303817600000006 54.366477750000008 1.7105636499999999 7.092465922893763 24.473993290000003 2595.8924500000007 257.50000000000006 4.6107458875024667 1065.3161500000003 17.905896076637021 0.037073785335833616 126.42653954836904 0.077275159374648669 7.9353710829368653 39.500000000000007 24.334350000000004 116.14120491172758 1002.39655
decision_type=2 2 2 2 2 2 2 2 2 2 2 2 2 2 2 2 2 2 2 2 2 2 2 2 2 2 2 2 2 2 2 2 2 2 2 2 2 2 2 2 2 2 2 2 2 2 2 2 2 2 2 2 2 2 2 2 2 2 2 2 2 2 2 2 2 2 2 2 2 2 2 2 2 2 2 2 2 2 2 2 2 2 2
left_child=1 2 5 14 16 15 7 22 44 20 11 -5 18 -14 30 25 17 67 53 -9 -3 -13 46 26 35 62 -8 28 -26 43 40 48 -33 -16 -35 -21 37 38 -10 66 -2 -28 -42 -17 72 -20 -6 60 49 -19 79 -52 59 -12 55 58 80 -51 -29 -53 -36 -62 -1 -47 -45 -27 -11 68 -4 76 -56 -32 -7 -31 -30 78 -41 -38 -39 -50 82 -82 -54
right_child=3 9 4 10 6 8 23 19 36 39 12 21 13 -15 33 29 -18 31 45 24 -22 -23 -24 -25 27 65 41 54 74 73 71 32 -34 34 47 -37 77 75 -40 69 42 -43 -44 64 -46 63 -48 -49 50 57 51 52 56 -55 70 -57 -58 -59 -60 -61 61 -63 -64 -65 -66 -67 -68 -69 -70 -71 -72 -73 -74 -75 -76 -77 -78 -79 -80 -81 81 -83 -84
leaf_value=-0.38530876149275711 0.31195908049437826 -0.43612340201525834 -0.54748130921298821 1.1145355766350751 -0.067916191884254018 0.083243856730393959 0.038894115841124163 0.45231274358960555 1.4620415272345273 -0.58734789517314157 0.30561284024696694 2.4784402091568976 2.8865530159689765 1.3436025855290137 0.58687969199800216 -0.73315054477827157 0.97024147434758801 -0.036330847046670639 1.9272404357761916 0.96333717387632412 -0.0035123373073444107 3.6628006140349658 1.028054005774454 -0.0044151658614432158 1.9759069536789402 0.50823422040145816 1.2637381707215467 0.13032014456201399 1.1319071735348172 0.13619676896265689 0.28820089972017804 -0.47729903108653943 0.038012785128701577 2.1135062673850609 1.4491858810094174 1.9025822905496002 -0.30584393817253447 -0.088987048300790322 0.16551795037351824 -0.81664165328760174 0.55207202269284683 0.48163942210372684 1.3379518999647666 -0.57318500794915128 -0.418867935030516 1.7043296646834976 0.29119167498970672 0.49279772685609341 0.10182562606846562 1.1906856850570535 1.3623462916070572 -0.32576680708296119 0.5583798811283186 1.0598972196884902 0.64134797636044405 1.0350610374222737 -0.11404817469072774 0.43472947298466852 0.58619217170815618 0.26713434509297179 0.5979708287694987 1.2867759729965096 0.073210909429108392 1.0558620000274119 -0.34319590838199149 -0.0099821467210228464 -0.30739509136014354 0.029830416989454413 -0.0071797757633060635 -0.51420251160396091 1.2888341580071712 -0.27349608748643017 -0.31329074232824972 -0.30871400719673714 0.69937254832720541 0.24407656661752464 -0.64942021704412656 0.017221989461470941 0.37370498899277876 -0.25681613337398107 0.86210496010692561 0.27711157794351826 0.032211500174746548
leaf_weight=310 65 355 187 47 162 109 87 205 49 201 37 39 40 42 68 282 34 49 44 40 232 31 33 432 42 37 32 69 50 52 83 112 236 31 51 34 86 235 274 345 45 78 43 356 313 31 217 36 78 31 31 100 41 39 35 48 55 36 136 33 41 36 47 59 288 189 208 39 36 272 37 33 77 111 123 128 695 198 33 121 43 43 75
leaf_count=310 65 355 187 47 162 109 87 205 49 201 37 39 40 42 68 282 34 49 44 40 232 31 33 432 42 37 32 69 50 52 83 112 236 31 51 34 86 235 274 345 45 78 43 356 313 31 217 36 78 31 31 100 41 39 35 48 55 36 136 33 41 36 47 59 288 189 208 39 36 272 37 33 77 111 123 128 695 198 33 121 43 43 75
internal_value=-0.000675227 -0.123715 0.0205085 1.13977 0.245941 -0.209612 0.427784 0.581799 -0.0195699 -0.524517 1.67984 2.24435 1.45365 2.09626 0.724557 -0.380332 0.000848685 -0.0236382 1.20273 0.769332 -0.265143 3.00294 0.20901 0.126366 0.875177 -0.16996 0.413154 0.803958 1.04933 -0.492955 0.436981 0.0642593 -0.127835 1.01869 1.16928 1.39488 0.116412 0.194234 0.362204 -0.612985 0.670931 0.709159 0.936082 -0.55037 -0.292897 1.492 0.137694 0.990792 0.155086 0.43777 0.102197 0.20545 0.113492 0.69268 0.641634 0.547024 0.264681 0.7845 0.432752 -0.178656 1.13085 0.92001 -0.324943 1.27922 -0.470333 0.0748586 -0.444976 -0.387306 -0.460258 -0.665359 0.974084 0.128408 -0.0809129 -0.166779 0.824383 0.0572275 -0.704893 -0.0806078 -0.0320138 -0.116243 0.367801 0.569608 0.218185
internal_weight=9663 8722 6414 941 3240 3174 1860 1231 1502 2308 409 117 292 82 532 1672 1380 1346 210 819 587 70 412 629 614 583 197 540 215 1089 269 1084 348 263 195 74 1003 719 323 1721 153 110 88 926 499 134 379 164 736 116 620 421 390 76 325 253 257 67 205 133 128 77 357 90 644 226 409 262 223 1312 72 116 186 163 173 396 1040 284 268 199 202 86 116
internal_count=9663 8722 6414 941 3240 3174 1860 1231 1502 2308 409 117 292 82 532 1672 1380 1346 210 819 587 70 412 629 614 583 197 540 215 1089 269 1084 348 263 195 74 1003 719 323 1721 153 110 88 926 499 134 379 164 736 116 620 421 390 76 325 253 257 67 205 133 128 77 357 90 644 226 409 262 223 1312 72 116 186 163 173 396 1040 284 268 199 202 86 116
is_linear=0
shrinkage=0.0126663


Tree=2
num_leaves=84
num_cat=0
split_feature=2 11 1 2 11 11 11 16 16 20 11 11 2 10 16 19 21 11 16 1 20 9 8 20 11 4 4 20 15 26 6 18 18 11 11 11 25 16 15 11 15 15 19 8 17 19 19 15 11 26 11 11 4 19 2 15 11 21 4 1 3 2 16 4 21 9 15 16 4 8 15 7 11 25 0 0 22 18 19 15 2 21 6
split_gain=8.23866e+06 3.06343e+06 2.02175e+06 1.28214e+06 877400 625700 524652 522907 339203 321790 317320 609294 286088 296364 273426 240700 199039 261428 188266 166981 159551 147205 146222 143345 138085 134408 132606 130686 272288 123968 117994 114917 122551 103908 199680 98512.3 93440.9 100537 424552 92015.4 88485 84333.6 83884.6 82515.6 80965.5 75403.1 73761.9 69504.2 66860.7 115863 84967.6 272141 104668 65637 62111.5 85731.1 60985.7 57837.3 57802.4 54294.8 52997.2 52232.6 52200.8 55260.4 52135.4 51924.6 50489.7 48677.8 48620 55421.1 47637.7 45816.7 45265.1 45171.4 43111.4 43023.2 40444.6 40410.7 39172.4 39132.1 38023.6 37675.5 37496.2
threshold=0.4123660210249474 279.50000000000006 0.21175000000000002 0.59434584322003114 120.50000000000001 129.50000000000003 242.50000000000003 54.366477750000008 54.366477750000008 22.633535304420125 145.50000000000003 122.50000000000001 0.89882512403574033 23.679772866741356 54.436050365000007 51.187379123826325 5.9952012000000012 24.500000000000004 53.724508700000008 0.25525000000000003 16.642885108868789 305.01664806631908 9.1338520992815528 22.633535304420125 139.50000000000003 28.719265000000011 38.056910000000023 27.331365755602558 24.303817600000006 110.92605094113112 995.97157500000014 41.849922424932721 88.40864325988538 122.50000000000001 141.50000000000003 131.50000000000003 0.39544039701388062 54.612334000000011 24.334350000000004 299.50000000000006 23.701353700000002 24.303817600000006 126.42653954836904 5.0774649948852337 88.210526315789494 33.958709898969147 168.66531569626582 24.411757650000002 33.500000000000007 96.743308948145526 51.500000000000007 55.500000000000007 27.182370000000024 168.66531569626582 0.32586905175900488 24.481563840000003 107.50000000000001 -3.9321288999999995 39.622460000000054 0.34475000000000006 0.0011771558817682919 0.098764590601987626 54.612334000000011 42.49916500000004 -2.2128829999999993 272.11255019836193 24.303817600000006 54.366477750000008 26.299830000000018 7.092465922893763 24.473993290000003 2595.8924500000007 257.50000000000006 0.002589588747219615 4.6107458875024667 3.0846770070575542 1.5053176999999993 17.905896076637021 126.42653954836904 23.792940650000002 0.077275159374648669 -1.1772994999999995 971.54182500000013
decision_type=2 2 2 2 2 2 2 2 2 2 2 2 2 2 2 2 2 2 2 2 2 2 2 2 2 2 2 2 2 2 2 2 2 2 2 2 2 2 2 2 2 2 2 2 2 2 2 2 2 2 2 2 2 2 2 2 2 2 2 2 2 2 2 2 2 2 2 2 2 2 2 2 2 2 2 2 2 2 2 2 2 2 2
left_child=1 2 5 14 16 15 7 22 44 20 11 -5 18 -14 30 25 17 68 53 -9 -3 -13 46 26 35 64 -8 28 -26 42 40 48 -33 -16 -35 -21 37 38 -10 67 -2 -28 -17 -42 74 -20 59 62 49 -19 -50 -52 60 -12 55 58 -54 -51 -29 -6 -53 -44 -36 -64 -1 -47 -27 -11 69 -4 78 -56 -32 -61 -7 -31 -39 -30 -41 -48 -38 -60 -34
right_child=3 9 4 10 6 8 23 19 36 39 12 21 13 -15 33 29 -18 31 45 24 -22 -23 -24 -25 27 66 41 54 77 75 72 32 82 34 47 -37 80 76 -40 70 43 -43 61 -45 -46 65 79 -49 50 57 51 52 56 -55 71 -57 -58 -59 81 73 -62 -63 63 -65 -66 -67 -68 -69 -70 -71 -72 -73 -74 -75 -76 -77 -78 -79 -80 -81 -82 -83 -84
leaf_value=-0.38042829897125863 0.30800770623275203 -0.4305993173048045 -0.5512506614028817 1.1004185151813883 -0.13175827602188545 0.082189455466372463 0.038401482477764232 0.44658360215298715 1.4435227878484727 -0.57990834977698957 0.30174183865718907 2.4470474783917826 2.8499909226955156 1.3265840542396792 0.57944608189930136 -0.7244803403499086 0.95795204446119553 -0.035870664725886299 1.9028293776833303 0.95113524066865163 -0.0034678628661622677 3.6164065172404989 1.0150323356533335 -0.0043592355157541221 1.9508794337924087 0.5017967683768757 1.2477312344272924 0.12866947434842063 1.1175700408496145 -0.30304885078955912 0.28455044958926562 -0.47125339784824322 0.43351750938964706 2.086735828697674 1.4308299884424283 1.8784835151911263 -0.30197001587440131 0.29424569205319551 0.16342144255698463 -0.80629779978277849 0.54507929559959711 0.47553883071259828 -0.56592485103134649 1.3210049487129674 -0.41356242853718328 1.6827420091674752 0.15669953966892536 0.48655578194413673 -0.11477061770978914 1.1756040455246679 1.345090346262966 -0.321640549082088 0.3631420440400418 1.0464721768963234 0.63322444277888557 1.0219506077405132 -0.11260359998340082 0.42922304906440889 0.35183187388232751 0.53072443940532987 0.26375072791785525 -0.33715293056547968 0.59039671516101433 1.2704772229446806 0.07228359099887427 1.0424880981387366 -0.0098557118682525788 -0.30350153599256102 -0.0034937227864289722 -0.0070888295110618999 -0.50768945259701748 1.2725093585777143 -0.27003188944686318 0.049574311229741284 -0.30932249976415516 0.14333028232739004 -0.012419556601781788 0.69051406806740634 -0.64119445568902311 0.68227459434778726 0.017003851076376954 0.7746155742722981 -0.026840823267382151
leaf_weight=310 65 355 181 47 149 109 87 205 49 201 37 39 40 42 68 283 34 49 44 40 232 31 33 432 42 37 32 69 50 108 83 112 33 31 51 34 86 89 274 345 45 78 356 43 313 31 41 36 199 31 31 100 202 39 35 48 55 36 63 48 33 291 41 36 47 59 189 208 45 36 272 37 33 90 77 51 307 123 695 51 198 73 203
leaf_count=310 65 355 181 47 149 109 87 205 49 201 37 39 40 42 68 283 34 49 44 40 232 31 33 432 42 37 32 69 50 108 83 112 33 31 51 34 86 89 274 345 45 78 356 43 313 31 41 36 199 31 31 100 202 39 35 48 55 36 63 48 33 291 41 36 47 59 189 208 45 36 272 37 33 90 77 51 307 123 695 51 198 73 203
internal_value=-0.000666676 -0.122148 0.0202487 1.12533 0.242826 -0.206957 0.422366 0.57443 -0.0193221 -0.517873 1.65856 2.21592 1.43524 2.06971 0.715379 -0.375514 0.000837934 -0.0233388 1.18749 0.759587 -0.261784 2.96491 0.206362 0.124765 0.864092 -0.167807 0.407921 0.793775 1.03604 -0.486711 0.431446 0.0634454 -0.126215 1.00579 1.15446 1.37721 0.114938 0.191774 0.357616 -0.60522 0.662433 0.700177 -0.54259 0.924225 -0.289187 1.47311 0.13595 0.978243 0.153122 0.432225 0.100903 0.202848 0.112054 0.683906 0.633507 0.540096 0.261329 0.774564 0.427271 0.0359041 -0.176393 -0.463031 1.11653 0.908356 -0.320828 1.26302 0.0739104 -0.43934 -0.3824 -0.460975 -0.656932 0.961746 0.126781 0.216931 -0.0798881 -0.159871 0.0565027 0.813941 -0.695964 0.448051 -0.0795868 0.578767 0.0375313
internal_weight=9663 8722 6414 941 3240 3174 1860 1231 1502 2308 409 117 292 82 532 1672 1380 1346 210 819 587 70 412 629 614 583 197 540 215 1089 269 1084 348 263 195 74 1003 719 323 1721 153 110 930 88 499 134 379 164 736 116 620 421 390 76 325 253 257 67 205 287 133 647 128 77 357 90 226 409 262 217 1312 72 116 138 186 159 396 173 1040 92 284 136 236
internal_count=9663 8722 6414 941 3240 3174 1860 1231 1502 2308 409 117 292 82 532 1672 1380 1346 210 819 587 70 412 629 614 583 197 540 215 1089 269 1084 348 263 195 74 1003 719 323 1721 153 110 930 88 499 134 379 164 736 116 620 421 390 76 325 253 257 67 205 287 133 647 128 77 357 90 226 409 262 217 1312 72 116 138 186 159 396 173 1040 92 284 136 236
is_linear=0
shrinkage=0.0126663


Tree=3
num_leaves=84
num_cat=0
split_feature=2 11 1 2 11 11 11 16 16 20 16 11 11 11 26 19 5 1 21 11 20 1 8 6 11 16 4 26 20 22 11 25 11 26 20 11 21 15 19 4 15 3 11 2 17 18 18 16 15 2 1 19 24 4 15 5 22 11 20 4 20 3 26 11 0 16 11 11 17 6 6 11 11 8 8 0 8 9 23 19 8 6 5
split_gain=8.20547e+06 2.89737e+06 2.07776e+06 1.16096e+06 737191 566934 528428 498120 332148 319110 267317 260098 240311 382435 235696 231166 203448 207635 183151 216740 160586 158505 154847 149635 143479 132897 125059 124679 120317 108441 105833 136306 102903 100554 96460.2 97276 98172.3 93563.9 92067.2 88626.7 87709.6 87670.1 82554.5 78371.3 76676.1 75581.9 75058.1 88361.2 301229 71876.3 65888.6 64559.1 61304.5 60136.6 56468.9 56137.4 54677.3 50615.9 48333.5 47937.2 47766.9 73871.8 52934.3 47328.1 47327.7 47040 46643 45719.8 55632.2 60753.3 49968.6 45009.9 113984 44652.1 43309.5 43194.2 40944.4 38643 38076.7 37223.8 36306.5 35745.3 35677.2
threshold=0.4123660210249474 279.50000000000006 0.21175000000000002 0.61303178994300012 120.50000000000001 129.50000000000003 242.50000000000003 54.366477750000008 54.366477750000008 22.633535304420125 54.547110800000006 243.50000000000003 122.50000000000001 139.50000000000003 140.39762374931965 51.187379123826325 20.783850000000005 0.89650000000000019 5.9952012000000012 24.500000000000004 16.642885108868789 0.27425000000000005 8.7151883456131944 996.46965000000012 139.50000000000003 53.724508700000008 26.299830000000018 110.92605094113112 22.633535304420125 1.6847915500000006 223.50000000000003 0.24676717545129398 131.50000000000003 123.65430711022942 40.754870280005726 33.500000000000007 -4.5674132500000004 24.411757650000002 126.42653954836904 38.056910000000023 24.303817600000006 0.00070500077519082115 299.50000000000006 0.32586905175900488 88.210526315789494 88.40864325988538 1.673434925026271 54.612334000000011 24.334350000000004 0.067089832391868859 0.15525000000000003 33.958709898969147 25.925860000000004 24.101580000000045 24.473993290000003 12.582300000000005 1.1885986499999983 272.50000000000006 16.642885108868789 26.388820000000042 27.331365755602558 0.00030515597440169772 161.29150663724445 79.500000000000014 4.6107458875024667 54.366477750000008 215.50000000000003 107.50000000000001 8.0000000000000018 1007.2491000000001 1001.2484250000001 57.500000000000007 47.500000000000007 6.5869608636472181 6.4318526193569765 3.0846770070575542 6.8421206353754345 303.28342157619176 0.036449846114059749 126.42653954836904 7.4685626652995145 1005.9668250000001 12.643940000000045
decision_type=2 2 2 2 2 2 2 2 2 2 2 2 2 2 2 2 2 2 2 2 2 2 2 2 2 2 2 2 2 2 2 2 2 2 2 2 2 2 2 2 2 2 2 2 2 2 2 2 2 2 2 2 2 2 2 2 2 2 2 2 2 2 2 2 2 2 2 2 2 2 2 2 2 2 2 2 2 2 2 2 2 2 2
left_child=1 2 5 11 18 15 7 22 44 20 16 12 63 -14 52 26 17 29 19 59 -3 66 43 33 32 -15 -1 38 39 -5 60 -32 -23 -19 35 36 -21 51 -17 -8 -41 -16 65 56 64 55 -10 48 -48 -28 80 -27 -12 71 79 -36 -6 -13 -51 74 61 -26 -62 -2 -7 -11 73 68 69 -55 -70 72 -37 -9 -4 -29 -47 -52 82 -44 -40 -60 -49
right_child=3 9 4 10 6 8 28 21 46 42 14 57 13 25 41 27 -18 23 -20 34 -22 24 -24 -25 30 37 49 75 -30 -31 31 -33 -34 -35 45 53 -38 -39 50 40 -42 -43 54 -45 -46 76 47 78 -50 58 77 -53 -54 67 -56 -57 -58 -59 81 -61 62 -63 -64 -65 -66 -67 -68 -69 70 -71 -72 -73 -74 -75 -76 -77 -78 -79 -80 -81 -82 -83 -84
leaf_value=-0.39092414996733521 0.82556569947774783 -0.42284776267258017 -0.52333916572031813 0.56119194678313078 0.21781599733351215 0.071606803585156961 0.076329104277258863 0.24966246547743368 -0.27818949170340501 -0.57407049701499746 2.2165086832239758 0.35420226079340794 1.9453582609075644 0.44447483807636429 1.2481142336055207 -0.72780246109277102 0.44301096053592015 2.6421717080476181 0.93541648390681176 1.1059914825314476 0.0072639127331007528 0.93961747761812831 0.92180773240999525 1.1859903713066158 1.3102671062305442 1.5505238587823666 -0.23424794264332 -0.30490797719459933 -0.0010282149823133331 1.5420875090221593 1.689110055771345 0.76701310870445527 1.9124912655742083 1.7479056815457492 -0.39810340443506409 -0.20319358505269697 0.26280999591504306 0.41918203162338719 -0.55532694285486806 1.1519310131115845 0.38125655871890901 2.1005200756285229 -0.79156321895119519 0.48720768964871847 -0.41788585463363231 -0.018295863327776177 1.3053202379367665 0.10412155089277887 0.15444727855783341 -0.067153332809706465 -0.383479115691231 0.99755728513700326 2.9362407510615984 0.8862071906750798 -0.48040376878112379 0.18384489990919378 -0.12898855376356486 -0.30529093001087559 0.6855611383115563 0.074287755786115781 0.69605041625513409 0.68053938955034687 0.27961336536949299 0.2665798437353552 -0.33325129696282102 -0.30133852576412556 0.73660633423941313 -0.14729672446023523 0.53047158047674225 0.28351052287962203 -0.0090422298437353946 -0.44270848942915419 0.67568801644226528 0.71558663398438471 -0.095618138161096725 0.13069209762803471 0.40013212165159506 0.026288565605467999 0.19590837586293527 -0.63065695713865766 -0.15761431554705374 0.17617633264055588 -0.134688390471671
leaf_weight=237 32 344 158 40 132 112 94 132 76 199 39 43 61 92 49 279 32 38 34 32 234 37 43 36 43 45 140 105 447 33 43 64 33 43 137 91 72 35 464 33 84 32 347 74 313 186 42 186 278 97 96 137 37 35 275 33 163 33 31 37 175 98 68 101 79 207 79 56 34 115 145 45 32 44 50 56 47 60 182 688 40 77 218
leaf_count=237 32 344 158 40 132 112 94 132 76 199 39 43 61 92 49 279 32 38 34 32 234 37 43 36 43 45 140 105 447 33 43 64 33 43 137 91 72 35 464 33 84 32 347 74 313 186 42 186 278 97 96 137 37 35 275 33 163 33 31 37 175 98 68 101 79 207 79 56 34 115 145 45 32 44 50 56 47 60 182 688 40 77 218
internal_value=0.00272755 -0.11996 0.0186082 1.11524 0.244929 -0.211785 0.406289 0.561487 -0.0315127 -0.506126 1.66024 0.758493 0.862846 1.02883 2.06025 -0.37105 1.37735 1.53471 0.0176513 -0.00625987 -0.24872 0.742756 0.20247 1.86545 0.861775 0.847903 -0.166907 -0.47906 0.116648 1.00461 0.78529 1.13758 1.39826 2.16744 0.0722177 0.166851 0.52225 1.01894 -0.534899 0.365944 0.598626 1.58487 -0.592828 0.118645 -0.295844 -0.0820598 0.104152 0.136225 0.305499 -0.0130163 -0.453353 1.13428 2.5669 0.100012 -0.641737 -0.285137 0.0261918 0.0678434 0.138069 -0.345795 0.687127 0.872584 0.579517 0.401073 -0.0958476 -0.435017 0.480914 0.187266 0.244212 0.42414 0.0934353 -0.0999433 0.0254585 0.366144 -0.420522 -0.153395 0.0661081 -0.225876 0.0437882 -0.684603 -0.523762 0.322389 -0.0247412
internal_weight=9645 8687 6393 958 3225 3168 1886 1228 1486 2294 379 579 503 370 157 1682 222 190 1339 1305 578 816 412 117 561 309 582 1100 658 73 491 107 70 81 1060 657 104 217 939 211 117 81 1716 369 504 403 982 906 320 345 660 182 76 553 1310 170 295 76 205 245 384 141 243 133 191 406 255 385 329 150 179 168 123 176 208 161 233 156 586 1035 504 108 404
internal_count=9645 8687 6393 958 3225 3168 1886 1228 1486 2294 379 579 503 370 157 1682 222 190 1339 1305 578 816 412 117 561 309 582 1100 658 73 491 107 70 81 1060 657 104 217 939 211 117 81 1716 369 504 403 982 906 320 345 660 182 76 553 1310 170 295 76 205 245 384 141 243 133 191 406 255 385 329 150 179 168 123 176 208 161 233 156 586 1035 504 108 404
is_linear=0
shrinkage=0.0126663


Tree=4
num_leaves=84
num_cat=0
split_feature=2 11 1 2 11 11 11 16 16 20 16 11 11 11 26 19 11 21 11 20 2 11 0 8 16 4 26 12 8 20 11 20 11 21 15 19 15 4 15 11 6 15 22 17 18 1 18 16 15 2 1 18 19 24 4 15 5 11 20 4 11 0 1 16 11 17 6 6 1 26 8 15 15 7 1 8 8 9 23 19 8 26 6
split_gain=7.99892e+06 2.82444e+06 2.02546e+06 1.13173e+06 718634 552663 515126 485581 323787 311077 260588 253551 234262 372809 229763 225347 201122 178541 211284 156543 154577 167939 152323 150949 129552 121911 121541 121220 153495 117289 97497.5 94032.1 94827.4 95701.1 91208.7 89749.7 86602 86395.7 85501.7 80476.4 77708 162630 76414.5 74746 73679.4 73556.8 73168.7 86137 293646 70067 64230 63248.3 62934 59761.3 58622.8 55047.4 54724.3 49341.8 47116.8 46730.5 46136.8 46136.3 45969.8 45855.9 44569 54231.8 59224 48710.7 44529.6 42661.6 42219.3 42172 58495.3 42124.6 41892.9 40343.9 39913.7 37670.3 37118.2 36286.8 35400.8 35352.3 34845.5
threshold=0.4123660210249474 279.50000000000006 0.21175000000000002 0.61303178994300012 120.50000000000001 129.50000000000003 242.50000000000003 54.366477750000008 54.366477750000008 22.633535304420125 54.547110800000006 243.50000000000003 122.50000000000001 139.50000000000003 140.39762374931965 51.187379123826325 227.50000000000003 5.9952012000000012 24.500000000000004 16.642885108868789 0.24763379384912759 139.50000000000003 5.4766536550476888 8.7151883456131944 53.724508700000008 26.299830000000018 110.92605094113112 7.5000000000000009 6.0740240144722675 22.633535304420125 223.50000000000003 40.754870280005726 33.500000000000007 -4.5674132500000004 24.411757650000002 126.42653954836904 24.303817600000006 38.056910000000023 24.303817600000006 299.50000000000006 981.44715000000008 24.303817600000006 0.81330107000000085 88.210526315789494 88.40864325988538 0.26225000000000004 1.673434925026271 54.612334000000011 24.334350000000004 0.067089832391868859 0.15525000000000003 1.673434925026271 33.958709898969147 25.925860000000004 24.101580000000045 24.473993290000003 12.582300000000005 272.50000000000006 16.642885108868789 26.388820000000042 79.500000000000014 4.6107458875024667 0.37675000000000008 54.366477750000008 107.50000000000001 8.0000000000000018 1007.2491000000001 1001.2484250000001 0.43350000000000005 125.51465658959529 6.4318526193569765 24.063032350000004 23.701353700000002 1065.3161500000003 0.48225000000000001 3.9954101139209173 6.8421206353754345 303.28342157619176 0.036449846114059749 126.42653954836904 7.5247570956628289 92.939000397801777 1005.9668250000001
decision_type=2 2 2 2 2 2 2 2 2 2 2 2 2 2 2 2 2 2 2 2 2 2 2 2 2 2 2 2 2 2 2 2 2 2 2 2 2 2 2 2 2 2 2 2 2 2 2 2 2 2 2 2 2 2 2 2 2 2 2 2 2 2 2 2 2 2 2 2 2 2 2 2 2 2 2 2 2 2 2 2 2 2 2
left_child=1 2 5 11 17 15 7 23 43 19 16 12 60 -14 53 25 22 18 59 -3 40 -22 27 42 -15 -1 35 28 -5 37 69 32 33 -20 52 -17 -16 -8 -39 63 -9 -42 71 61 56 -43 -10 48 -48 -27 80 -47 -26 -12 68 79 -33 -13 -51 70 -2 -7 -44 -11 65 66 -56 -67 -34 -23 -4 72 -6 -28 -71 -32 -46 -52 -49 -41 -37 -62 -60
right_child=3 9 4 10 6 8 29 20 46 39 14 57 13 24 36 26 -18 -19 31 -21 21 30 -24 -25 34 49 73 -29 -30 -31 75 44 54 -35 -36 50 -38 38 -40 55 41 45 62 -45 76 51 47 78 -50 58 77 -53 -54 -55 64 -57 -58 -59 82 -61 81 -63 -64 -65 -66 67 -68 -69 -70 74 -72 -73 -74 -75 -76 -77 -78 -79 -80 -81 -82 -83 -84
leaf_value=-0.38597258068370494 0.81510879804783198 -0.41749182877033131 -0.51671038325192176 1.0339909337333599 0.14009900715920159 0.07069980604943181 0.075362293852919884 0.36018133854017448 -0.27466585767006158 -0.56679912979351932 2.1884336334918757 0.34971581454612555 1.9207177136753812 0.43884497660102328 1.9541335999810963 -0.71858384619062843 0.41357690608625891 0.92356815938987169 1.0919826097301362 0.0071718912449027705 1.6150101746121801 0.94213400679803749 0.85968585142964304 0.91013178672763406 1.5308844071275338 -0.23128088012519771 0.12909580149872826 2.398722223535759 1.9603727509555342 -0.0010151964963716869 1.5883295823699579 -0.39306089888511136 -0.20446363814603052 0.25948115894301427 0.41387253202902391 -0.54612776166354493 1.1242226812510199 1.1373402563778237 0.3764274374049596 -0.78153700943828786 1.4588631129783103 0.32527486746326306 -0.17177579775218735 -0.41259277667352218 -0.018064125787740488 0.35359325065750719 1.2887865745183791 -0.024427857836507465 0.15249100256442477 -0.066302747532161171 -0.37862184821790712 0.88184962652157117 0.9849218824194611 2.8990492894854181 0.87498217533625111 -0.47431880851149116 0.1815162610956845 -0.30142400920854584 0.67687758136088993 0.073346807428711316 0.56199096307997898 -0.32903022154915684 0.19742760599362788 -0.29752167250181055 -0.14543101501104652 0.52375244638432561 0.279919473991326 -0.0089276995076407774 0.30331018644768787 0.43397893261872028 -0.094407004761557223 0.01639228097496917 0.76125527654238023 -0.30107742013808153 0.93592689750712577 0.94211847372034951 0.39506391313270306 0.025955576238042954 0.19342693788223356 -0.62266883640085913 -0.12853565004102607 0.075256127169318301 0.17394481476683618
leaf_weight=237 32 344 158 55 43 112 94 158 76 199 39 43 61 92 43 279 31 34 32 234 51 73 44 43 45 140 56 32 60 447 31 137 133 72 35 469 38 33 84 347 40 103 138 313 186 49 42 404 278 97 96 141 137 37 35 275 33 33 31 37 39 79 89 207 56 34 115 145 35 103 50 43 56 105 36 31 47 60 182 688 35 62 77
leaf_count=237 32 344 158 55 43 112 94 158 76 199 39 43 61 92 43 279 31 34 32 234 51 73 44 43 45 140 56 32 60 447 31 137 133 72 35 469 38 33 84 347 40 103 138 313 186 49 42 404 278 97 96 141 137 37 35 275 33 33 31 37 39 79 89 207 56 34 115 145 35 103 50 43 56 105 36 31 47 60 182 688 35 62 77
internal_value=0.002693 -0.11844 0.0183725 1.10111 0.241827 -0.209102 0.401143 0.554375 -0.0311136 -0.499715 1.63921 0.748886 0.851917 1.0158 2.03415 -0.36635 1.3599 0.0174277 -0.00618059 -0.245569 0.733348 0.947626 1.51349 0.199906 0.837163 -0.164793 -0.472992 1.70919 1.51732 0.115171 0.823405 0.0713029 0.164737 0.515635 1.00604 -0.528123 1.56479 0.361309 0.591044 -0.585319 0.591514 0.701275 0.117142 -0.292096 -0.0810204 0.59785 0.102833 0.134499 0.30163 -0.0128514 -0.447611 0.745615 1.11991 2.53439 0.0987455 -0.633609 -0.281525 0.066984 0.13632 -0.341415 0.395993 -0.0946336 -0.027022 -0.429507 0.184894 0.241119 0.418767 0.0922518 -0.0986774 0.694193 -0.415195 0.347602 0.49146 -0.151452 0.56398 1.26522 0.0652707 -0.223015 0.0432335 -0.675932 -0.517128 0.263203 0.318305
internal_weight=9645 8687 6393 958 3225 3168 1886 1228 1486 2294 379 579 503 370 157 1682 222 1339 1305 578 816 325 191 412 309 582 1100 147 115 658 274 1060 657 104 217 939 81 211 117 1716 491 333 369 504 403 293 982 906 320 345 660 190 182 76 553 1310 170 76 205 245 133 191 227 406 385 329 150 179 168 212 208 142 99 161 139 62 233 156 586 1035 504 101 108
internal_count=9645 8687 6393 958 3225 3168 1886 1228 1486 2294 379 579 503 370 157 1682 222 1339 1305 578 816 325 191 412 309 582 1100 147 115 658 274 1060 657 104 217 939 81 211 117 1716 491 333 369 504 403 293 982 906 320 345 660 190 182 76 553 1310 170 76 205 245 133 191 227 406 385 329 150 179 168 212 208 142 99 161 139 62 233 156 586 1035 504 101 108
is_linear=0
shrinkage=0.0126663


Tree=5
num_leaves=84
num_cat=0
split_feature=2 11 1 2 11 11 11 16 16 20 16 11 11 11 26 19 5 1 21 11 20 1 8 6 11 16 4 26 20 22 11 25 11 26 20 11 21 15 19 3 4 15 11 2 17 18 18 16 15 2 1 19 24 4 1 15 5 11 22 11 26 4 6 20 4 11 11 0 16 8 0 8 8 4 9 11 15 23 19 5 0 26 8
split_gain=7.79757e+06 2.75334e+06 1.97448e+06 1.10325e+06 700545 538751 502160 473358 315636 303246 254029 247169 228365 363424 223980 219675 196257 201455 174047 205965 152603 150868 147149 144772 136263 126291 118842 118481 114336 104709 101114 132014 100550 97807.6 91665.1 92440.4 93292.1 88912.8 87490.5 85572.2 84220.9 83349.5 78450.6 75515.8 72864.4 71824.7 71326.9 83968.7 286255 68303.3 62613.2 61349.8 58257 57675.5 70564 53661.8 53346.7 52171.2 51969.5 48099.8 46173.9 54320.5 47069.5 45930.8 45554.2 45341.3 44975.4 44975 44701.6 43380.2 41306.7 41156.5 38909 38185.8 36722 36683.6 39893.2 36183.9 35373.4 34779.1 35808.9 34878.4 34563.2
threshold=0.4123660210249474 279.50000000000006 0.21175000000000002 0.61303178994300012 120.50000000000001 129.50000000000003 242.50000000000003 54.366477750000008 54.366477750000008 22.633535304420125 54.547110800000006 243.50000000000003 122.50000000000001 139.50000000000003 140.39762374931965 51.187379123826325 20.783850000000005 0.89650000000000019 5.9952012000000012 24.500000000000004 16.642885108868789 0.27425000000000005 8.7151883456131944 996.46965000000012 139.50000000000003 53.724508700000008 26.299830000000018 110.92605094113112 22.633535304420125 1.6847915500000006 223.50000000000003 0.24676717545129398 131.50000000000003 123.65430711022942 40.754870280005726 33.500000000000007 -4.5674132500000004 24.411757650000002 126.42653954836904 0.00070500077519082115 38.056910000000023 24.303817600000006 299.50000000000006 0.32586905175900488 88.210526315789494 88.40864325988538 1.673434925026271 54.612334000000011 24.334350000000004 0.067089832391868859 0.15525000000000003 33.958709898969147 25.925860000000004 35.596335000000018 0.42725000000000007 24.473993290000003 12.582300000000005 75.500000000000014 1.1885986499999983 272.50000000000006 161.29150663724445 38.587060000000015 990.06250000000011 16.642885108868789 26.388820000000042 215.50000000000003 79.500000000000014 4.6107458875024667 54.366477750000008 6.5869608636472181 3.0846770070575542 6.4318526193569765 6.8421206353754345 24.101580000000045 303.28342157619176 107.50000000000001 24.334350000000004 0.036449846114059749 126.42653954836904 12.643940000000045 1.7853430060483209 107.11619445286836 7.4685626652995145
decision_type=2 2 2 2 2 2 2 2 2 2 2 2 2 2 2 2 2 2 2 2 2 2 2 2 2 2 2 2 2 2 2 2 2 2 2 2 2 2 2 2 2 2 2 2 2 2 2 2 2 2 2 2 2 2 2 2 2 2 2 2 2 2 2 2 2 2 2 2 2 2 2 2 2 2 2 2 2 2 2 2 2 2 2
left_child=1 2 5 11 18 15 7 22 44 20 16 12 66 -14 52 26 17 29 19 64 -3 65 43 33 32 -15 -1 38 40 -5 60 -32 -23 -19 35 36 -21 51 -17 -16 -8 -42 68 58 67 56 -10 48 -48 -28 82 -27 -12 54 73 78 -36 -56 -6 -13 -26 -62 -63 -51 71 69 -2 -7 -11 -9 -29 -4 -47 -37 -52 76 -75 79 -44 80 -49 -82 -40
right_child=3 9 4 10 6 8 28 21 46 42 14 59 13 25 39 27 -18 23 -20 34 -22 24 -24 -25 30 37 49 70 -30 -31 31 -33 -34 -35 45 53 -38 -39 50 -41 41 -43 55 -45 -46 72 47 77 -50 63 74 -53 -54 -55 57 -57 -58 -59 -60 -61 61 62 -64 -65 -66 -67 -68 -69 -70 -71 -72 -73 -74 75 -76 -77 -78 -79 -80 -81 81 -83 -84
leaf_value=-0.38108370726001789 0.80478435270431636 -0.41220373497271995 -0.51016553691088329 0.53936173661275066 0.21172421285296836 0.069804300127194963 0.074407726555389894 0.24063536810083155 -0.27118684744893551 -0.559619860945887 2.1607142023713002 0.34528619431508784 1.8963892338781361 0.43328641165536153 1.2122731164570273 -0.70948203769887941 0.42500043535144771 2.5882594913810872 0.9118699324169055 1.0781512091102503 0.0070810463622587817 0.90962700861923329 0.89860376264265007 1.1546869445795638 0.75937843088881352 1.5114937119223384 -0.22835140338507554 -0.29769938044353927 -0.0010023415713751938 1.5032299187530815 1.65276199630634 0.74529915626062371 1.8713117816462694 1.7062891625074104 -0.38808224743601449 -0.20187383095506808 0.25619448474640422 0.40863028468053092 -0.54137556050278546 2.054418410538625 1.1229342829122282 0.37165947831640439 -0.77163780684175931 0.47744452325075604 -0.4073667309956247 -0.017835323672788249 1.27246238711233 -0.033412232959846543 0.15055949671422905 -0.065462934722433017 -0.37382608813927792 0.97244653542975168 2.8623289582816218 0.44887449473637542 0.66272042419986743 -0.46831092388943713 0.17921710300421659 0.08466847338776122 -0.12638393836249887 -0.2976060686539907 0.012758867942517536 0.38239855585060611 1.0069819325401748 0.3142733864387236 0.072417761990888174 0.72070219678763214 0.25986942367604754 -0.32486261926358651 -0.29375317413916857 0.69987556416294305 0.12827721366790659 -0.093211219699787351 0.39005989460727397 -0.074724252641073616 0.0256268129394738 -0.33759293639613319 0.26903137378988978 0.19097692549396056 -0.61478193165837369 -0.13267297282013843 0.069896743087038624 0.63745619569450007 -0.1533286804733619
leaf_weight=237 32 344 158 40 132 112 94 132 76 199 39 43 61 92 49 279 32 38 34 32 234 37 43 36 271 45 140 105 447 33 43 64 33 43 137 133 72 35 464 32 33 84 347 74 313 186 42 116 278 97 96 137 37 66 46 275 33 55 163 33 32 49 32 108 37 79 101 79 207 44 56 50 47 95 60 32 126 182 688 218 38 32 40
leaf_count=237 32 344 158 40 132 112 94 132 76 199 39 43 61 92 49 279 32 38 34 32 234 37 43 36 271 45 140 105 447 33 43 64 33 43 137 133 72 35 464 32 33 84 347 74 313 186 42 116 278 97 96 137 37 66 46 275 33 55 163 33 32 49 32 108 37 79 101 79 207 44 56 50 47 95 60 32 126 182 688 218 38 32 40
internal_value=0.00265888 -0.11694 0.0181398 1.08716 0.238764 -0.206454 0.396062 0.547353 -0.0307195 -0.493385 1.61845 0.7394 0.841126 1.00294 2.00839 -0.36171 1.34268 1.49723 0.0172069 -0.0061023 -0.242459 0.724059 0.197373 1.82302 0.840175 0.826559 -0.162705 -0.467001 0.113712 0.975083 0.765639 1.10998 1.36299 2.12005 0.0703998 0.162651 0.509104 0.993292 -0.521434 1.54497 0.356732 0.583558 -0.577905 0.115658 -0.288397 -0.0799942 0.10153 0.132796 0.297809 -0.0126886 -0.441941 1.10573 2.50229 0.0974947 0.0498745 -0.625583 -0.277959 0.34794 0.0249051 0.0661356 0.66969 0.454595 0.629148 0.134593 -0.337091 0.468603 0.390977 -0.0934349 -0.424067 0.355445 -0.149534 -0.409936 0.064444 -0.0281167 -0.22019 0.063226 0.121263 0.0426859 -0.66737 -0.0241184 0.103112 0.329352 -0.510578
internal_weight=9645 8687 6393 958 3225 3168 1886 1228 1486 2294 379 579 503 370 157 1682 222 190 1339 1305 578 816 412 117 561 309 582 1100 658 73 491 107 70 81 1060 657 104 217 939 81 211 117 1716 369 504 403 982 906 320 345 660 182 76 553 487 1310 170 101 295 76 384 113 81 205 245 255 133 191 406 176 161 208 233 386 156 253 221 586 1035 404 186 70 504
internal_count=9645 8687 6393 958 3225 3168 1886 1228 1486 2294 379 579 503 370 157 1682 222 190 1339 1305 578 816 412 117 561 309 582 1100 658 73 491 107 70 81 1060 657 104 217 939 81 211 117 1716 369 504 403 982 906 320 345 660 182 76 553 487 1310 170 101 295 76 384 113 81 205 245 255 133 191 406 176 161 208 233 386 156 253 221 586 1035 404 186 70 504
is_linear=0
shrinkage=0.0126663


Tree=6
num_leaves=84
num_cat=0
split_feature=2 11 2 1 11 11 11 16 11 11 16 11 11 19 19 16 11 11 15 21 11 15 1 16 16 11 20 15 6 26 2 8 0 15 11 0 11 1 11 4 17 19 25 16 15 5 4 6 11 26 4 8 11 18 20 19 7 17 4 11 4 19 3 8 11 18 4 11 11 8 21 8 8 15 26 20 5 8 7 0 24 4 0
split_gain=7.50813e+06 2.2822e+06 2.03013e+06 1.46502e+06 571250 564205 541570 455860 374140 334807 317423 308776 660645 275387 213564 195837 192033 205151 170270 153706 171327 146541 156808 145352 237531 136635 138443 269193 136209 121932 113771 113628 112310 110539 102879 97929.1 92618.6 90587.5 89819.7 86043.6 84488.9 79558.5 77320.6 82680.4 405180 76631.4 75163.6 117671 70271.4 103575 72130.2 68699.4 155162 65321.7 65292.9 65240 63583.9 61985.2 58228.7 57338.9 56828.1 53606.5 53510.4 53277.1 49725.6 47852.5 45834.9 44411.7 43934.7 42167.5 41758.3 41359.9 41135.4 40972.6 44769.3 38413.9 38190 38075.3 37900.2 36235.4 37831.7 34546.7 41017.3
threshold=0.32586905175900488 279.50000000000006 0.55952708752523661 0.21175000000000002 129.50000000000003 120.50000000000001 265.50000000000006 54.366477750000008 242.50000000000003 234.50000000000003 54.366477750000008 122.50000000000001 145.50000000000003 33.958709898969147 51.187379123826325 54.436050365000007 122.50000000000001 141.50000000000003 24.375409250000004 5.9952012000000012 24.500000000000004 24.303817600000006 0.97200000000000009 54.583517100000009 54.612334000000011 139.50000000000003 27.331365755602558 24.303817600000006 993.5866000000002 110.3229337657062 0.10184842499638296 8.3538388086631361 5.2885525531768085 24.481563840000003 180.50000000000003 5.3872619704830464 134.50000000000003 0.92575000000000018 107.50000000000001 34.213205000000052 106.71052631578949 168.66531569626582 0.39544039701388062 54.612334000000011 24.334350000000004 21.074490000000029 39.081200000000031 997.91877500000021 33.500000000000007 96.233375801000818 24.101580000000045 5.2448597217871527 67.500000000000014 88.40864325988538 40.754870280005726 126.42653954836904 2415.1687500000003 88.210526315789494 26.388820000000042 187.50000000000003 34.689155000000007 33.958709898969147 0.00075984709122751753 6.7663498662757098 105.50000000000001 1.673434925026271 29.695550000000029 286.50000000000006 85.500000000000014 4.6952014456955178 -1.6162566999999997 7.146342613752517 5.1482913490153512 24.481563840000003 156.01014707816435 16.642885108868789 15.980250000000014 3.464331052604869 1065.3161500000003 10.224910575785993 19.194940000000006 33.709380000000017 15.705700216029824
decision_type=2 2 2 2 2 2 2 2 2 2 2 2 2 2 2 2 2 2 2 2 2 2 2 2 2 2 2 2 2 2 2 2 2 2 2 2 2 2 2 2 2 2 2 2 2 2 2 2 2 2 2 2 2 2 2 2 2 2 2 2 2 2 2 2 2 2 2 2 2 2 2 2 2 2 2 2 2 2 2 2 2 2 2
left_child=1 3 6 4 14 19 16 31 25 11 57 68 28 18 30 32 38 36 -3 20 58 22 -17 54 -25 35 27 -27 -13 55 65 41 37 45 -23 -9 -18 -14 51 -15 48 -7 43 44 -12 70 -10 -48 49 -22 76 -2 -53 -42 62 -16 -26 -6 63 -29 71 -8 77 -5 81 -1 -54 -63 -4 -62 -28 -57 -51 74 -46 -32 -50 -19 -31 80 -67 82 -52
right_child=2 13 9 5 10 7 61 8 46 -11 42 12 15 39 29 21 17 23 -20 -21 40 34 -24 24 56 26 33 59 -30 78 75 -33 -34 -35 -36 -37 -38 -39 -40 -41 53 -43 -44 -45 73 -47 47 -49 50 72 64 52 66 -55 -56 60 -58 -59 -60 -61 69 67 -64 -65 -66 79 -68 -69 -70 -71 -72 -73 -74 -75 -76 -77 -78 -79 -80 -81 -82 -83 -84
leaf_value=-0.54311899247468898 0.16051099755228274 -0.010881820984118162 1.133773345926987 -0.51859452561916231 -0.097189770333362402 -0.094638978704181156 0.22495550902989267 1.7454378563851078 0.044891456427593568 0.35569194592997538 1.3983958627575532 3.3981943996581259 0.96827982373681987 -0.66160108916415761 -0.68784585524790731 1.5634796722436424 0.9988117365914001 0.38731692498356057 -0.42273559506493463 0.82448112424791198 -0.067319047969473286 1.9078496415353585 2.7227441604480673 1.8947855625096246 0.48556620288578506 1.7618774792543359 0.29833587549328233 0.34743524557104816 2.3253914953580654 0.10666541271466244 -0.059180138526097374 0.74883897248384312 0.45577783407891076 0.9431257160648151 1.0121085294434322 0.78612797745446028 1.8564427763284177 1.6710872839123545 -0.10170951692528808 -0.43580345340662974 -0.33284685456649787 0.30280340736575911 -0.072019477670487386 0.051463539874817457 -0.048677695473080186 0.059338440031665829 0.17242941948596574 0.96721030101967953 -0.28355816833981606 0.43797129483930186 0.077276869258949596 1.3985888224484111 0.023682265446231636 0.032690355147022225 0.19976092858432268 -0.54717417021360104 0.94656958547523884 -0.3922637653010963 0.11953843365793218 0.82745213459249967 -0.43933901970356026 -0.0065782902792639779 0.27648782223204638 -0.0042328012555025865 -0.23402469589680303 -0.3793751397335543 0.58862993379832629 -0.54526195249782994 0.48325419787869722 0.10601113187615084 0.64770170284782225 -0.22582044881976523 1.0674254439592492 0.39472239025411715 0.43964769208001109 0.41547731364691809 0.16377184902314049 0.85767398240544634 -0.2922019659050642 -0.052809468038001642 -0.00031595497350971589 0.55441965185792785 0.45764663752542978
leaf_weight=78 80 220 31 168 177 375 32 31 235 39 48 31 62 1057 282 36 58 38 601 34 43 36 39 32 96 44 95 63 49 57 51 34 32 67 48 38 31 56 60 364 139 103 287 394 162 88 98 43 113 36 188 32 36 180 103 488 96 322 38 109 45 37 60 40 43 194 64 73 36 46 130 74 31 72 37 59 42 101 116 161 54 44 60
leaf_count=78 80 220 31 168 177 375 32 31 235 39 48 31 62 1057 282 36 58 38 601 34 43 36 39 32 96 44 95 63 49 57 51 34 32 67 48 38 31 56 60 364 139 103 287 394 162 88 98 43 113 36 188 32 36 180 103 488 96 322 38 109 45 37 60 40 43 194 64 73 36 46 130 74 31 72 37 59 42 101 116 161 54 44 60
internal_value=-0.000834623 -0.152602 0.815561 -0.0229393 -0.207048 0.191408 0.494923 0.350764 0.502956 1.4821 -0.0266713 1.57844 1.71523 -0.497057 -0.36563 1.44963 0.611189 0.735133 -0.312373 -0.0149982 -0.039498 1.75935 2.1663 0.639973 0.884456 0.683517 0.621741 0.877793 2.7411 -0.469687 -0.172507 0.0413275 1.12133 0.476196 1.396 1.21712 1.29754 1.30182 0.330949 -0.603761 0.0399734 -0.00899763 0.103531 0.174195 0.325781 0.376246 0.183611 0.414809 0.128528 0.41784 0.0635808 0.453399 0.630907 -0.126588 0.458635 -0.526843 0.716068 -0.287598 -0.336385 0.651632 -0.457313 -0.231331 0.592625 -0.419679 0.168114 -0.255609 0.385249 -0.364068 0.784241 -0.163668 0.500192 -0.504861 0.729211 0.135798 0.0421165 0.195409 -0.162346 0.729087 -0.160783 -0.200778 -0.296838 0.227333 0.169302
internal_weight=9722 8198 1524 5956 3204 2752 1029 1553 1041 495 1499 456 389 2242 1705 309 887 615 821 1199 1165 159 75 526 224 665 596 216 80 1108 597 512 150 380 84 69 89 118 272 1421 919 478 1000 713 319 313 376 141 600 110 490 212 132 319 302 935 192 499 246 172 653 142 199 208 335 487 100 110 67 91 225 562 67 271 199 110 155 139 173 409 248 292 248
internal_count=9722 8198 1524 5956 3204 2752 1029 1553 1041 495 1499 456 389 2242 1705 309 887 615 821 1199 1165 159 75 526 224 665 596 216 80 1108 597 512 150 380 84 69 89 118 272 1421 919 478 1000 713 319 313 376 141 600 110 490 212 132 319 302 935 192 499 246 172 653 142 199 208 335 487 100 110 67 91 225 562 67 271 199 110 155 139 173 409 248 292 248
is_linear=0
shrinkage=0.0126663


Tree=7
num_leaves=84
num_cat=0
split_feature=2 11 2 1 11 11 11 16 11 2 24 16 19 16 19 11 11 11 15 9 25 21 11 16 16 11 20 15 26 2 23 8 15 0 21 9 11 4 17 12 19 25 16 15 5 4 4 6 11 26 4 8 11 19 18 20 7 17 4 11 4 19 3 8 20 11 4 11 1 8 8 15 26 8 5 8 6 0 0 4 0 4 15
split_gain=7.31914e+06 2.22475e+06 1.97903e+06 1.42814e+06 556870 550003 527937 444385 364722 326586 361837 309432 268455 233540 208188 197152 187200 199987 165984 161755 160477 149837 167014 141693 231552 133196 134958 262416 118870 111692 110954 110768 107756 95464 95088.3 91031.2 87558.8 83877.7 82362.1 81010.2 77555.9 75374.3 80599.1 394981 74702.4 74609.8 73271.6 114709 68502.5 100967 70314.5 66970.1 151256 64809.1 63677.4 63649.3 61983.4 60424.9 56763 55895.6 54937.3 52257.2 52163.5 51936 49690.7 48473.9 44681.2 43293.7 41228.8 41106 40099.9 39941.2 43642.3 39863.8 37228.7 37116.9 35041.6 34996.9 34480.9 33677.1 39984.8 32444 31852.9
threshold=0.32586905175900488 279.50000000000006 0.55952708752523661 0.21175000000000002 129.50000000000003 120.50000000000001 265.50000000000006 54.366477750000008 242.50000000000003 0.71917898409122871 19.292475 54.366477750000008 33.958709898969147 53.724508700000008 51.187379123826325 145.50000000000003 122.50000000000001 141.50000000000003 24.375409250000004 214.14985209241351 0.035622797565869828 5.9952012000000012 24.500000000000004 54.583517100000009 54.612334000000011 139.50000000000003 27.331365755602558 24.303817600000006 110.92605094113112 0.066324679548625101 0.10060393093624991 8.3538388086631361 24.481563840000003 5.3872619704830464 -4.5674132500000004 295.36355882865007 107.50000000000001 34.213205000000052 106.71052631578949 6.5000000000000009 168.66531569626582 0.39544039701388062 54.612334000000011 24.334350000000004 21.074490000000029 25.850770000000015 39.081200000000031 997.91877500000021 33.500000000000007 96.233375801000818 24.101580000000045 5.2448597217871527 67.500000000000014 126.42653954836904 88.40864325988538 40.754870280005726 2415.1687500000003 88.210526315789494 26.388820000000042 187.50000000000003 34.689155000000007 33.958709898969147 0.00075984709122751753 6.7663498662757098 16.642885108868789 105.50000000000001 29.695550000000029 286.50000000000006 0.31375000000000003 4.6952014456955178 5.1482913490153512 24.481563840000003 156.01014707816435 7.146342613752517 15.980250000000014 3.464331052604869 990.22972500000014 3.0846770070575542 4.6107458875024667 33.709380000000017 15.705700216029824 30.713375000000017 24.481563840000003
decision_type=2 2 2 2 2 2 2 2 2 2 2 2 2 2 2 2 2 2 2 2 2 2 2 2 2 2 2 2 2 2 2 2 2 2 2 2 2 2 2 2 2 2 2 2 2 2 2 2 2 2 2 2 2 2 2 2 2 2 2 2 2 2 2 2 2 2 2 2 2 2 2 2 2 2 2 2 2 2 2 2 2 2 2
left_child=1 3 6 4 14 21 16 31 25 13 -11 57 18 30 29 -12 36 35 -3 -17 -21 22 58 55 -25 33 27 -27 53 -1 -4 40 44 -9 -15 -18 51 -14 48 -36 -7 42 43 -13 68 -31 82 -48 49 -24 74 -2 -53 -16 -40 62 -26 78 63 -29 73 -8 75 -5 -47 79 -54 -63 -28 -62 -51 72 -45 -55 -50 -19 -32 -30 -6 80 -52 -20 -10
right_child=2 12 9 5 11 7 61 8 46 10 15 41 37 34 28 19 17 23 81 20 -22 -23 38 24 56 26 32 59 77 45 76 -33 -34 -35 39 -37 -38 -39 54 -41 -42 -43 -44 71 -46 64 47 -49 50 70 65 52 66 60 -56 -57 -58 -59 -60 -61 69 67 -64 -65 -66 -67 -68 -69 -70 -71 -72 -73 -74 -75 -76 -77 -78 -79 -80 -81 -82 -83 -84
leaf_value=-0.34561586051760784 0.15847791170746753 -0.010743976978607713 1.2791934002377956 -0.51202583917621169 0.050436018663033079 -0.093440248021900818 0.22210615231685804 1.7233295067459413 -0.018398689548746249 0.80776628171620257 2.7333003285283932 1.3806833461789774 -0.65322102187279163 1.8631022856470159 -0.67976554298587077 2.5917694844290846 1.6907692223575814 0.38241104046855662 -0.48734042159824409 0.9599575592584525 1.9843517187030906 0.8140379863639815 -0.066466372473424601 1.8707855421511428 0.479415857545477 1.7395609442528519 0.3822034806000108 0.34303451704212384 -0.28124693641800785 -0.30224655196038858 0.66174843395530158 0.73935393014034234 0.9311797732592495 0.77617060733498455 1.5707139093448965 0.88053870507501486 -0.10042122981182203 -0.43028341909728829 -0.3286309022360363 0.89240323610594363 0.29896799197278123 -0.071107251817590464 0.050811687376077636 -0.048061123922564578 0.058586835842485308 -0.077070165022610396 0.17024536923363273 0.95495928970195054 -0.27996652384340326 0.43242380562747651 0.076298056535049036 1.3808738337118147 0.023382297522406802 -0.53836318211301037 0.032276285808050274 0.19723068960144829 0.93458000584117462 -0.3872952322498171 0.11802430735094138 0.81697134267136129 -0.4337742049488994 -0.0064949651083120027 0.27298573139010363 -0.0041791815013226636 0.31267241381862387 -0.23106046438524622 0.58117414887540098 -0.53835547770058079 0.7571562721215227 0.10466835894584191 1.0539050918009383 0.38972270407908427 0.43407895489231257 -0.22296012789109532 0.16169745777489089 0.84681038636322725 0.068692659100975398 0.10722552067912679 -0.30945107520481069 0.54739718286203265 0.4518499296450546 -0.29358207772318079 0.3910335638615296
leaf_weight=295 80 220 31 168 105 375 32 31 199 46 51 48 1057 57 283 32 44 38 384 42 59 34 43 32 96 44 158 63 115 91 31 34 67 38 56 45 60 364 139 57 103 287 394 162 88 98 98 43 113 36 188 32 36 490 180 103 96 322 38 109 45 37 60 40 113 43 64 73 67 46 31 72 37 74 42 101 33 55 72 44 60 217 36
leaf_count=295 80 220 31 168 105 375 32 31 199 46 51 48 1057 57 283 32 44 38 384 42 59 34 43 32 96 44 158 63 115 91 31 34 67 38 56 45 60 364 139 57 103 287 394 162 88 98 98 43 113 36 188 32 36 490 180 103 96 322 38 109 45 37 60 40 113 43 64 73 67 46 31 72 37 74 42 101 33 55 72 44 60 217 36
internal_value=-0.000824051 -0.150669 0.805231 -0.0226488 -0.204425 0.188983 0.488654 0.346321 0.496585 1.46333 1.81255 -0.0263335 -0.490762 1.16023 -0.360999 2.06375 0.603448 0.725821 -0.308416 1.807 1.55837 -0.0148082 -0.0389977 0.631867 0.873253 0.67486 0.613866 0.866675 -0.463738 -0.170322 0.657222 0.040804 0.470164 1.20171 1.44132 1.2811 0.326757 -0.596114 0.0394671 1.22856 -0.00888366 0.10222 0.171988 0.321655 0.37148 0.000909505 0.181285 0.409555 0.1269 0.412548 0.0627755 0.447656 0.622916 -0.51959 -0.124984 0.452826 0.706998 -0.283955 -0.332124 0.643378 -0.450385 -0.2284 0.585119 -0.414363 0.131655 0.165985 0.380369 -0.359457 0.493856 -0.161594 0.719975 0.134078 0.041583 -0.496981 -0.16029 0.719852 0.355954 -0.155565 -0.0959587 0.224454 0.167157 -0.417381 0.0443228
internal_weight=9722 8198 1524 5956 3204 2752 1029 1553 1041 495 230 1499 2242 265 1705 184 887 615 821 133 101 1199 1165 526 224 665 596 216 1108 597 95 512 380 69 170 89 272 1421 919 113 478 1000 713 319 313 302 376 141 600 110 490 212 132 938 319 302 192 499 246 172 655 142 199 208 211 335 100 110 225 91 67 271 199 564 155 139 64 170 177 292 248 601 235
internal_count=9722 8198 1524 5956 3204 2752 1029 1553 1041 495 230 1499 2242 265 1705 184 887 615 821 133 101 1199 1165 526 224 665 596 216 1108 597 95 512 380 69 170 89 272 1421 919 113 478 1000 713 319 313 302 376 141 600 110 490 212 132 938 319 302 192 499 246 172 655 142 199 208 211 335 100 110 225 91 67 271 199 564 155 139 64 170 177 292 248 601 235
is_linear=0
shrinkage=0.0126663


Tree=8
num_leaves=84
num_cat=0
split_feature=2 11 2 1 11 11 11 16 11 11 16 11 11 19 19 16 11 11 15 21 11 15 1 16 16 6 11 20 15 26 2 0 8 15 11 0 11 1 11 4 17 19 25 16 15 5 4 6 11 26 4 8 11 18 20 7 17 4 11 19 8 8 20 3 8 11 18 4 11 11 21 8 15 26 20 5 8 0 24 0 4 0 2
split_gain=7.1349e+06 2.16875e+06 1.92921e+06 1.39219e+06 542852 536158 514648 433199 355541 321769 301643 300243 635147 261698 202948 187316 182487 194953 161806 146065 162810 142212 151384 138127 225723 132788 129843 131561 255811 115933 109054 108307 107980 105044 99882 93061 89457.8 87044.2 85354.7 81766.3 80288.9 75603.6 73476.9 78570.3 385038 72822 71427.2 111821 66778.1 98425.8 68544.5 65284.3 147448 62074.5 62047.1 60423.1 58903.9 55334.1 54488.5 54437.7 54386.1 52920.3 51038.5 50850.4 50628.7 47253.7 46383.4 43556.4 42748.3 42317.4 40599.2 39090.5 38935.8 42543.8 36711 36291.6 36182.5 35236.5 36429.9 33613 32829.4 38978.3 32751.7
threshold=0.32586905175900488 279.50000000000006 0.55952708752523661 0.21175000000000002 129.50000000000003 120.50000000000001 265.50000000000006 54.366477750000008 242.50000000000003 234.50000000000003 54.366477750000008 122.50000000000001 145.50000000000003 33.958709898969147 51.187379123826325 54.436050365000007 122.50000000000001 141.50000000000003 24.375409250000004 5.9952012000000012 24.500000000000004 24.303817600000006 0.97200000000000009 54.583517100000009 54.612334000000011 993.5866000000002 139.50000000000003 27.331365755602558 24.303817600000006 96.743308948145526 0.10184842499638296 5.2885525531768085 8.3538388086631361 24.481563840000003 180.50000000000003 5.3872619704830464 134.50000000000003 0.92575000000000018 107.50000000000001 34.213205000000052 106.71052631578949 168.66531569626582 0.39544039701388062 54.612334000000011 24.334350000000004 21.074490000000029 39.081200000000031 997.91877500000021 33.500000000000007 96.233375801000818 24.101580000000045 5.2448597217871527 67.500000000000014 88.40864325988538 40.754870280005726 2415.1687500000003 88.210526315789494 26.388820000000042 187.50000000000003 126.42653954836904 7.4685626652995145 6.4662704568763951 19.003376425973673 0.00075984709122751753 6.7663498662757098 105.50000000000001 1.673434925026271 29.695550000000029 85.500000000000014 286.50000000000006 -1.6162566999999997 5.1482913490153512 24.481563840000003 156.01014707816435 16.642885108868789 15.980250000000014 3.464331052604869 10.224910575785993 19.194940000000006 4.6107458875024667 33.709380000000017 15.705700216029824 0.066324679548625101
decision_type=2 2 2 2 2 2 2 2 2 2 2 2 2 2 2 2 2 2 2 2 2 2 2 2 2 2 2 2 2 2 2 2 2 2 2 2 2 2 2 2 2 2 2 2 2 2 2 2 2 2 2 2 2 2 2 2 2 2 2 2 2 2 2 2 2 2 2 2 2 2 2 2 2 2 2 2 2 2 2 2 2 2 2
left_child=1 3 6 4 14 19 16 32 26 11 56 68 25 18 30 31 38 36 -3 20 57 22 -17 54 -25 -13 35 28 -28 59 66 37 41 45 -23 -9 -18 -14 51 -15 48 -7 43 44 -12 70 -10 -48 49 -22 75 -2 -53 -42 63 -26 79 64 -30 -16 -61 -31 -8 76 -5 80 -1 -54 -4 -64 -29 -51 73 -46 -32 -50 -19 78 -68 -6 81 -52 -79
right_child=2 13 9 5 10 7 62 8 46 -11 42 12 15 39 29 21 17 23 -20 -21 40 34 -24 24 55 -27 27 33 58 61 74 -33 -34 -35 -36 -37 -38 -39 -40 -41 53 -43 -44 -45 72 -47 47 -49 50 71 65 52 67 -55 -56 -57 -58 -59 -60 60 -62 -63 69 -65 -66 -67 77 -69 -70 -71 -72 -73 -74 -75 -76 -77 -78 82 -80 -81 -82 -83 -84
leaf_value=-0.53258787524912587 0.15647057622524746 -0.010607899408400082 1.100871692386473 -0.50554033525621944 0.049797180688899351 -0.092256700793874699 0.16474206503965735 1.7015012295053087 0.043761434799141484 0.34053317782065334 1.3631951042994848 3.3287941723458641 0.94291384953621671 -0.64494710125375121 -0.67687675082919063 1.5251981895729565 0.9712914548104894 0.37756729179403065 -0.41209439231859396 0.80372709396793407 -0.065624484246409376 1.8630036050275449 2.6642366680241638 1.8470895326790404 0.47334341390815415 2.2695474246084717 1.7175270682751198 0.28856611118985509 0.33868952670767016 -0.28958423063853 -0.056839172288306899 0.43903805609660734 0.72998900892319618 0.91938513454979609 0.98040667554771144 0.766339375427327 1.8141609882174028 1.6318392025760096 -0.099149259995108471 -0.42483330375799228 -0.32446834543483943 0.29518116331992245 -0.070206585692290824 0.050168088613310742 -0.047452366270483992 0.057844757861774156 0.16808898896283811 0.94286345433954455 -0.27642037684984028 0.42694657786366158 0.075331640698382815 1.3633832043570697 0.023086127362789224 0.03186745987803017 0.19473250339299855 0.92274230895151188 -0.38238960031426544 0.11652937737651115 0.80662330669670446 -0.49714160815288166 -0.079432144554399287 0.23775166477917348 -0.007528055048517837 0.26952800521422809 -0.0041262594457021637 -0.22813377187078596 -0.37126293152923484 0.57381279315056499 0.45919537890619871 -0.5534934480329543 0.63304912565617233 1.0405559454412669 0.38478634845387927 0.4285807614330529 0.40717841165642027 0.15964934198441524 0.83608440524874816 -0.18702627937092103 0.0007071802053108489 -0.30553145941461524 0.54046367276816065 0.44612664321740092 0.18790775312919347
leaf_weight=78 80 220 31 168 105 375 39 31 235 39 48 31 62 1057 265 36 58 38 601 34 43 36 39 32 96 49 44 95 63 201 51 32 34 67 48 38 31 56 60 364 139 103 287 394 162 88 98 43 113 36 188 32 36 180 103 96 322 38 109 551 55 36 34 60 40 43 194 64 36 69 130 31 72 37 59 42 101 102 54 72 44 60 59
leaf_count=78 80 220 31 168 105 375 39 31 235 39 48 31 62 1057 265 36 58 38 601 34 43 36 39 32 96 49 44 95 63 201 51 32 34 67 48 38 31 56 60 364 139 103 287 394 162 88 98 43 113 36 188 32 36 180 103 96 322 38 109 551 55 36 34 60 40 43 194 64 36 69 130 31 72 37 59 42 101 102 54 72 44 60 59
internal_value=-0.000813613 -0.14876 0.795032 -0.0223619 -0.201836 0.186589 0.482465 0.341934 0.490295 1.44479 -0.0259999 1.53924 1.67412 -0.484545 -0.356427 1.4137 0.595804 0.716628 -0.30451 -0.0146206 -0.0385037 1.7166 2.1175 0.623864 0.862192 2.68001 0.666312 0.60609 0.855697 -0.457864 -0.168164 1.09262 0.0402872 0.464209 1.35866 1.18648 1.26488 1.26986 0.322618 -0.588563 0.0389672 -0.00877114 0.100925 0.16981 0.317581 0.366775 0.178989 0.404368 0.125293 0.407322 0.0619803 0.441986 0.615026 -0.123401 0.44709 0.698043 -0.280359 -0.327918 0.635229 -0.525449 -0.459231 -0.209483 -0.225507 0.577707 -0.409115 0.163882 -0.249525 0.375551 0.75609 -0.373272 0.487601 0.710855 0.132379 0.0410563 0.192043 -0.15826 0.710734 -0.195543 -0.290269 -0.0947433 0.221611 0.16504 -0.0496281
internal_weight=9722 8198 1524 5956 3204 2752 1029 1553 1041 495 1499 456 389 2242 1705 309 887 615 821 1199 1165 159 75 526 224 80 665 596 216 1108 597 150 512 380 84 69 89 118 272 1421 919 478 1000 713 319 313 376 141 600 110 490 212 132 319 302 192 499 246 172 871 606 237 142 199 208 335 487 100 67 103 225 67 271 199 110 155 139 409 248 177 292 248 161
internal_count=9722 8198 1524 5956 3204 2752 1029 1553 1041 495 1499 456 389 2242 1705 309 887 615 821 1199 1165 159 75 526 224 80 665 596 216 1108 597 150 512 380 84 69 89 118 272 1421 919 478 1000 713 319 313 376 141 600 110 490 212 132 319 302 192 499 246 172 871 606 237 142 199 208 335 487 100 67 103 225 67 271 199 110 155 139 409 248 177 292 248 161
is_linear=0
shrinkage=0.0126663


Tree=9
num_leaves=84
num_cat=0
split_feature=2 11 1 2 11 11 11 16 16 19 11 18 11 21 20 1 10 11 25 2 11 16 20 8 20 4 21 16 15 11 15 4 26 26 15 18 18 24 9 25 16 15 17 4 6 18 20 15 11 21 11 11 4 11 2 26 21 26 3 21 17 4 11 15 6 0 22 26 17 21 26 18 5 11 4 8 19 6 0 8 17 3 24
split_gain=6.91331e+06 2.6018e+06 1.78395e+06 981792 684643 538142 463286 453129 311362 290767 267956 239158 238345 214425 180703 179905 251568 174069 172731 167933 169879 151691 135476 123442 120086 106200 105803 94897.2 159379 93559.3 109731 92839.3 90873.3 90482.4 87329.5 84988.4 103611 82515.9 102890 77725.1 137474 125631 77464.4 74293.7 69139.5 64806.1 64504.3 441792 64365.8 106886 77984.6 214039 114017 75701 63964 62858.9 59969.2 60214.4 58331.2 64772.8 54239.2 54204.4 50308.6 59779.5 49864.7 49582.8 47502.4 42719.5 42255.3 53208.6 42079 40971.1 43435.2 46485 40211.7 39826.4 38298 37880.5 36253.5 36047.2 35834 34482.5 34451.8
threshold=0.4123660210249474 279.50000000000006 0.21175000000000002 0.59434584322003114 120.50000000000001 129.50000000000003 242.50000000000003 54.366477750000008 54.366477750000008 51.187379123826325 229.50000000000003 17.905896076637021 272.50000000000006 5.9952012000000012 34.849134470807819 0.89650000000000019 33.156934828286552 24.500000000000004 0.2054000303041473 0.24763379384912759 139.50000000000003 54.366477750000008 40.754870280005726 8.7151883456131944 22.633535304420125 38.13955000000005 -6.9379804999999992 54.612334000000011 24.334350000000004 122.50000000000001 24.303817600000006 28.984160000000006 145.05455507564889 96.743308948145526 24.303817600000006 41.849922424932721 88.40864325988538 29.455789999999983 288.30262456777962 0.39544039701388062 54.612334000000011 24.334350000000004 122.50000000000001 34.530300000000047 996.46965000000012 88.40864325988538 27.331365755602558 24.303817600000006 33.500000000000007 -4.8388138499999993 51.500000000000007 57.500000000000007 25.775050000000025 107.50000000000001 0.21649027500253545 62.724874844544999 -2.4415588499999998 111.53774238652328 0.00019151889328609394 -1.6162566999999997 88.210526315789494 26.917470000000041 217.50000000000003 24.411757650000002 967.0725000000001 4.6107458875024667 4.0565262499999992 89.0060581979739 5.0000000000000009 -4.4400023499999985 73.743039026915838 1.673434925026271 18.932885000000031 242.50000000000003 23.501000000000037 5.4095092810218466 126.42653954836904 1015.0072250000002 3.9143940043356973 7.5247570956628289 88.210526315789494 0.0013355559618653324 27.700670000000006
decision_type=2 2 2 2 2 2 2 2 2 2 2 2 2 2 2 2 2 2 2 2 2 2 2 2 2 2 2 2 2 2 2 2 2 2 2 2 2 2 2 2 2 2 2 2 2 2 2 2 2 2 2 2 2 2 2 2 2 2 2 2 2 2 2 2 2 2 2 2 2 2 2 2 2 2 2 2 2 2 2 2 2 2 2
left_child=1 2 5 12 13 14 7 23 60 18 11 -5 21 17 31 37 22 61 -3 39 -21 26 32 54 25 -8 -2 28 -22 -23 64 56 -17 45 -27 48 -37 38 -13 40 41 -9 -24 76 -32 -16 47 -10 49 -19 77 -52 -53 67 81 -33 57 -1 59 -29 65 70 63 -43 -31 -7 -35 -54 -57 -70 75 -48 73 -73 -51 -4 -11 -50 -49 -47 -56 -6 -26
right_child=3 9 4 10 6 8 24 19 46 43 -12 15 -14 -15 33 16 -18 35 -20 20 27 29 42 -25 82 34 -28 58 -30 30 44 55 -34 66 -36 36 -38 -39 -40 -41 -42 62 -44 -45 -46 79 71 78 50 74 51 52 53 -55 80 68 -58 -59 -60 -61 -62 -63 -64 -65 -66 -67 -68 -69 69 -71 -72 72 -74 -75 -76 -77 -78 -79 -80 -81 -82 -83 -84
leaf_value=-0.43223758465060885 1.0142838416023332 -0.0098614768872372378 -0.4326134877932139 0.75891841352876954 -0.15942741686160974 0.077098899651668454 0.03483591078692333 1.5686720321624414 1.3974873559814347 -0.75586778061211124 0.49607991279035751 1.1125565148325074 -0.39442763459609709 0.95223955578034447 -0.67387670378515663 2.7768800833921818 1.133489838360167 1.0469509420843586 -0.40203714820372966 1.6260128667866978 1.8650358086702841 0.54284210366264118 1.2772041745645659 0.85215955955794642 -0.038454366137898904 1.1938408302274512 0.37019898558568554 0.45113263968944683 0.79141212856506737 1.04082950035434 0.59013760917921831 -0.30754218085665819 1.951770973968431 -0.32635430591920034 0.40847792207182337 -0.42198393234295367 0.043661659660793724 0.99068536601769164 2.099665457692276 0.27503445426488426 0.36297061720027241 0.21059515937133544 2.1526687442226042 -0.42673161200510096 1.3008441052387694 -0.46023801332430009 -0.23250862407615455 0.40329931556603282 -0.031383500095714403 -0.068703049282920384 1.0404771787502165 -0.28922944950415724 0.56682276258657793 -0.16636779882263825 0.43910079542866043 -0.15077680791501874 0.046566210559156766 0.014609986964835521 0.31980317677023085 1.073110694299179 -0.37424057495133545 0.1729535504035194 1.0354433271900776 0.78037560530109173 1.6680235841101392 -0.33685185394196715 0.12091940788848632 0.19335582939583867 0.59331406166835066 0.058516640375355138 -0.50888396744960784 0.11180908183363568 0.2848621163348245 -0.15046107885810203 0.49385358531184326 0.16318626125140284 -0.59081637906542217 -0.46022946794959102 -0.0032579684127838552 -0.033334947976829253 0.11093237668850904 0.2650919655414043 0.35098655525832778
leaf_weight=320 52 241 36 49 132 107 88 33 47 337 40 32 32 38 272 61 48 31 714 47 31 67 31 41 410 31 192 48 78 33 70 79 33 160 85 112 243 60 36 122 163 45 34 330 32 476 75 42 155 47 42 96 79 63 102 64 67 57 65 61 313 32 57 86 53 82 50 130 46 85 146 332 132 161 36 36 682 42 217 34 112 40 40
leaf_count=320 52 241 36 49 132 107 88 33 47 337 40 32 32 38 272 61 48 31 714 47 31 67 31 41 410 31 192 48 78 33 70 79 33 160 85 112 243 60 36 122 163 45 34 330 32 476 75 42 155 47 42 96 79 63 102 64 67 57 65 61 313 32 57 86 53 82 50 130 46 85 146 332 132 161 36 36 682 42 217 34 112 40 40
internal_value=0.0045845 -0.106461 0.0231947 1.02818 0.231025 -0.188704 0.385364 0.527058 -0.0142812 -0.472186 1.48267 1.58544 0.665271 0.0141129 -0.342523 1.70633 1.93715 -0.0127716 -0.303069 0.698522 0.920819 0.733228 2.17976 0.19136 0.111725 0.366643 0.507463 0.803702 1.09675 0.949254 1.09409 -0.189474 2.48721 -0.453298 0.618359 0.057181 -0.103246 1.33305 1.63514 0.553545 0.642031 0.847853 1.73514 -0.591909 0.813104 -0.515986 0.114288 0.267691 0.136171 0.412326 0.0843065 0.183825 0.0860545 0.218508 0.121171 -0.00612842 -0.30262 -0.364677 0.620123 0.799212 -0.271931 -0.313848 0.721326 0.584649 1.42736 -0.102499 -0.219861 0.334523 0.115983 0.246308 -0.385305 0.0472286 0.0807971 0.026159 0.175297 -0.134714 -0.645402 -0.122813 0.0626702 -0.431778 0.267349 -0.060702 -0.0038374
internal_weight=9758 8803 6499 955 3281 3218 1917 1263 1508 2304 424 384 531 1364 1710 335 207 1326 955 836 330 499 159 427 654 204 244 283 109 255 188 718 94 992 116 1076 355 128 68 506 384 221 65 1349 102 782 1006 306 721 114 607 410 368 272 386 274 444 377 174 109 502 250 188 131 86 189 210 209 195 131 218 700 625 493 83 72 1019 197 259 510 214 172 450
internal_count=9758 8803 6499 955 3281 3218 1917 1263 1508 2304 424 384 531 1364 1710 335 207 1326 955 836 330 499 159 427 654 204 244 283 109 255 188 718 94 992 116 1076 355 128 68 506 384 221 65 1349 102 782 1006 306 721 114 607 410 368 272 386 274 444 377 174 109 502 250 188 131 86 189 210 209 195 131 218 700 625 493 83 72 1019 197 259 510 214 172 450
is_linear=0
shrinkage=0.0126663


Tree=10
num_leaves=84
num_cat=0
split_feature=2 11 1 2 11 11 11 16 16 19 11 18 11 21 20 1 10 11 25 2 11 16 9 25 8 20 4 21 16 15 11 15 4 26 15 18 18 24 9 25 16 15 4 6 15 18 20 15 11 21 11 11 4 11 2 26 21 26 3 21 17 4 11 3 6 0 22 26 17 21 26 18 5 11 4 8 19 6 0 8 17 6 15
split_gain=6.73929e+06 2.53631e+06 1.73904e+06 957078 667409 524596 451624 441723 303524 283448 261211 233138 232346 209027 176155 175376 245235 169687 168383 163705 165603 147873 133114 140448 120335 117064 103527 103140 92508.5 155367 91204.2 106969 90502.3 88204.7 85131.2 82849 101003 80438.8 100300 75768.6 134013 122469 72452.3 67399.1 63589 63174.8 62880.6 430671 62745.6 104195 76021.6 208651 111146 73795.4 62353.9 61276.6 58459.7 58698.6 56862.8 63142.3 52873.8 52840 49042.2 58616 48609.5 48334.7 46306.6 41687.5 41191.6 51869.2 41019.8 39939.8 42341.9 45314.8 39199.5 38823.9 38518.3 36926.9 35341 35142.5 34932 34257.4 34256.8
threshold=0.4123660210249474 279.50000000000006 0.21175000000000002 0.59434584322003114 120.50000000000001 129.50000000000003 242.50000000000003 54.366477750000008 54.366477750000008 51.187379123826325 229.50000000000003 17.905896076637021 272.50000000000006 5.9952012000000012 34.849134470807819 0.89650000000000019 33.156934828286552 24.500000000000004 0.2054000303041473 0.24763379384912759 139.50000000000003 54.366477750000008 289.20307146510225 0.16640601561518734 8.7151883456131944 22.633535304420125 38.13955000000005 -6.9379804999999992 54.612334000000011 24.334350000000004 122.50000000000001 24.303817600000006 28.984160000000006 96.743308948145526 24.303817600000006 41.849922424932721 88.40864325988538 29.455789999999983 288.30262456777962 0.39544039701388062 54.612334000000011 24.334350000000004 34.458765000000035 996.46965000000012 23.935356800000005 88.40864325988538 27.331365755602558 24.303817600000006 33.500000000000007 -4.8388138499999993 51.500000000000007 57.500000000000007 25.775050000000025 107.50000000000001 0.21649027500253545 62.724874844544999 -2.4415588499999998 111.53774238652328 0.00019151889328609394 -1.6162566999999997 88.210526315789494 26.917470000000041 217.50000000000003 0.00086926188252766463 967.0725000000001 4.6107458875024667 4.0565262499999992 83.736016868418787 5.0000000000000009 -4.4400023499999985 73.743039026915838 1.673434925026271 18.932885000000031 242.50000000000003 23.501000000000037 5.4095092810218466 126.42653954836904 1015.0072250000002 3.9143940043356973 6.9619292476602626 88.210526315789494 971.54182500000013 24.443219900000003
decision_type=2 2 2 2 2 2 2 2 2 2 2 2 2 2 2 2 2 2 2 2 2 2 2 2 2 2 2 2 2 2 2 2 2 2 2 2 2 2 2 2 2 2 2 2 2 2 2 2 2 2 2 2 2 2 2 2 2 2 2 2 2 2 2 2 2 2 2 2 2 2 2 2 2 2 2 2 2 2 2 2 2 2 2
left_child=1 2 5 12 13 14 7 24 60 18 11 -5 21 17 32 37 22 61 -3 39 -21 27 44 -24 54 26 -8 -2 29 -22 -23 64 56 45 -28 48 -37 38 -13 40 41 -9 76 -33 -17 -16 47 -10 49 -19 77 -52 -53 67 -6 -34 57 -1 59 -30 65 70 63 -43 -32 -7 -35 -54 -57 -70 75 -48 73 82 -51 -4 -11 -50 -49 -47 -56 -38 -73
right_child=3 9 4 10 6 8 25 19 46 42 -12 15 -14 -15 33 16 -18 35 -20 20 28 30 23 -25 -26 -27 34 -29 58 -31 31 43 55 66 -36 36 81 -39 -40 -41 -42 62 -44 -45 -46 79 71 78 50 74 51 52 53 -55 80 68 -58 -59 -60 -61 -62 -63 -64 -65 -66 -67 -68 -69 69 -71 -72 72 -74 -75 -76 -77 -78 -79 -80 -81 -82 -83 -84
leaf_value=-0.42676272331783838 1.0014365828819891 -0.0097365685817983674 -0.42713386243541551 0.7493056824502895 -0.059933107627227547 0.076122340565570434 0.034394667934221732 1.548802666455489 1.3797863049640349 -0.75014441455398784 0.48979639798996966 1.098464489340893 -0.38943167691390723 0.94017816217036609 -0.66534116810762756 2.9850760240335013 1.1191326697999426 1.0336899327324063 -0.39694480873895899 1.6054172496380363 1.8414126279781244 0.53596628190515938 1.3482190695912195 2.3764179037440014 0.84136583264670206 -0.0037887858754035819 1.1787192271176694 0.36550991655671899 0.44541844498246985 0.78138783280986968 1.0276460174433382 0.58266273496097676 -0.30364674507323369 -0.32222059245841994 0.40330400372312386 -0.41663893072154373 0.42249184156024089 0.97813699622793882 2.0730704004640312 0.27155077547134865 0.35837310872417277 0.38343208090974162 -0.42387009012057769 1.2843671731634294 2.2287693726786082 -0.46684678803563107 -0.22956358820647688 0.39819098776004797 -0.030985987492435783 -0.067832833435761922 1.0272981430433354 -0.28556596868535444 0.61218775895783972 -0.16426052695656035 0.43353899464457446 -0.14886702112076372 0.045976385256100823 0.01442493211602114 0.31575244450408091 1.059518313371153 -0.36950031332468714 0.1707628690335965 1.0223280624828486 0.94764048023939107 1.6468958298398308 -0.33258516808025335 0.11938780611934313 0.21676792011682477 0.58579895101732915 0.057775446251415286 -0.50243826480559639 0.16199304551343946 0.2812539620103891 -0.14855528612304381 0.48759826119358912 0.16111928624353325 -0.58353802920064424 -0.4544000426531864 -0.0032167045993560434 -0.1535983899244121 0.10952726985936267 -0.016508736888714813 -0.21042562476106494
leaf_weight=320 52 241 36 49 172 107 88 33 47 331 40 32 32 38 272 31 48 31 714 47 31 67 47 39 41 450 31 192 48 78 33 70 79 160 85 112 33 60 36 122 163 86 338 32 42 444 75 42 155 47 42 96 60 63 102 64 67 57 65 61 313 32 57 45 53 82 50 149 46 85 146 286 132 161 36 36 680 42 217 66 112 210 46
leaf_count=320 52 241 36 49 172 107 88 33 47 331 40 32 32 38 272 31 48 31 714 47 31 67 47 39 41 450 31 192 48 78 33 70 79 160 85 112 33 60 36 122 163 86 338 32 42 444 75 42 155 47 42 96 60 63 102 64 67 57 65 61 313 32 57 45 53 82 50 149 46 85 146 286 132 161 36 36 680 42 217 66 112 210 46
internal_value=0.00452643 -0.105112 0.0229009 1.01515 0.228099 -0.186314 0.380483 0.520382 -0.0141003 -0.466205 1.46389 1.56535 0.656845 0.0139341 -0.338185 1.68472 1.91261 -0.0126098 -0.29923 0.689674 0.909155 0.72394 2.15215 1.8145 0.188936 0.11031 0.361999 0.501035 0.793522 1.08286 0.93723 1.08023 -0.187074 -0.447557 0.610527 0.0564567 -0.101938 1.31617 1.61443 0.546534 0.633898 0.837114 -0.584412 0.802805 2.54994 -0.50945 0.11284 0.2643 0.134446 0.407103 0.0832386 0.181496 0.0849645 0.21574 0.119636 -0.00605079 -0.298787 -0.360058 0.612268 0.789089 -0.268487 -0.309872 0.71219 0.577244 1.40928 -0.1012 -0.217076 0.330286 0.114514 0.243188 -0.380424 0.0466304 0.0797737 0.0258276 0.173077 -0.133007 -0.638085 -0.121257 0.0618764 -0.426309 0.263963 0.0431086 0.110393
internal_weight=9758 8803 6499 955 3281 3218 1917 1263 1508 2304 424 384 531 1364 1710 335 207 1326 955 836 330 499 159 86 427 654 204 244 283 109 255 188 718 992 116 1076 355 128 68 506 384 221 1349 102 73 782 1006 306 721 114 607 410 368 272 386 274 444 377 174 109 502 250 188 131 86 189 210 209 195 131 218 700 625 493 83 72 1011 197 259 510 214 243 332
internal_count=9758 8803 6499 955 3281 3218 1917 1263 1508 2304 424 384 531 1364 1710 335 207 1326 955 836 330 499 159 86 427 654 204 244 283 109 255 188 718 992 116 1076 355 128 68 506 384 221 1349 102 73 782 1006 306 721 114 607 410 368 272 386 274 444 377 174 109 502 250 188 131 86 189 210 209 195 131 218 700 625 493 83 72 1011 197 259 510 214 243 332
is_linear=0
shrinkage=0.0126663


Tree=11
num_leaves=84
num_cat=0
split_feature=2 11 1 2 11 11 11 16 16 19 11 18 11 21 20 1 10 11 25 2 11 16 20 8 20 4 21 16 15 11 11 15 4 26 15 18 18 24 9 17 18 16 15 4 6 26 18 20 15 11 21 11 11 4 11 2 21 3 21 26 17 4 11 15 6 0 22 17 17 8 26 26 18 5 11 4 8 19 6 8 0 17 20
split_gain=6.56964e+06 2.47247e+06 1.69527e+06 932986 650608 511391 440256 430604 295884 276313 254636 227269 226497 203766 171720 170962 239062 165416 164145 159584 161434 144150 131048 117305 114117 100921 100544 90179.8 151456 90066.9 88908.4 104277 88251.1 85984.4 82988.3 80763.5 98460.1 78413.9 97774.9 74537.8 74151.9 142935 119386 70628.8 65702.5 64565.5 61584.5 61297.8 419830 61166.2 101573 74107.9 203399 108349 71937.8 60784.3 58749.7 55431.5 61552.9 55118.2 51542.9 51509.9 47807.7 57602.2 47385.9 47118 45141 41279.5 48534.6 50081 40789.4 39987.2 38934.4 41276 44174.2 38212.7 37846.6 36403.9 35997.4 34525.5 34451.4 34052.7 33706.6
threshold=0.4123660210249474 279.50000000000006 0.21175000000000002 0.59434584322003114 120.50000000000001 129.50000000000003 242.50000000000003 54.366477750000008 54.366477750000008 51.187379123826325 229.50000000000003 17.905896076637021 272.50000000000006 5.9952012000000012 34.849134470807819 0.89650000000000019 33.156934828286552 24.500000000000004 0.2054000303041473 0.24763379384912759 139.50000000000003 54.366477750000008 40.754870280005726 8.7151883456131944 22.633535304420125 38.13955000000005 -6.9379804999999992 54.612334000000011 24.334350000000004 178.50000000000003 122.50000000000001 24.303817600000006 28.719265000000011 96.743308948145526 24.303817600000006 41.849922424932721 88.40864325988538 29.455789999999983 288.30262456777962 122.50000000000001 1.673434925026271 54.612334000000011 24.334350000000004 34.530300000000047 996.46965000000012 62.724874844544999 88.40864325988538 27.331365755602558 24.303817600000006 33.500000000000007 -4.8388138499999993 51.500000000000007 57.500000000000007 25.775050000000025 107.50000000000001 0.21649027500253545 -2.4415588499999998 0.00019151889328609394 -1.6162566999999997 111.53774238652328 88.210526315789494 26.917470000000041 217.50000000000003 24.411757650000002 967.0725000000001 4.6107458875024667 4.0565262499999992 5.0000000000000009 13.000000000000002 5.7010303298667369 89.0060581979739 73.743039026915838 1.673434925026271 18.932885000000031 242.50000000000003 23.501000000000037 5.4095092810218466 126.42653954836904 1015.0072250000002 7.5247570956628289 3.9143940043356973 88.210526315789494 40.754870280005726
decision_type=2 2 2 2 2 2 2 2 2 2 2 2 2 2 2 2 2 2 2 2 2 2 2 2 2 2 2 2 2 2 2 2 2 2 2 2 2 2 2 2 2 2 2 2 2 2 2 2 2 2 2 2 2 2 2 2 2 2 2 2 2 2 2 2 2 2 2 2 2 2 2 2 2 2 2 2 2 2 2 2 2 2 2
left_child=1 2 5 12 13 14 7 23 60 18 11 -5 21 17 32 37 22 61 -3 40 -21 26 29 55 25 -8 -2 28 -22 -17 -23 64 56 46 -27 49 -37 38 -13 -24 -9 42 -42 77 -33 -34 -16 48 -10 50 -19 78 -53 -54 70 -6 59 58 -29 -1 65 71 63 -44 -32 -7 -35 -47 69 -69 -55 76 -49 74 -74 -52 -4 -11 -51 -48 -50 -57 -28
right_child=3 9 4 10 6 8 24 19 47 43 -12 15 -14 -15 33 16 -18 35 -20 20 27 30 39 -25 -26 34 82 57 -30 -31 31 44 45 66 -36 36 -38 -39 -40 -41 41 -43 62 -45 -46 67 79 72 80 51 75 52 53 54 -56 81 -58 -59 -60 -61 -62 -63 -64 -65 -66 -67 -68 68 -70 -71 -72 -73 73 -75 -76 -77 -78 -79 -80 -81 -82 -83 -84
leaf_value=-0.42849987693697528 0.98875204562889296 -0.0096132471224093623 -0.42172363327582529 0.7398147304979128 -0.059173977968443273 0.075158145751181682 0.033959008301766 0.14711854117503834 1.3623094886696479 -0.7368656995360634 0.48359247768777452 1.0845509626047976 -0.38449900557107941 0.92826953068487361 -0.65691371091377726 2.8110978854161637 1.1049573525300387 1.0205968589906023 -0.39191697603282549 1.585082496526808 1.8180887009190483 0.52917755764344521 1.2383961485526329 0.83070878746145727 -0.003740799010249523 1.1637891941837162 0.52018117712964551 0.4397766180985741 0.7714905118047406 2.0267693530060491 1.014629499347256 0.57528252576867267 -0.30548950902010286 -0.31813923564478735 0.39819561511064583 -0.41136164907971851 0.042562595719932581 0.96574757936798561 2.0468121321599542 2.0971639305931067 1.5291850187043163 0.36939239192537837 0.20275339485762361 -0.41595759741487359 1.2680989530950453 -0.15225346792321234 -0.44876197716423899 -0.22665585242612901 0.39314735736431594 -0.030593506214581491 -0.066973638647570513 1.0142860424002216 -0.2819488997176765 0.55309359336119168 -0.16217994593901502 0.42804764232028791 0.04539403540512147 0.31175302004146938 1.0460980914177234 0.0066998696107380311 -0.36482010239336427 0.16859992243419347 1.0093788948632383 0.76206119436065078 1.6260356863173608 -0.32837253472650885 0.11787559618571587 0.1820275561022893 -0.038777858612393273 0.83787853971708304 0.18816106124227522 -0.49607421910364619 0.10899459790320515 0.27769149628718698 -0.14667363459467239 0.48142217407889321 0.15907849754674364 -0.5759475360149432 -0.44864446116211337 -0.030967179361621616 -0.0031759621049969678 0.10813996027069116 0.18407371695617616
leaf_weight=309 52 241 36 49 172 107 88 67 47 337 40 32 32 38 272 48 48 31 714 47 31 67 31 41 450 31 101 48 78 46 33 70 85 160 85 112 243 60 36 34 33 218 45 330 32 65 476 75 42 155 47 42 96 79 63 102 67 65 61 55 313 32 57 86 53 82 50 47 59 31 130 146 332 132 161 36 36 682 42 34 217 112 91
leaf_count=309 52 241 36 49 172 107 88 67 47 337 40 32 32 38 272 48 48 31 714 47 31 67 31 41 450 31 101 48 78 46 33 70 85 160 85 112 243 60 36 34 33 218 45 330 32 65 476 75 42 155 47 42 96 79 63 102 67 65 61 55 313 32 57 86 53 82 50 47 59 31 130 146 332 132 161 36 36 682 42 34 217 112 91
internal_value=0.0044691 -0.103781 0.0226109 1.0023 0.22521 -0.183954 0.375664 0.513791 -0.0139217 -0.4603 1.44534 1.54553 0.648525 0.0137576 -0.333901 1.66338 1.88839 -0.0124501 -0.29544 0.680938 0.89764 0.714771 2.12489 0.186543 0.108913 0.357414 0.494689 0.783471 1.06915 2.42728 0.925359 1.06655 -0.184705 -0.441888 0.602794 0.0557416 -0.100647 1.2995 1.59398 1.6876 0.539611 0.599513 0.826511 -0.57701 0.792637 -0.0126183 -0.502998 0.111411 0.260953 0.132743 0.401947 0.0821843 0.179197 0.0838883 0.213007 0.118121 -0.299296 0.604513 0.779094 -0.362742 -0.265086 -0.305947 0.703169 0.569933 1.39143 -0.0999187 -0.214326 0.11062 0.23534 0.442686 0.326102 -0.375606 0.0460398 0.0787632 0.0255005 0.170885 -0.131323 -0.629166 -0.119721 -0.420909 0.0610927 0.260619 0.36088
internal_weight=9758 8803 6499 955 3281 3218 1917 1263 1508 2304 424 384 531 1364 1710 335 207 1326 955 836 330 499 159 427 654 204 244 283 109 94 255 188 718 992 116 1076 355 128 68 65 506 439 221 1349 102 287 782 1006 306 721 114 607 410 368 272 386 431 174 109 364 502 250 188 131 86 189 210 202 137 78 209 218 700 625 493 83 72 1019 197 510 259 214 192
internal_count=9758 8803 6499 955 3281 3218 1917 1263 1508 2304 424 384 531 1364 1710 335 207 1326 955 836 330 499 159 427 654 204 244 283 109 94 255 188 718 992 116 1076 355 128 68 65 506 439 221 1349 102 287 782 1006 306 721 114 607 410 368 272 386 431 174 109 364 502 250 188 131 86 189 210 202 137 78 209 218 700 625 493 83 72 1019 197 510 259 214 192
is_linear=0
shrinkage=0.0126663


Tree=12
num_leaves=84
num_cat=0
split_feature=2 11 2 1 11 11 16 11 11 2 24 16 19 16 1 11 11 11 25 11 15 16 15 2 8 21 11 25 19 11 26 11 19 16 15 4 1 26 4 8 11 26 26 26 11 21 4 6 6 4 25 15 4 22 20 15 26 4 4 8 6 21 15 15 6 11 3 23 11 15 4 19 19 4 11 16 21 4 1 8 17 1 15
split_gain=6.32891e+06 1.93582e+06 1.57108e+06 1.22297e+06 526542 468824 424202 362145 338942 334508 283410 243766 240693 223530 201924 186142 259355 175522 215971 165240 143172 141755 147937 135700 133308 131080 189174 120778 109790 109598 147708 106099 97213.9 97046.9 102409 91195 84973.8 79503.7 76637.8 74457.2 107382 73363.4 71545.3 89420.6 71091.2 70445.4 69981.4 67503.2 65773.6 88685 63902.2 111332 69878.3 60242.2 59475.1 169951 81579.3 55861.5 54305.1 50330 63274.4 49477.5 48951.8 48245.1 215011 50396 45610.3 43211.1 56593.6 43166.3 40944.2 43261 39052.7 38701.3 37891.1 51872.8 38205.4 37046.4 38685.9 36011.1 35504.8 35325.4 39303.2
threshold=0.32586905175900488 279.50000000000006 0.55952708752523661 0.18525000000000003 122.50000000000001 280.50000000000006 54.366477750000008 118.50000000000001 242.50000000000003 0.71917898409122871 18.981075000000008 54.366477750000008 33.958709898969147 53.724508700000008 0.27825000000000005 122.50000000000001 139.50000000000003 145.50000000000003 0.035622797565869828 139.50000000000003 24.375409250000004 54.366477750000008 24.411757650000002 0.89882512403574033 8.3538388086631361 5.9952012000000012 24.500000000000004 0.39544039701388062 51.187379123826325 33.500000000000007 96.233375801000818 223.50000000000003 168.66531569626582 54.612334000000011 24.334350000000004 28.984160000000006 0.56325000000000014 67.382917167723122 33.535675000000033 5.7789981832108497 79.500000000000014 110.92605094113112 143.81529511864721 101.58370367305928 236.50000000000003 -3.9321288999999995 24.939770000000014 992.93937500000004 993.69222500000012 38.763085000000025 0.035622797565869828 23.792940650000002 26.728780000000032 -2.2875747500000001 27.331365755602558 24.303817600000006 124.26707767049784 39.75222000000003 26.917470000000041 5.4909207317990605 992.49597500000016 -6.8773191999999996 24.303817600000006 24.303817600000006 993.30902500000013 236.50000000000003 0.00018695272448178427 0.053720205892210299 51.500000000000007 24.481563840000003 35.700270000000053 126.42653954836904 168.66531569626582 39.622460000000054 107.50000000000001 54.509448700000007 -4.3090821499999992 31.876000000000008 0.26025000000000004 6.7663498662757098 88.210526315789494 0.23225000000000004 24.334350000000004
decision_type=2 2 2 2 2 2 2 2 2 2 2 2 2 2 2 2 2 2 2 2 2 2 2 2 2 2 2 2 2 2 2 2 2 2 2 2 2 2 2 2 2 2 2 2 2 2 2 2 2 2 2 2 2 2 2 2 2 2 2 2 2 2 2 2 2 2 2 2 2 2 2 2 2 2 2 2 2 2 2 2 2 2 2
left_child=1 3 5 7 25 15 24 28 14 13 -11 61 20 32 54 39 36 -12 -19 -16 81 59 33 -20 53 26 58 31 35 30 46 47 -4 34 -23 -1 -17 -13 -14 -2 -41 70 43 -15 -35 -32 -28 66 -10 -50 -31 -52 67 -6 55 -8 -57 -49 79 -18 -61 -9 -44 64 65 -39 -21 -53 -69 -65 71 -30 -55 -33 75 -54 -77 78 -22 -5 -63 -3 -83
right_child=2 12 9 4 6 -7 8 11 48 10 17 37 38 42 19 16 21 18 23 27 77 22 -24 -25 -26 -27 29 -29 41 50 45 73 -34 44 -36 -37 -38 63 -40 40 -42 -43 62 -45 -46 -47 -48 57 49 -51 51 52 74 72 -56 56 -58 -59 -60 60 -62 80 -64 69 -66 -67 -68 68 -70 -71 -72 -73 -74 -75 -76 76 -78 -79 -80 -81 -82 82 -84
leaf_value=-0.33530436238882072 0.077120421233091277 0.12814577190377133 0.09854552695209029 -0.48425270643589929 0.47440551953972743 -0.36020776332927251 1.3745638815401062 0.078182460107724075 -0.057754648536977995 0.65471904126994129 2.5164665342451493 -0.1300614936660785 -0.62215765082369956 1.1382056876852045 1.508811269980832 0.99332178199291665 0.1737451755621075 1.0795685202484844 1.4870937516852767 0.63923925207227106 -0.34570996389685016 1.8083611739651766 0.27261759717165052 2.5205216418069054 0.69566732866855918 0.66997607646117885 -0.4591537639904345 0.2881242056063269 -0.68135828856525027 -0.20005851894136198 1.0503694542249851 0.94432315013440982 0.89930980320350096 0.8599494776199782 0.88778712929622683 0.061962508393445394 1.8246024967886458 0.30384611214574958 -0.42012871737954816 1.0619744755973686 0.25346355358646355 -0.16837826278862747 1.3005711488321285 1.9158032210937583 0.18178799757183364 0.34032899062769251 0.30616911938031927 0.70213939430700401 0.10096011494020378 0.59929196697797349 -0.55057425238671309 -0.16886879756873466 0.54671418086728218 -0.13168308355716715 0.2585668721773926 0.11367905554728092 0.87459025576067551 1.3389247725912727 0.13615023696235523 0.81906848300819701 0.18442291497273713 -0.20505075776067763 0.62998591493054612 -0.032094624122157613 1.2244888906773388 -0.071139943957950605 0.049097043968329576 -0.075493633088493134 0.60124615077287091 0.40680213345645677 -0.056106987421888063 -0.46417323153070872 0.12507977981771629 1.5675786580411679 -0.11856994521353761 0.46909654045828086 0.056833469835982767 -0.22159329316876136 -0.5822236222720315 -0.078440607451239444 -0.45625156564412866 -0.4592900603939532 0.070228523049589139
leaf_weight=306 143 126 43 213 34 100 33 44 180 36 51 299 990 46 43 47 131 61 36 55 261 33 78 47 42 40 41 94 206 292 40 31 56 124 47 133 34 115 433 38 86 119 40 49 31 51 36 77 185 83 50 209 73 430 273 77 32 31 32 59 44 138 31 292 32 115 34 55 31 41 31 515 122 33 51 47 155 159 193 42 261 46 44
leaf_count=306 143 126 43 213 34 100 33 44 180 36 51 299 990 46 43 47 131 61 36 55 261 33 78 47 42 40 41 94 206 292 40 31 56 124 47 133 34 115 433 38 86 119 40 49 31 51 36 77 185 83 50 209 73 430 273 77 32 31 32 59 44 138 31 292 32 115 34 55 31 41 31 515 122 33 51 47 155 159 193 42 261 46 44
internal_value=-0.00680091 -0.144117 0.752626 -0.0251601 0.135737 0.46233 0.275311 -0.228607 0.409261 1.33497 1.68729 -0.0819558 -0.460735 1.02786 0.563413 0.554234 0.673341 1.87791 1.65176 0.76725 -0.289172 0.574288 0.750592 2.07229 0.00634367 -0.0450955 -0.0652668 0.677427 -0.378281 0.0084308 0.306954 0.817636 0.551503 0.909239 1.26752 -0.214948 1.34225 0.0384382 -0.560683 0.274087 0.501233 -0.460603 1.31195 1.53928 0.724317 0.652435 -0.10134 0.672075 0.129516 0.255294 -0.0436481 0.0244173 0.0707129 -0.0430618 0.367927 0.578175 0.337066 0.88492 -0.355692 0.338463 0.547958 -0.324918 1.00778 0.123113 0.251698 0.116353 0.413792 -0.0705325 0.168447 0.0219437 -0.506846 -0.526226 -0.0749348 1.26569 0.198527 0.257334 0.152756 -0.387982 -0.446254 -0.417413 -0.36937 -0.00875426 -0.200414
internal_weight=9737 8246 1491 5994 3347 995 1889 2647 1261 496 231 1337 2252 265 813 895 628 195 144 398 829 547 313 83 628 1458 1418 355 1310 1131 168 261 99 235 80 439 81 894 1423 267 124 871 166 95 155 91 77 197 448 268 963 671 621 586 415 142 109 108 287 234 103 443 71 595 262 230 89 295 86 333 752 721 552 64 326 275 202 613 454 255 399 216 90
internal_count=9737 8246 1491 5994 3347 995 1889 2647 1261 496 231 1337 2252 265 813 895 628 195 144 398 829 547 313 83 628 1458 1418 355 1310 1131 168 261 99 235 80 439 81 894 1423 267 124 871 166 95 155 91 77 197 448 268 963 671 621 586 415 142 109 108 287 234 103 443 71 595 262 230 89 295 86 333 752 721 552 64 326 275 202 613 454 255 399 216 90
is_linear=0
shrinkage=0.0126663


Tree=13
num_leaves=84
num_cat=0
split_feature=2 11 2 1 11 11 4 11 16 2 16 24 20 16 11 11 11 25 26 2 16 15 19 21 11 2 26 20 11 26 19 16 15 8 16 15 6 15 15 1 4 8 11 26 26 4 21 17 11 6 1 20 8 4 4 0 15 15 4 8 6 15 19 15 6 16 9 15 23 11 2 1 1 2 3 15 11 19 10 3 6 11 11
split_gain=6.16959e+06 1.88709e+06 1.53153e+06 1.19268e+06 478055 457370 452871 354315 335017 326088 290120 276482 234785 217904 207080 231985 183812 216360 179421 145227 135895 141347 132298 131837 165773 123826 189625 106723 103104 133064 94766.8 94706.3 336758 92511.6 90869.2 104916 85584.8 151363 90287.4 82834.8 78847.6 72582.9 104679 69744.4 87169.7 68689.7 68030.7 67873.1 67505.6 66944.5 77783.1 66576.4 61287.7 60024.8 53297.2 52693.7 64594.8 50639.5 48015.7 48002.2 57689.9 47719.6 46827.1 46093.5 59420.3 45238.1 44973.2 41335.9 39683 39298.7 39004.1 37562.3 37061.8 36753.2 35593.8 35581.3 35395.6 35049 34186.2 35384.9 33785.7 33750.6 55326.8
threshold=0.32586905175900488 279.50000000000006 0.55952708752523661 0.21175000000000002 122.50000000000001 265.50000000000006 34.361160000000048 243.50000000000003 54.366477750000008 0.71917898409122871 54.366477750000008 19.292475 22.633535304420125 53.724508700000008 122.50000000000001 139.50000000000003 145.50000000000003 0.035622797565869828 109.30155964502904 0.89882512403574033 54.366477750000008 24.411757650000002 51.187379123826325 5.9952012000000012 24.500000000000004 0.24763379384912759 80.674716428155762 14.441971451362512 33.500000000000007 96.233375801000818 168.66531569626582 54.612334000000011 24.334350000000004 8.040203421735761 54.612334000000011 24.334350000000004 981.44715000000008 24.303817600000006 24.481563840000003 0.56325000000000014 38.21279000000002 5.7789981832108497 79.500000000000014 143.81529511864721 101.58370367305928 25.504055000000026 -3.9321288999999995 5.0000000000000009 299.50000000000006 994.85157500000014 0.3907500000000001 22.633535304420125 7.5912002577125595 38.763085000000025 26.388820000000042 8.0682250056290901 24.443219900000003 23.792940650000002 24.101580000000045 5.4909207317990605 993.69222500000012 24.303817600000006 126.42653954836904 23.701353700000002 1013.9315500000001 54.366477750000008 319.04723531210499 24.473993290000003 0.041019227784813983 282.50000000000006 0.12075166381038131 0.2647500000000001 0.15525000000000003 0.067089832391868859 0.00011974867306893025 24.481563840000003 234.50000000000003 168.66531569626582 18.572496488357626 0.00017801390264500009 961.83839999999998 57.500000000000007 53.500000000000007
decision_type=2 2 2 2 2 2 2 2 2 2 2 2 2 2 2 2 2 2 2 2 2 2 2 2 2 2 2 2 2 2 2 2 2 2 2 2 2 2 2 2 2 2 2 2 2 2 2 2 2 2 2 2 2 2 2 2 2 2 2 2 2 2 2 2 2 2 2 2 2 2 2 2 2 2 2 2 2 2 2 2 2 2 2
left_child=1 3 5 6 23 14 18 8 33 13 57 -11 27 30 41 39 -13 -18 22 -19 59 34 45 24 54 36 -27 -3 29 58 -4 32 -12 77 35 -22 -10 -38 40 -16 -39 -2 -43 44 -15 -1 -31 -42 65 50 -28 53 74 -9 68 56 63 -8 -26 -17 -61 -45 -24 -30 -65 -14 -57 -50 -5 -7 -40 -69 -64 -47 -20 -34 78 -6 -36 -80 -33 82 -76
right_child=2 12 9 4 7 69 10 51 25 11 31 16 48 43 15 20 17 19 52 -21 21 -23 62 -25 28 26 49 -29 55 46 -32 80 75 -35 76 -37 37 38 70 -41 47 42 -44 61 -46 73 -48 -49 67 -51 -52 -53 -54 -55 -56 66 -58 -59 -60 60 -62 -63 72 64 -66 -67 -68 71 -70 -71 -72 -73 -74 -75 81 -77 -78 -79 79 -81 -82 -83 -84
